<?xml version="1.0"?>
<opencv_storage>
<my_svm type_id="opencv-ml-svm">
  <svm_type>C_SVC</svm_type>
  <kernel><type>RBF</type>
    <gamma>3.1250000000000000e-002</gamma></kernel>
  <C>5.0000000000000000e-001</C>
  <term_criteria><epsilon>2.2204460492503131e-016</epsilon>
    <iterations>100</iterations></term_criteria>
  <var_all>324</var_all>
  <var_count>324</var_count>
  <class_count>2</class_count>
  <class_labels type_id="opencv-matrix">
    <rows>1</rows>
    <cols>2</cols>
    <dt>i</dt>
    <data>
      0 1</data></class_labels>
  <sv_total>67</sv_total>
  <support_vectors>
    <_>
      1.50051285e-002 3.46279889e-002 5.59669882e-002 7.58871138e-002
      2.51461029e-001 7.26806819e-002 1.49813350e-002 9.78836231e-003
      1.32149253e-002 4.23865840e-002 1.16954632e-001 2.44134411e-001
      2.88659602e-001 2.88659602e-001 8.91971290e-002 2.33046114e-002
      1.20936828e-002 3.91412340e-002 1.88901529e-001 1.77385688e-001
      2.04798028e-001 2.36674428e-001 2.88659602e-001 6.82366341e-002
      6.91912090e-003 2.73134764e-002 7.35358447e-002 2.27871731e-001
      2.88659602e-001 2.88659602e-001 2.88659602e-001 2.88659602e-001
      7.30417967e-002 3.33806290e-003 1.15322908e-002 1.26081526e-001
      4.41407375e-002 1.19929887e-001 3.08885127e-001 3.08885127e-001
      3.08885127e-001 1.36309564e-001 4.78487872e-002 1.41580040e-002
      6.50925115e-002 5.04359230e-002 8.99528340e-002 1.56566083e-001
      2.46054024e-001 1.47628605e-001 1.04922391e-001 5.91912679e-002
      2.41208430e-002 8.25406015e-002 1.80620223e-001 2.41545826e-001
      3.04764301e-001 3.08885127e-001 3.08885127e-001 7.72485659e-002
      2.81161126e-002 2.92904228e-002 1.27399951e-001 9.38695446e-002
      1.06513217e-001 1.13909297e-001 1.63781911e-001 2.26716474e-001
      1.00683041e-001 5.03154248e-002 5.62585704e-002 6.28180206e-002
      6.40360042e-002 9.97060686e-002 1.30777597e-001 1.17034972e-001
      2.26116717e-001 1.80052832e-001 1.07272826e-001 2.28967760e-002
      5.29496334e-002 3.69812138e-002 3.58516537e-002 7.56582618e-002
      1.42249629e-001 2.91704148e-001 2.91704148e-001 1.02760702e-001
      2.43096426e-002 2.91442294e-002 1.56084582e-001 1.89244851e-001
      2.06812859e-001 2.29394749e-001 2.91704148e-001 2.12724909e-001
      8.47406834e-002 8.67695734e-002 9.19842348e-002 7.91324824e-002
      8.84850249e-002 1.85374185e-001 2.77751029e-001 2.91704148e-001
      2.91704148e-001 1.72976986e-001 5.21235876e-002 7.45679438e-002
      2.36441642e-001 2.15784952e-001 1.52027488e-001 1.96283847e-001
      1.70245633e-001 1.01094343e-001 2.06945941e-001 1.07383966e-001
      1.07278101e-001 2.31777295e-001 2.36441642e-001 2.36441642e-001
      2.36441642e-001 9.82025862e-002 5.62857091e-002 8.23184699e-002
      4.65425998e-002 9.19133127e-002 1.25483230e-001 9.07085091e-002
      5.85454106e-002 1.31644487e-001 1.91110343e-001 2.16436356e-001
      2.36441642e-001 2.36441642e-001 1.06214955e-001 8.91441107e-002
      8.05492103e-002 6.67861179e-002 8.62554535e-002 2.28007942e-001
      2.31211469e-001 2.36441642e-001 1.47092015e-001 1.27708003e-001
      2.45456964e-001 2.45456964e-001 2.45456964e-001 2.45456964e-001
      2.06648558e-001 8.23905617e-002 6.36587292e-002 5.37453666e-002
      1.65327698e-001 1.72844291e-001 1.81503922e-001 1.72342822e-001
      2.34536394e-001 2.45456964e-001 8.41175169e-002 6.21665344e-002
      1.29530415e-001 1.26126051e-001 1.03449248e-001 1.60667837e-001
      1.22835569e-001 1.13914929e-001 2.45456964e-001 2.45456964e-001
      2.45456964e-001 9.69983116e-002 1.33059651e-001 1.39778644e-001
      1.05389252e-001 6.85284734e-002 1.10372670e-001 2.45456964e-001
      8.29943642e-002 9.52087268e-002 1.15523472e-001 1.08940177e-001
      7.81143084e-002 1.11542657e-001 1.53665945e-001 2.31914684e-001
      2.69462407e-001 1.33543178e-001 6.69178069e-002 1.83255374e-001
      1.16045877e-001 3.53767425e-002 5.39323241e-002 1.83136478e-001
      2.69462407e-001 2.69462407e-001 2.69462407e-001 1.04052961e-001
      1.33321583e-001 9.68893394e-002 7.41195902e-002 3.41852233e-002
      5.41870594e-002 1.09323762e-001 2.69462407e-001 1.24864645e-001
      1.21115848e-001 1.75373524e-001 1.12594113e-001 2.18077153e-002
      1.77119896e-002 8.69293064e-002 2.69462407e-001 2.69462407e-001
      2.69462407e-001 1.92134738e-001 1.64414719e-001 8.88759643e-002
      7.95047507e-002 9.03599933e-002 1.29182175e-001 1.81140885e-001
      2.41808459e-001 2.22100466e-001 2.23831221e-001 1.12552702e-001
      6.34302497e-002 4.27796580e-002 7.86282867e-002 1.41931176e-001
      1.21923201e-001 2.41808459e-001 2.41808459e-001 2.34709233e-001
      1.24018252e-001 9.35338065e-002 1.52924851e-001 1.46624014e-001
      2.41808459e-001 2.41808459e-001 2.41808459e-001 1.81269631e-001
      5.88376559e-002 6.08982891e-002 1.04073487e-001 7.50485361e-002
      1.28485546e-001 2.35254437e-001 1.50778666e-001 2.41808459e-001
      1.83576196e-001 1.24899536e-001 1.68016061e-001 1.11550316e-001
      2.87951902e-002 6.47805557e-002 1.05237752e-001 8.78042355e-002
      2.44125828e-001 2.44125828e-001 1.49384812e-001 1.49648950e-001
      8.41119066e-002 1.61245674e-001 3.43925878e-002 2.91515570e-002
      9.87161249e-002 2.12922677e-001 1.39969736e-001 1.21643350e-001
      1.00110687e-001 8.57319757e-002 2.98269093e-002 1.00264803e-001
      2.02077419e-001 2.44125828e-001 2.44125828e-001 2.44125828e-001
      2.44125828e-001 2.44125828e-001 1.04402125e-001 1.74469918e-001
      1.04368016e-001 1.05101719e-001 2.44125828e-001 2.44125828e-001
      2.44125828e-001 2.36048803e-001 1.16526432e-001 8.22313130e-002
      1.68955460e-001 2.72634756e-002 2.91416179e-002 1.16649359e-001
      2.69042224e-001 1.39434367e-001 1.77838519e-001 1.14984415e-001
      1.34179607e-001 2.08718348e-002 1.96631532e-002 5.29403724e-002
      2.00834826e-001 2.69042224e-001 2.69042224e-001 2.66986966e-001
      8.32695514e-002 3.97426859e-002 2.13867724e-001 8.79245773e-002
      6.99593872e-002 2.69042224e-001 2.69042224e-001 2.16330037e-001
      1.93660140e-001 8.48074183e-002 1.24109633e-001 3.73984054e-002
      3.46389078e-002 9.04525369e-002 2.69042224e-001 2.69042224e-001
      1.97642207e-001 1.52662039e-001 4.05492671e-002 2.78484412e-002</_>
    <_>
      5.28558120e-002 1.12838112e-001 1.85830489e-001 2.91352004e-001
      2.91352004e-001 1.06689014e-001 3.94066237e-002 2.50039510e-002
      3.07660811e-002 2.93964278e-002 4.06459607e-002 6.48928881e-002
      2.77051300e-001 2.91352004e-001 1.26046628e-001 4.43028100e-002
      2.42822729e-002 1.79420784e-002 5.73453344e-002 1.02743439e-001
      2.04675406e-001 2.91352004e-001 2.91352004e-001 1.96915388e-001
      9.34136286e-002 8.03932175e-002 8.83843005e-002 5.25710918e-002
      1.61629289e-001 2.34329000e-001 2.91352004e-001 2.91352004e-001
      1.53627917e-001 6.99645951e-002 6.82188198e-002 4.01515327e-002
      1.43712051e-002 1.25368107e-002 5.53622469e-002 3.28546405e-001
      3.28546405e-001 9.86260101e-002 7.15670139e-002 3.36814895e-002
      1.26471939e-002 3.19940783e-002 2.56814361e-002 6.80454075e-002
      3.28546405e-001 3.28546405e-001 5.65688238e-002 2.21072230e-002
      7.22769415e-003 1.42552955e-002 4.08861116e-002 1.67195052e-001
      2.83968925e-001 3.28546405e-001 3.28546405e-001 7.74224997e-002
      1.48651097e-002 2.07806472e-002 2.69614253e-002 2.24916115e-002
      3.32028903e-002 8.68202820e-002 2.78082013e-001 3.28546405e-001
      8.16229880e-002 6.05207263e-003 7.87525531e-003 2.03370620e-002
      1.41711105e-002 1.44818081e-002 3.37021798e-002 2.15348646e-001
      4.14652437e-001 7.36204758e-002 9.12957825e-003 2.09280010e-003
      5.83177013e-003 4.83958283e-003 1.18003145e-003 2.88432278e-003
      2.42594928e-001 4.14652437e-001 1.74754575e-001 2.24948511e-003
      1.89231228e-004 4.66338638e-003 2.10666023e-002 2.54956614e-002
      4.26689684e-002 1.84824809e-001 4.14652437e-001 7.97417164e-002
      7.39971502e-003 8.68240558e-003 1.66366529e-002 1.10943299e-002
      1.78018790e-002 2.69741397e-002 2.64553159e-001 4.14652437e-001
      2.20965832e-001 3.18170935e-002 1.24928290e-002 1.43410293e-002
      8.10744986e-002 5.30989990e-002 1.23848207e-001 1.30123198e-001
      2.35727221e-001 2.18388528e-001 2.01836705e-001 2.01048404e-001
      1.74576104e-001 1.41446382e-001 1.86287925e-001 1.77017942e-001
      9.52443853e-002 2.19106838e-001 1.40827924e-001 1.63273677e-001
      2.35727221e-001 1.73343927e-001 3.34485658e-002 5.89774130e-003
      3.64950225e-002 9.37969610e-002 2.35727221e-001 2.30196387e-001
      2.35727221e-001 1.68948308e-001 6.88319579e-002 8.67063627e-002
      3.60887833e-002 2.45381929e-002 6.70529827e-002 2.35727221e-001
      2.35727221e-001 2.35727221e-001 2.35727221e-001 1.44831166e-001
      2.13351548e-001 2.48429850e-001 2.48429850e-001 2.40759343e-001
      1.94779113e-001 1.02493860e-001 1.06892586e-001 2.17411518e-001
      2.44918913e-001 1.15262769e-001 7.15105459e-002 1.09415047e-001
      1.47211775e-001 1.78726196e-001 1.05472617e-001 7.92394057e-002
      6.82335570e-002 8.89225677e-002 1.62154540e-001 6.55623525e-002
      6.25511631e-002 3.99225689e-002 1.62986606e-001 2.48429850e-001
      2.48429850e-001 2.48429850e-001 2.48429850e-001 1.07089318e-001
      3.28189805e-002 6.48335516e-002 7.22568035e-002 1.09141752e-001
      2.48429850e-001 2.48429850e-001 1.20084897e-001 9.08514932e-002
      6.05758950e-002 6.28519803e-002 6.19874299e-002 1.66943461e-001
      3.42899948e-001 6.43839389e-002 3.44361402e-002 3.67144160e-002
      3.15175727e-002 2.17389092e-002 7.15446547e-002 6.33511916e-002
      2.47886822e-001 3.42899948e-001 1.99299008e-001 4.49832454e-002
      4.00093608e-002 3.27371247e-002 5.91025986e-002 4.40552980e-002
      2.12026551e-001 2.56547391e-001 3.42899948e-001 1.24674201e-001
      2.32713178e-001 7.47734383e-002 3.66179757e-002 2.83987336e-002
      7.38106593e-002 1.59098402e-001 3.34881335e-001 3.42899948e-001
      1.46666780e-001 4.58308794e-002 4.65104692e-002 3.81476209e-002
      6.57577859e-003 1.34331232e-003 1.42840855e-002 1.35184824e-001
      2.97588706e-001 2.33197913e-001 2.35545844e-001 1.22009099e-001
      2.67986562e-002 8.12036823e-003 9.48757224e-005 2.31314581e-002
      1.37542024e-001 2.97588706e-001 2.97588706e-001 2.97588706e-001
      1.86599746e-001 4.68163788e-002 2.21431758e-002 1.65992137e-003
      3.75964073e-003 8.92658308e-002 2.97588706e-001 1.55239910e-001
      7.65031800e-002 1.01065770e-001 1.11809738e-001 1.95680326e-003
      4.09232825e-003 2.46440414e-002 1.40940532e-001 2.97588706e-001
      2.97588706e-001 2.37117141e-001 1.55917555e-001 1.20088167e-001
      8.96921102e-003 1.72671373e-003 2.34318431e-002 7.43997619e-002
      2.88811147e-001 2.88811147e-001 2.88811147e-001 9.42836478e-002
      4.18889746e-002 2.91246474e-002 1.11402487e-002 5.12219816e-002
      7.78055862e-002 1.46207765e-001 2.65555292e-001 2.88811147e-001
      6.46237954e-002 3.58006172e-002 0. 4.65489272e-003 2.29329281e-002
      1.21430419e-001 2.88811147e-001 2.88811147e-001 2.88811147e-001
      1.22704603e-001 1.17670409e-001 1.50906546e-002 5.72419679e-003
      2.30689403e-002 6.07528500e-002 2.72609353e-001 2.88811147e-001
      2.76493520e-001 6.98595122e-002 4.09773216e-002 8.93939957e-002
      4.00807746e-002 2.59204984e-001 2.73876190e-001 2.59424329e-001
      1.27263591e-001 3.40454489e-001 9.60975140e-002 8.52812231e-002
      3.73354666e-002 3.27227153e-002 1.55087784e-001 3.40454489e-001
      3.40454489e-001 1.75735444e-001 6.10309504e-002 2.98774820e-002
      4.24054228e-002 6.01090230e-002 3.30267772e-002 7.91033283e-002
      9.55167189e-002 1.45564973e-001 1.13666832e-001 1.69601455e-001
      7.14055225e-002 7.60718808e-002 2.57356782e-002 3.18937600e-002
      8.75478163e-002 2.29985103e-001 3.40454489e-001 2.44163066e-001
      2.84762736e-002 1.00519918e-002 2.71840617e-002</_>
    <_>
      3.69230472e-003 1.22849476e-002 3.73156369e-002 3.03544775e-002
      8.72238651e-002 3.44958305e-001 3.44958305e-001 8.51814225e-002
      4.78176819e-003 3.47466650e-003 1.01173604e-002 2.29866337e-002
      3.63588259e-002 4.14173678e-002 1.82047591e-001 3.44958305e-001
      6.91002086e-002 3.85088916e-003 2.42534396e-003 1.18563995e-002
      5.96635193e-002 2.78450046e-002 1.04218081e-001 3.44958305e-001
      3.44958305e-001 2.65165567e-001 5.36876731e-002 3.62288929e-003
      7.88887590e-003 2.59520225e-002 3.19338143e-002 2.49967594e-002
      2.93107510e-001 3.44958305e-001 2.10158050e-001 5.08888662e-002
      1.69569068e-002 2.51769405e-002 2.84252148e-002 5.53019010e-002
      6.25464469e-002 1.11102648e-001 3.45733225e-001 2.31445000e-001
      1.34180626e-002 1.84452292e-002 1.35223307e-002 4.06077411e-003
      6.67303521e-003 4.77282964e-002 1.07327819e-001 3.45733225e-001
      3.45733225e-001 4.95389365e-002 3.26035656e-002 2.95264442e-002
      2.30429284e-002 4.21580859e-002 3.72399352e-002 1.92980945e-001
      3.45733225e-001 3.45733225e-001 6.23526052e-002 6.56925887e-002
      3.27004716e-002 3.85194202e-003 8.86818115e-003 2.85841580e-002
      3.64107378e-002 3.45733225e-001 3.45733225e-001 1.17554411e-001
      4.92698476e-002 2.12543588e-002 2.60062981e-002 4.41364981e-002
      1.15572594e-001 9.01780128e-002 2.50164360e-001 2.73589730e-001
      7.27650896e-002 7.07304254e-002 7.30841681e-002 9.66308266e-002
      2.03794539e-001 2.73589730e-001 2.73589730e-001 2.59186596e-001
      1.52123243e-001 5.68898432e-002 7.45811462e-002 3.42101082e-002
      1.27313072e-002 2.09499113e-002 1.06232315e-001 7.14711845e-002
      1.58995867e-001 2.73589730e-001 1.29241407e-001 5.30511700e-002
      5.59108146e-002 9.62804109e-002 2.73589730e-001 2.73589730e-001
      2.73589730e-001 2.64449418e-001 2.49685511e-001 1.02326348e-001
      3.50825838e-003 1.12771783e-002 2.13069804e-002 1.43922344e-002
      6.34937957e-002 1.95021123e-001 3.59131008e-001 2.89248437e-001
      6.99904412e-002 3.16045457e-003 3.85078113e-003 1.50654102e-002
      1.53805837e-002 3.06671876e-002 2.44887829e-001 3.59131008e-001
      3.59131008e-001 7.72126019e-002 8.43020622e-003 8.33681691e-003
      2.40982864e-002 2.75001898e-002 4.08135615e-002 7.76739568e-002
      2.53471583e-001 1.41724765e-001 2.73765884e-002 2.68040597e-002
      1.63710825e-002 4.11667451e-002 5.40665984e-002 5.12766317e-002
      1.72325239e-001 3.59131008e-001 3.59131008e-001 1.43380061e-001
      6.10947935e-003 3.06762289e-003 7.97230285e-003 9.87517927e-003
      1.47029208e-002 1.04678012e-001 3.37716192e-001 3.37716192e-001
      5.81101812e-002 2.16676500e-002 1.01357773e-002 1.68332004e-003
      5.40151307e-003 1.17742652e-002 1.56517010e-002 1.73309654e-001
      3.37716192e-001 1.93477437e-001 3.39689143e-002 3.13557088e-002
      3.35190929e-002 4.91907448e-002 4.68169861e-002 1.25254273e-001
      3.37716192e-001 3.37716192e-001 1.93473339e-001 4.00732122e-002
      3.05453148e-002 1.56543721e-002 1.85333807e-002 2.73601022e-002
      3.11561842e-002 2.21821770e-001 3.37716192e-001 3.37716192e-001
      6.95768893e-002 3.37841325e-002 1.41546242e-002 1.54752070e-002
      5.61458915e-002 5.01168072e-002 7.56505132e-002 2.72652835e-001
      2.72652835e-001 8.22897255e-002 5.37193194e-002 8.72543380e-002
      1.33547947e-001 2.72652835e-001 2.72652835e-001 1.93045467e-001
      1.51123300e-001 1.50245592e-001 1.18513942e-001 4.97943237e-002
      3.86010222e-002 1.75878424e-002 4.83408906e-002 4.31435481e-002
      7.89260119e-002 2.72652835e-001 2.72652835e-001 1.92286342e-001
      1.63062692e-001 2.02585846e-001 1.92415580e-001 2.72652835e-001
      2.37243459e-001 1.38031468e-001 1.45766988e-001 2.72652835e-001
      2.19951589e-002 1.35544948e-002 1.66110963e-001 2.44372040e-001
      1.72703102e-001 1.07588544e-001 1.53645456e-001 8.34306777e-002
      3.08863763e-002 1.35799050e-001 9.50538144e-002 2.17430919e-001
      2.61463135e-001 1.65299714e-001 1.73239842e-001 3.08120221e-001
      3.08120221e-001 3.08120221e-001 1.00876177e-002 1.42105483e-002
      1.86905220e-001 3.08120221e-001 2.60381371e-001 3.52949649e-002
      2.30133161e-002 8.24061129e-003 1.47920642e-002 6.13059625e-002
      5.54280281e-002 2.07267463e-001 2.72665203e-001 1.36883557e-001
      2.36605573e-002 3.18515487e-002 3.12236100e-002 7.27661103e-002
      1.58760697e-001 1.32573664e-001 9.57599729e-002 1.23773642e-001
      1.04653686e-001 1.18522301e-001 3.44764441e-001 3.44764441e-001
      3.44764441e-001 1.95472375e-001 1.83806509e-001 8.42806026e-002
      7.57108256e-002 9.15957093e-002 6.35002255e-002 2.69935936e-001
      3.44764441e-001 3.44764441e-001 6.62490726e-002 5.66443428e-002
      8.73313993e-002 9.53062475e-002 8.73124078e-002 2.99310945e-002
      4.21779193e-002 5.07371649e-002 7.75766820e-002 8.90908912e-002
      1.01224892e-001 5.87608777e-002 1.00596793e-001 1.39134318e-001
      5.71988858e-002 6.54393435e-002 1.33403897e-001 1.42097324e-001
      1.72787204e-001 1.17772646e-001 8.42251629e-002 3.23582850e-002
      7.43313953e-002 5.08341603e-002 7.84777999e-002 3.00316334e-001
      3.00316334e-001 1.74968466e-001 2.23703504e-001 2.87809223e-001
      3.00316334e-001 3.00316334e-001 1.56184226e-001 1.10032775e-001
      1.22274615e-001 2.26676911e-001 1.00545362e-001 6.96809366e-002
      4.40637618e-002 6.45096377e-002 7.97247961e-002 4.85765934e-002
      3.93667035e-002 8.16181600e-002 9.62203667e-002 6.81436807e-002
      7.03623891e-002 1.45637915e-001 3.00316334e-001 3.00316334e-001
      1.71224982e-001 8.26499686e-002 7.17038810e-002 6.36460930e-002</_>
    <_>
      3.33184868e-001 1.61203936e-001 5.34877367e-002 4.09359187e-002
      3.91911045e-002 4.67768783e-004 3.88340699e-003 7.99330603e-003
      2.69453794e-001 3.33184868e-001 1.00174576e-001 7.91696608e-002
      4.96852510e-002 4.49146591e-002 1.45350944e-003 1.96965598e-002
      3.38853039e-002 3.33184868e-001 3.33184868e-001 1.58835769e-001
      5.85268587e-002 3.27945761e-002 2.08100993e-002 1.51201698e-003
      1.66166807e-003 1.26538174e-002 3.33184868e-001 3.33184868e-001
      2.30793729e-001 7.86310360e-002 4.67247963e-002 1.25917653e-002
      6.80646102e-004 1.27500435e-002 1.52855180e-002 3.33184868e-001
      2.83107877e-001 1.48601502e-001 1.23915188e-001 8.88751000e-002
      3.25955972e-002 1.03692794e-002 2.33183522e-002 4.04062271e-002
      2.60935217e-001 2.83107877e-001 2.27631658e-001 1.91639051e-001
      1.25957876e-001 2.53387000e-002 1.80389695e-002 1.15754381e-002
      6.52838126e-002 1.96730837e-001 2.83107877e-001 2.77679533e-001
      1.38673812e-001 8.66178721e-002 6.73099328e-003 1.02493372e-002
      2.03836933e-002 2.58411076e-002 2.83107877e-001 2.83107877e-001
      2.83107877e-001 2.33293533e-001 9.93594304e-002 1.21725844e-002
      1.78092234e-002 1.36247929e-002 2.92502251e-002 2.83107877e-001
      2.85330623e-001 2.25906834e-001 1.82464719e-001 9.62947756e-002
      3.06740981e-002 9.22441110e-003 8.43669381e-003 4.55671288e-002
      1.68906242e-001 2.85330623e-001 2.49966264e-001 1.89783901e-001
      9.18954387e-002 5.19882105e-002 1.77039225e-002 4.76538874e-002
      3.27117965e-002 1.65998921e-001 2.85330623e-001 2.85330623e-001
      2.13833958e-001 5.57017848e-002 1.38000017e-002 8.80188216e-003
      2.02909252e-003 3.16151306e-002 2.67795503e-001 2.85330623e-001
      2.85330623e-001 2.19655007e-001 9.13422108e-002 4.58223484e-002
      1.00443931e-002 2.18707714e-002 5.18248938e-002 2.42354780e-001
      3.24400991e-001 1.10699587e-001 2.73375772e-002 4.96838521e-003
      4.89904871e-003 2.33986625e-003 3.70691880e-004 4.78250254e-003
      3.24400991e-001 3.24400991e-001 2.27829769e-001 4.48606201e-002
      1.03860805e-002 4.03068773e-003 4.34972951e-003 1.91457721e-003
      1.42021831e-002 3.24400991e-001 3.24400991e-001 1.45421088e-001
      2.27299929e-002 5.94484445e-004 9.35007934e-004 3.00302240e-003
      5.43281785e-004 2.03915406e-003 3.24400991e-001 3.24400991e-001
      2.47917384e-001 6.22870699e-002 4.82432544e-003 4.84495657e-003
      7.62079144e-003 1.55408692e-004 1.99582763e-002 3.24400991e-001
      2.85770386e-001 2.75731504e-001 1.04069509e-001 2.87574604e-002
      6.11186773e-003 5.21271722e-003 4.48928028e-003 2.34961566e-002
      2.52937496e-001 2.85770386e-001 2.85770386e-001 1.55395269e-001
      4.00591232e-002 4.22012154e-003 4.60809236e-003 3.28547531e-003
      1.43750953e-002 2.32282326e-001 2.85770386e-001 2.85770386e-001
      1.26029938e-001 1.25328191e-002 8.47272947e-003 6.93143252e-003
      1.01696882e-004 3.54189724e-002 2.85770386e-001 2.85770386e-001
      2.85770386e-001 1.67570248e-001 2.72465274e-002 1.06953047e-002
      2.61478149e-003 8.27960976e-005 2.18380000e-002 2.54417002e-001
      3.09894532e-001 3.09894532e-001 1.39611527e-001 3.06030437e-002
      3.93605093e-003 3.33844032e-003 4.43564059e-004 1.49730267e-002
      1.67135075e-001 3.09894532e-001 3.09894532e-001 1.61633834e-001
      6.45264462e-002 1.68740377e-002 1.21689755e-002 1.24613419e-002
      4.02734652e-002 1.75819129e-001 3.09894532e-001 3.09894532e-001
      1.18815318e-001 2.52475664e-002 9.77059454e-003 1.33953756e-003
      7.47788872e-004 1.36279557e-002 1.89808205e-001 3.09894532e-001
      3.09894532e-001 1.66619018e-001 6.67000040e-002 2.90630013e-002
      9.41625889e-003 2.21434422e-002 2.67916266e-002 1.76591158e-001
      3.32999945e-001 1.00761086e-001 1.01487953e-002 0. 0.
      1.12629950e-003 3.14176199e-004 3.02475831e-003 3.32999945e-001
      3.32999945e-001 2.11858198e-001 3.05824205e-002 2.87958654e-003
      2.23743380e-003 4.23101848e-003 1.78192591e-003 9.03197285e-003
      3.01549584e-001 3.32999945e-001 1.21141613e-001 4.41094907e-003 0.
      1.23023717e-002 7.67256541e-004 2.23879167e-003 9.38879326e-003
      3.32999945e-001 3.32999945e-001 2.74232954e-001 3.07862759e-002
      2.38730921e-003 1.26675190e-002 3.65560269e-003 8.66453350e-003
      2.71124803e-002 3.03520352e-001 2.99641252e-001 2.99641252e-001
      7.31493756e-002 6.91855652e-003 3.99735617e-003 4.16283542e-003
      3.55751603e-003 1.44020095e-002 2.57922381e-001 2.99641252e-001
      2.99641252e-001 1.03171356e-001 9.55555681e-003 5.20337699e-003
      2.32629967e-003 5.48687577e-003 1.44753959e-002 2.29156733e-001
      2.99641252e-001 2.99641252e-001 6.79514706e-002 6.88215345e-003
      1.30016021e-002 3.11673083e-003 7.73153128e-003 2.38622371e-002
      2.65078843e-001 2.99641252e-001 2.99641252e-001 7.47977868e-002
      8.59745219e-003 1.25085544e-002 2.99167982e-003 8.26372951e-003
      1.38303144e-002 2.47380808e-001 3.15683126e-001 3.15683126e-001
      8.14260989e-002 1.06884642e-002 5.41842077e-003 1.26824481e-003
      2.99888337e-003 6.25263574e-003 1.82274073e-001 3.15683126e-001
      3.15683126e-001 1.58203721e-001 3.91864367e-002 3.68590355e-002
      1.33659253e-002 8.41136090e-003 6.64191181e-003 1.74965158e-001
      3.15683126e-001 3.15683126e-001 7.61402920e-002 8.15691333e-003
      1.15056345e-002 1.23300671e-003 3.95550206e-003 6.52837846e-003
      1.78728849e-001 3.15683126e-001 3.15683126e-001 2.04377845e-001
      3.99885662e-002 3.72832678e-002 1.24857500e-002 4.10459237e-003
      4.35779197e-003 1.33309916e-001</_>
    <_>
      1.58969522e-001 2.27877244e-001 9.89316851e-002 5.56596704e-002
      9.60146710e-002 8.99640024e-002 1.27645969e-001 2.30577976e-001
      1.85980514e-001 2.13459358e-001 2.30577976e-001 1.05956428e-001
      7.83413947e-002 1.23189278e-001 1.06854081e-001 1.55893683e-001
      1.81731641e-001 2.05615059e-001 2.30577976e-001 1.87587336e-001
      1.34343743e-001 7.65999630e-002 7.87689909e-002 7.94150010e-002
      9.80985090e-002 2.30577976e-001 2.30577976e-001 2.30577976e-001
      2.30577976e-001 1.65920198e-001 1.04800604e-001 8.90447944e-002
      1.10087849e-001 1.78859323e-001 2.30577976e-001 2.30577976e-001
      1.47234455e-001 1.96849838e-001 1.03119671e-001 6.63967803e-002
      6.56164289e-002 8.16085413e-002 1.87165171e-001 1.45936951e-001
      1.67983502e-001 1.78000242e-001 2.17796251e-001 2.04276517e-001
      1.50878310e-001 1.52772814e-001 9.63267535e-002 1.44891009e-001
      1.78941295e-001 1.84235692e-001 1.65733501e-001 1.79140016e-001
      1.16793796e-001 6.57454729e-002 4.37784120e-002 9.68792811e-002
      2.17796251e-001 2.17796251e-001 2.03795716e-001 1.90043166e-001
      2.17796251e-001 2.17796251e-001 1.83514655e-001 2.13482127e-001
      1.60685375e-001 2.06148043e-001 1.97905898e-001 1.43888339e-001
      1.70286164e-001 1.85272247e-001 1.60808340e-001 1.17237113e-001
      1.45788997e-001 1.47851154e-001 1.05781585e-001 1.08723514e-001
      8.85305256e-002 1.94149360e-001 1.13328889e-001 1.30513340e-001
      1.12010702e-001 2.28172332e-001 2.28172332e-001 2.28172332e-001
      8.51910338e-002 1.13623507e-001 1.47448406e-001 2.28172332e-001
      2.28172332e-001 1.45611227e-001 1.88907966e-001 1.17818378e-001
      8.35923702e-002 1.05482318e-001 1.10378273e-001 1.61917359e-001
      1.60730273e-001 1.56741738e-001 1.82254821e-001 2.28172332e-001
      2.28172332e-001 2.20483378e-001 1.50950208e-001 2.28172332e-001
      3.06198835e-001 5.21498993e-002 3.65561806e-002 1.64192170e-002
      1.51704159e-002 2.08763108e-002 2.13321298e-002 8.44907090e-002
      3.24004054e-001 3.42472374e-001 1.10375814e-001 5.51367141e-002
      2.75593605e-002 2.16706917e-002 2.35480517e-002 3.65865305e-002
      9.61312726e-002 3.23716462e-001 3.56761247e-001 6.05307519e-002
      3.92112099e-002 1.20179718e-002 8.23596492e-003 1.49647053e-002
      2.63590161e-002 8.87372419e-002 3.56761247e-001 3.56761247e-001
      7.61392862e-002 2.22845841e-002 3.18712112e-003 4.63629235e-003
      1.15830367e-002 2.07243152e-002 7.23719448e-002 3.56761247e-001
      2.85012901e-001 1.32128224e-001 6.77815005e-002 2.23728381e-002
      1.57508366e-002 4.52827290e-002 8.26705694e-002 9.94139537e-002
      2.16485590e-001 2.15890333e-001 2.17316881e-001 1.55960530e-001
      7.37234950e-002 1.36384666e-001 1.73834071e-001 1.55021653e-001
      8.75517204e-002 1.78244382e-001 2.85964131e-001 2.02896237e-001
      8.94940123e-002 5.57172392e-003 8.28006864e-003 2.22656298e-002
      1.77561939e-002 5.96091636e-002 2.85964131e-001 2.85964131e-001
      2.85964131e-001 2.06292182e-001 6.08225763e-002 1.32289663e-001
      1.66331783e-001 1.65851489e-001 1.00732796e-001 2.85964131e-001
      1.11227185e-001 1.85620904e-001 1.64276630e-001 9.70880687e-002
      1.70849636e-001 1.74304500e-001 1.25776991e-001 9.13910717e-002
      1.54853508e-001 1.62882298e-001 1.13925114e-001 1.33992165e-001
      1.42468259e-001 2.16190651e-001 1.58874378e-001 1.30535811e-001
      1.46690533e-001 2.16190651e-001 2.00789452e-001 2.16190651e-001
      1.38560846e-001 7.18377829e-002 1.64586872e-001 2.16190651e-001
      2.14741528e-001 1.08427189e-001 2.04231948e-001 1.67748123e-001
      1.07683532e-001 1.06556498e-001 1.54407680e-001 2.16190651e-001
      2.16190651e-001 2.16190651e-001 1.72030061e-001 2.05612600e-001
      3.14418405e-001 8.70479569e-002 7.57150576e-002 5.76658957e-002
      2.34165892e-001 9.24631506e-002 1.51181251e-001 1.72565877e-001
      3.14418405e-001 3.14418405e-001 5.39026223e-002 3.36977802e-002
      2.79641221e-003 4.70031379e-003 4.30527292e-002 8.91519785e-002
      1.30312949e-001 3.14418405e-001 6.19948767e-002 1.00889295e-001
      1.16282575e-001 2.46408552e-001 3.14418405e-001 1.45482495e-001
      1.86493695e-001 1.43544286e-001 1.06383845e-001 1.80515826e-001
      1.25842929e-001 4.97947671e-002 6.53701723e-002 5.72833270e-002
      7.21980482e-002 1.32516697e-001 1.39332429e-001 2.49568656e-001
      2.62075931e-001 1.77719384e-001 8.61420408e-002 1.04040932e-002
      5.98332612e-003 2.28365976e-002 2.97604147e-002 6.32329285e-002
      2.62075931e-001 2.62075931e-001 2.62075931e-001 2.19699576e-001
      1.08701460e-001 9.80876237e-002 9.58290175e-002 1.50654927e-001
      1.17535785e-001 2.62075931e-001 2.62075931e-001 1.21095516e-001
      5.74048348e-002 3.38280350e-002 2.84375977e-002 3.92497033e-002
      5.32987230e-002 6.58765510e-002 2.62075931e-001 2.62075931e-001
      1.26636565e-001 1.71314716e-001 2.56739259e-001 1.99977428e-001
      1.06416374e-001 1.34298429e-001 9.99360904e-002 2.62075931e-001
      1.60326138e-001 1.51758149e-001 1.26000181e-001 9.36982930e-002
      1.31047860e-001 2.01867923e-001 1.89184889e-001 1.17577061e-001
      1.92410305e-001 1.50241524e-001 7.73169100e-002 7.52266496e-002
      1.40852392e-001 2.17761040e-001 2.17761040e-001 2.17761040e-001
      1.21977277e-001 1.72940403e-001 1.24551527e-001 1.17986411e-001
      1.31442204e-001 2.17761040e-001 2.17761040e-001 2.02702880e-001
      1.80667728e-001 1.26156509e-001 1.76220730e-001 1.60545364e-001
      1.62510023e-001 1.13628648e-001 1.29187629e-001 2.17761040e-001
      2.17761040e-001 2.17761040e-001 1.52185142e-001 1.71236962e-001</_>
    <_>
      3.31074983e-001 1.14142559e-001 2.87066679e-002 2.39817537e-002
      1.42713681e-001 8.04998577e-002 2.06888206e-002 9.55780670e-002
      2.99603790e-001 3.31074983e-001 9.18760970e-002 2.54920013e-002
      2.83853933e-002 2.17959583e-001 1.03145137e-001 4.06096242e-002
      4.10225466e-002 2.89146572e-001 3.31074983e-001 1.08057380e-001
      2.78925747e-002 3.45849642e-003 1.71937924e-002 2.78944112e-002
      1.62878223e-002 9.02228579e-002 3.31074983e-001 3.31074983e-001
      7.25500509e-002 3.26408073e-002 3.61029692e-002 5.05950898e-002
      6.39128685e-002 5.59882857e-002 6.39558658e-002 3.31074983e-001
      3.04187149e-001 4.64220941e-002 1.90488417e-002 2.20710114e-002
      8.62170085e-002 6.36682883e-002 5.01302928e-002 5.71287498e-002
      2.48278871e-001 1.46336555e-001 2.94981431e-002 4.57585417e-003
      1.27835330e-002 3.04187149e-001 2.25499034e-001 1.58851087e-001
      1.33436739e-001 1.58693701e-001 3.04187149e-001 4.43946980e-002
      2.98800357e-002 3.78005952e-002 1.31943271e-001 8.75944570e-002
      4.51284610e-002 7.14581683e-002 3.04187149e-001 2.31222481e-001
      2.20173169e-002 7.37354625e-003 1.97986122e-002 3.04187149e-001
      3.04187149e-001 1.28865093e-001 1.35205820e-001 3.04187149e-001
      1.03619406e-002 1.40018975e-002 1.08572550e-003 2.93273069e-002
      3.52445006e-001 2.94673055e-001 1.06498227e-001 5.12127466e-002
      3.14745605e-002 1.10284111e-003 2.26411270e-003 1.56096695e-003
      3.70187983e-002 3.52445006e-001 3.33160520e-001 9.85613167e-002
      2.06264970e-003 1.85244251e-003 3.07414774e-002 3.36033269e-003
      4.48116101e-003 6.04651682e-002 3.52445006e-001 3.52445006e-001
      8.23781863e-002 5.47597818e-002 7.66234249e-002 7.41651934e-003
      1.55831361e-003 7.52817432e-004 9.09109190e-002 3.52445006e-001
      3.43404561e-001 6.09955639e-002 4.71938588e-003 7.83572625e-003
      2.64609784e-001 7.01032206e-002 4.83418889e-002 2.86657959e-002
      5.46151772e-002 5.11301421e-002 6.43203631e-002 6.17897399e-002
      2.64609784e-001 2.64609784e-001 5.72128408e-002 1.96310561e-002
      2.36037299e-002 5.31298369e-002 4.01181839e-002 4.18652520e-002
      1.07897520e-001 2.64609784e-001 2.00897634e-001 8.57298598e-002
      5.16337119e-002 6.90920055e-002 1.34072289e-001 1.86898440e-001
      2.64609784e-001 2.63553709e-001 2.64609784e-001 2.64609784e-001
      1.24419190e-001 4.19354923e-002 6.67904317e-002 2.18738019e-001
      1.33208156e-001 2.42313817e-001 2.64609784e-001 2.64609784e-001
      2.12731808e-001 2.56307814e-002 1.41005842e-002 2.01786645e-002
      1.25449166e-001 4.69454490e-002 7.03097284e-002 1.31498992e-001
      2.55086631e-001 5.67408875e-002 9.64418799e-003 2.27486677e-002
      3.49774584e-002 2.90291816e-001 1.46002144e-001 6.54282644e-002
      9.41563547e-002 9.24736485e-002 2.15951368e-001 6.00005351e-002
      2.92546563e-002 7.96963274e-002 2.90291816e-001 1.44329190e-001
      2.90291816e-001 2.90291816e-001 2.79392272e-001 8.71955380e-002
      5.53682819e-002 8.79781023e-002 1.62030160e-001 2.90291816e-001
      2.62106955e-001 2.34010741e-001 2.10659549e-001 8.41820538e-002
      6.01592064e-002 3.20950188e-002 6.94372505e-002 1.02100857e-001
      3.26627046e-001 1.79632142e-001 3.58749591e-002 2.15079524e-002
      6.99637532e-002 8.23879465e-002 3.30984332e-002 4.62284014e-002
      9.97964293e-002 3.26627046e-001 1.27417788e-001 1.66349169e-002
      1.53181190e-002 1.04285225e-001 1.23709455e-001 2.32063919e-001
      3.26627046e-001 2.65026391e-001 3.26627046e-001 1.90849856e-001
      5.98110482e-002 4.76574712e-002 7.24301115e-002 1.84286967e-001
      2.43571863e-001 2.19575107e-001 1.32210836e-001 2.62045652e-001
      7.57692233e-002 1.09442929e-002 3.60001437e-002 2.04608291e-001
      6.68970644e-002 2.01301109e-002 1.00674974e-002 2.67892275e-002
      4.47464660e-002 8.71866792e-002 2.48552561e-001 3.17188323e-001
      3.17188323e-001 8.54962468e-002 3.91442925e-002 1.31555246e-002
      2.91143451e-002 1.41282827e-001 9.17972103e-002 3.17188323e-001
      3.17188323e-001 3.17188323e-001 2.17396580e-002 2.24727076e-002
      2.94609871e-002 1.00068664e-002 9.53214336e-003 1.05104651e-002
      3.67985368e-002 3.17188323e-001 1.84316084e-001 1.35085126e-002
      1.81877073e-002 1.89907923e-002 1.17647341e-002 7.22485110e-002
      5.36781698e-002 2.89175749e-001 3.17188323e-001 2.16864571e-001
      1.02921240e-001 2.96504889e-002 1.50820771e-002 5.78348562e-002
      2.58311868e-001 1.42520070e-001 2.64960825e-001 2.64960825e-001
      2.28640497e-001 9.45013091e-002 7.53535181e-002 9.24533084e-002
      2.10245579e-001 2.64960825e-001 2.12340906e-001 1.79387867e-001
      1.26555145e-001 8.49098861e-002 3.32804620e-002 1.74028613e-002
      1.48390755e-002 4.05140631e-002 2.07337692e-001 1.43824160e-001
      2.64960825e-001 2.64960825e-001 1.33088931e-001 4.06741723e-002
      5.37438132e-002 6.84908107e-002 1.69573113e-001 2.64960825e-001
      2.00386584e-001 1.42679647e-001 2.56918460e-001 6.89049885e-002
      5.32254204e-002 1.94837004e-001 2.63914168e-001 2.70295650e-001
      2.70295650e-001 1.71247900e-001 4.81373630e-002 3.30077820e-002
      2.50406712e-002 9.84389484e-002 1.90878317e-001 1.87646717e-001
      1.55300841e-001 2.35814422e-001 8.66901651e-002 2.16094516e-002
      2.12092977e-002 1.22655392e-001 1.62738580e-002 6.59591928e-002
      1.00816272e-001 2.43187606e-001 2.70295650e-001 2.70295650e-001
      2.00416476e-001 6.96268082e-002 1.64332148e-002 5.98341785e-002
      5.05103990e-002 5.21725379e-002 1.16487384e-001 2.70295650e-001
      2.49545544e-001 2.67335504e-001 8.74513611e-002 1.43668100e-001</_>
    <_>
      3.48270088e-001 2.09086183e-002 7.42356572e-003 4.55287751e-003
      1.46592446e-002 6.44344557e-003 3.05784447e-003 3.16542313e-002
      3.48270088e-001 3.48270088e-001 3.33926454e-002 2.46493407e-002
      1.24661988e-002 7.92257767e-003 7.44398870e-003 2.47782888e-003
      2.83138715e-002 3.48270088e-001 3.48270088e-001 4.09517325e-002
      7.53983215e-004 2.78281310e-004 8.31466576e-004 4.29563050e-004
      1.03712892e-002 5.26146628e-002 3.48270088e-001 3.48270088e-001
      1.26186401e-001 1.43965408e-002 1.68416649e-003 3.92899179e-004
      4.36350208e-004 3.38939927e-003 2.99964305e-002 3.48270088e-001
      3.10922652e-001 9.02470201e-002 5.02548106e-002 1.74097102e-002
      6.83837524e-003 3.48512782e-003 1.02706663e-002 3.01835351e-002
      3.10922652e-001 3.10922652e-001 2.44756863e-001 1.27318397e-001
      4.44124341e-002 2.32869498e-002 1.07774381e-002 1.12347361e-002
      2.71966849e-002 2.97544420e-001 3.10922652e-001 1.78696066e-001
      4.77571934e-002 9.66537464e-003 1.03770883e-003 5.11334547e-005
      2.20858562e-003 1.73978060e-002 3.10922652e-001 3.10922652e-001
      3.01948696e-001 1.13181487e-001 2.59008743e-002 6.41176756e-003
      2.39500939e-003 4.56719054e-003 2.55410932e-002 3.10922652e-001
      2.77722836e-001 2.46990964e-001 1.22270636e-001 6.04409054e-002
      2.02489607e-002 1.32283773e-002 6.76595094e-003 3.47230621e-002
      2.40874320e-001 2.77722836e-001 2.77722836e-001 1.61235303e-001
      7.83927441e-002 1.63686313e-002 5.40978694e-003 1.24418549e-002
      4.60952334e-002 2.45717645e-001 2.77722836e-001 2.77722836e-001
      1.45257056e-001 2.94652656e-002 5.49412612e-003 3.16109601e-003
      2.37035379e-003 3.30581032e-002 2.77722836e-001 2.77722836e-001
      2.77722836e-001 2.05251396e-001 4.44515124e-002 6.20832155e-003
      3.54519999e-003 3.89899663e-003 3.48897614e-002 2.77722836e-001
      3.51934433e-001 1.90350767e-002 1.64611673e-004 0. 0. 0.
      4.86792484e-003 2.13265922e-002 3.51934433e-001 3.51934433e-001
      5.20915389e-002 5.01864776e-003 1.93732721e-003 0. 0.
      1.61096908e-003 8.91429652e-003 3.51934433e-001 3.51934433e-001
      1.57171190e-002 0. 0. 0. 0. 2.66865850e-003 2.32412536e-002
      3.51934433e-001 3.51934433e-001 3.15708555e-002 3.72322556e-003
      1.60766509e-003 2.48322933e-004 0. 1.48635032e-003 1.20762195e-002
      3.51934433e-001 3.20709288e-001 1.16188809e-001 2.44327690e-002
      9.20928549e-003 0. 0. 2.01814505e-003 6.59460714e-003
      3.20709288e-001 3.20709288e-001 2.44240418e-001 9.91636738e-002
      1.24925189e-002 9.04818473e-004 7.13166373e-004 1.80963194e-003
      1.49402367e-002 3.20709288e-001 3.20709288e-001 6.49760291e-002
      1.74944066e-002 1.05999662e-002 5.47224842e-003 0. 5.66849532e-003
      1.97329838e-002 3.20709288e-001 3.20709288e-001 2.68397808e-001
      1.02833793e-001 1.35483118e-002 6.51138648e-003 2.39485948e-004
      3.34811374e-003 4.38062735e-002 3.20709288e-001 2.99728632e-001
      2.46300802e-001 1.40059799e-001 1.56314000e-002 1.81347132e-003
      2.51791370e-003 4.78683447e-004 2.77297497e-002 2.41001442e-001
      2.99728632e-001 2.99728632e-001 1.41564935e-001 2.18962226e-002
      6.93054590e-003 8.25088657e-003 8.22042639e-004 2.56626364e-002
      2.27465928e-001 2.99728632e-001 2.99728632e-001 1.54690921e-001
      2.05013398e-002 2.71304045e-003 1.49691931e-003 8.59203981e-004
      5.60399033e-002 2.16805622e-001 2.99728632e-001 2.99728632e-001
      1.05521068e-001 2.28420831e-002 3.38181341e-003 4.24690498e-003
      7.34818575e-004 2.52896342e-002 2.62471825e-001 3.52688313e-001
      3.95441335e-003 0. 0. 0. 0. 5.36635751e-004 1.40429251e-002
      3.52688313e-001 3.52688313e-001 1.19845727e-002 1.74417812e-003
      7.48065417e-004 3.68971145e-004 5.45031726e-005 1.25860458e-003
      1.23752560e-002 3.52688313e-001 3.52688313e-001 5.03198570e-003 0.
      0. 2.25448585e-003 0. 0. 9.71653126e-003 3.52688313e-001
      3.52688313e-001 2.24392433e-002 2.86657829e-003 3.52248986e-004
      3.31445667e-003 8.17547669e-004 3.93329887e-003 1.35933990e-002
      3.52688313e-001 3.22686166e-001 7.15709031e-002 9.84382443e-003
      5.39839873e-003 8.60728975e-003 1.19960816e-004 4.08139545e-003
      1.88648254e-002 3.22686166e-001 3.22686166e-001 2.83226877e-001
      7.93004557e-002 6.43427204e-003 1.01583228e-002 7.14895024e-004
      2.91520520e-003 5.30364253e-002 2.58418769e-001 3.22686166e-001
      1.27798334e-001 1.91827808e-002 2.43288046e-003 7.05279922e-003
      1.79941242e-003 6.54326752e-003 2.38927025e-002 3.07951987e-001
      3.22686166e-001 3.22686166e-001 7.45645016e-002 3.37370764e-003
      1.50738023e-002 9.84238111e-004 3.64141189e-003 5.31333387e-002
      2.98708290e-001 3.21330190e-001 3.21330190e-001 9.49402377e-002
      8.16854555e-003 2.23426358e-003 1.98293081e-003 2.06220639e-003
      4.89685126e-002 1.71668202e-001 3.21330190e-001 3.21330190e-001
      5.91812991e-002 8.59787874e-003 8.38868145e-004 9.01332241e-004
      6.41965773e-004 1.39698284e-002 2.09316865e-001 3.21330190e-001
      3.21330190e-001 6.84558079e-002 4.07884177e-003 1.63470041e-002
      1.64180237e-003 5.02050342e-003 3.87049019e-002 1.95020184e-001
      3.21330190e-001 3.21330190e-001 6.70507923e-002 1.86130358e-003
      1.33142620e-002 3.17730824e-003 1.47086079e-003 5.47336601e-003
      1.81572855e-001</_>
    <_>
      3.47614378e-001 3.47614378e-001 1.35299921e-001 2.47457083e-002
      5.69917783e-002 3.01604234e-002 1.78105719e-002 5.00421412e-003
      5.07495105e-002 3.47614378e-001 3.47614378e-001 1.22589253e-001
      3.16193998e-002 2.82017700e-002 1.81387533e-002 1.65211596e-002
      2.08952595e-002 1.83617800e-001 3.19587827e-001 3.47614378e-001
      1.16577148e-001 4.55414020e-002 6.96151778e-002 6.25768825e-002
      4.86695953e-002 1.10665131e-002 3.72217894e-002 3.47614378e-001
      1.80377156e-001 9.08092260e-002 3.98647040e-002 5.14287204e-002
      8.37463140e-002 5.04900478e-002 3.64670902e-002 8.71369839e-002
      2.73845136e-001 2.31027499e-001 1.71236441e-001 5.70389591e-002
      4.33289930e-002 1.75431687e-002 6.21666806e-003 1.07280565e-002
      6.48624599e-002 5.86752966e-002 3.19612235e-001 3.21757793e-001
      3.21757793e-001 3.21757793e-001 6.43668249e-002 2.14484446e-002
      3.31995338e-002 3.28018181e-002 7.92866051e-002 5.26594967e-002
      8.81105512e-002 1.26280397e-001 9.08469334e-002 2.01826021e-002
      1.35379303e-002 1.71273332e-002 4.33687642e-002 6.50748536e-002
      2.00472847e-001 3.21757793e-001 3.21757793e-001 3.21757793e-001
      4.46976013e-002 4.87145782e-002 2.33672876e-002 5.12406565e-002
      1.71976201e-002 1.38071433e-001 1.77845091e-001 3.00857842e-001
      3.29733223e-001 1.96394756e-001 5.97688109e-002 2.17397306e-002
      1.57845505e-002 4.44038026e-003 2.51096617e-002 2.61709560e-002
      7.90105239e-002 3.29733223e-001 2.76010811e-001 7.76014179e-002
      4.36641555e-003 3.80324689e-003 2.22756453e-002 9.33113322e-002
      2.42289424e-001 2.96822727e-001 3.29733223e-001 1.47880286e-001
      4.94443290e-002 1.16275996e-002 1.42819490e-002 2.74567679e-003
      7.94846378e-003 1.73383765e-002 9.03960168e-002 3.29733223e-001
      3.04781228e-001 7.42585883e-002 2.44008889e-003 2.69487523e-003
      1.17112637e-001 1.61718577e-001 6.20162375e-002 9.20433477e-002
      2.24457383e-001 1.82715923e-001 2.17629284e-001 1.89485535e-001
      1.09642275e-001 1.69178665e-001 1.53273761e-001 9.62699950e-002
      9.72039700e-002 1.47276878e-001 2.18894735e-001 1.45951092e-001
      1.87219173e-001 1.45754427e-001 1.00265749e-001 1.38478324e-001
      6.48485571e-002 5.77826016e-002 1.45542622e-001 1.43720940e-001
      2.24457383e-001 2.24457383e-001 1.56214193e-001 1.95375204e-001
      2.05724031e-001 1.11756913e-001 2.24457383e-001 1.62278548e-001
      1.63223729e-001 2.24457383e-001 2.24457383e-001 2.18178570e-001
      3.15679647e-002 5.89226373e-002 1.19550280e-001 1.53148741e-001
      1.13300815e-001 1.44338645e-002 9.20038484e-003 1.42880287e-002
      2.57166494e-002 3.32390852e-002 2.10900456e-001 3.19925219e-001
      3.19925219e-001 3.19925219e-001 3.69766206e-002 2.60499287e-002
      1.53205879e-002 5.01029268e-002 3.20000462e-002 1.03856869e-001
      2.33591646e-001 3.19925219e-001 2.06737086e-001 2.19311379e-002
      1.43643329e-002 3.39238159e-002 3.30624022e-002 2.09335778e-002
      2.30665639e-001 3.19925219e-001 3.19925219e-001 3.19925219e-001
      5.77044524e-002 7.91489892e-003 5.09617180e-002 4.55158837e-002
      1.19871050e-002 9.59147662e-002 2.47425660e-001 2.95970112e-001
      3.23856205e-001 1.34867147e-001 5.14582507e-002 4.86939726e-003
      1.68344099e-002 2.04855204e-003 2.60760868e-003 1.76570714e-002
      1.29286915e-001 3.23856205e-001 3.23856205e-001 1.27915695e-001
      1.86970655e-003 2.79146456e-003 8.04407336e-003 7.62869641e-002
      1.84427947e-001 2.31854409e-001 3.23856205e-001 9.10557136e-002
      3.83493602e-002 2.40259506e-002 2.28179209e-002 4.61980514e-003
      9.81361326e-003 3.91464867e-002 1.58288181e-001 3.23856205e-001
      2.94148445e-001 2.04469442e-001 5.05096139e-003 7.55896047e-003
      6.73853457e-002 9.51547846e-002 6.19240813e-002 4.47196700e-002
      4.05966602e-002 9.07895640e-002 1.17593147e-001 1.04184002e-001
      5.63003942e-002 8.60988274e-002 1.37200072e-001 2.06192598e-001
      3.88680071e-001 1.70678183e-001 1.21869847e-001 1.76776409e-001
      9.54833031e-002 9.48325917e-002 8.74295831e-002 7.96624571e-002
      7.91993886e-002 5.13329320e-002 4.75204214e-002 1.10412531e-001
      1.38072386e-001 6.88405037e-002 5.72172999e-002 5.32277822e-002
      1.14352390e-001 3.88680071e-001 3.88680071e-001 3.88680071e-001
      2.20878795e-001 1.93008766e-001 6.39331564e-002 4.58189398e-002
      1.40819754e-002 6.17746077e-002 2.89601922e-001 2.89601922e-001
      2.10972637e-001 2.94009838e-002 1.53251057e-002 1.51087502e-002
      2.54272912e-002 2.00324077e-002 9.62173045e-002 2.89601922e-001
      2.89601922e-001 2.89601922e-001 5.19100130e-002 1.23823872e-002
      2.14394610e-002 3.41332667e-002 5.38535044e-003 2.88675372e-002
      2.89601922e-001 2.89601922e-001 2.89601922e-001 5.12339659e-002
      1.97079852e-002 7.29578966e-003 9.47950222e-003 1.67354811e-002
      3.08167525e-002 2.89601922e-001 2.89601922e-001 2.89601922e-001
      5.76197878e-002 2.59856321e-002 1.60449538e-002 2.03261413e-002
      3.21262777e-002 9.29961875e-002 1.98824331e-001 2.13155434e-001
      3.32280070e-001 6.86200038e-002 3.55871730e-002 2.96821017e-002
      4.68709059e-002 1.70035511e-002 5.32016568e-002 7.07552060e-002
      1.95403993e-001 3.32280070e-001 3.32280070e-001 3.29919547e-001
      1.19740944e-002 2.40891185e-002 3.26260962e-002 5.82466535e-002
      8.44521597e-002 1.51972830e-001 1.72865510e-001 4.00259532e-002
      3.17213796e-002 2.26887967e-002 2.87057534e-002 1.33786863e-002
      4.16548401e-002 4.04333547e-002 2.23089963e-001 3.32280070e-001
      2.53322423e-001 3.29210728e-001 2.73481347e-002 1.81162190e-002</_>
    <_>
      3.33901465e-001 1.68830723e-001 4.89720963e-002 3.73815522e-002
      3.67585942e-002 7.41619803e-003 3.78209911e-003 9.13096312e-003
      2.73429066e-001 3.33901465e-001 8.59954208e-002 6.37078956e-002
      5.66587783e-002 4.00255956e-002 9.86794103e-003 1.92741919e-002
      3.07296403e-002 3.33901465e-001 3.33901465e-001 1.58661857e-001
      6.56021237e-002 3.74445505e-002 1.67661086e-002 6.18782081e-003
      3.53751681e-003 1.42546082e-002 3.33901465e-001 3.33901465e-001
      2.23258451e-001 7.31016919e-002 4.70823497e-002 1.33447861e-002
      3.98036046e-003 1.67663395e-002 2.63041276e-002 3.33901465e-001
      2.86374092e-001 1.27222717e-001 1.29405797e-001 8.80207047e-002
      2.34358236e-002 1.72186587e-002 2.12633796e-002 3.98048609e-002
      2.74374753e-001 2.86374092e-001 2.22332925e-001 1.93718269e-001
      1.30039409e-001 2.03585196e-002 1.80805195e-002 1.00181550e-002
      6.56366274e-002 1.88056618e-001 2.86374092e-001 2.52022535e-001
      1.41948983e-001 8.27240422e-002 9.71620064e-003 8.54595471e-003
      2.24526338e-002 2.72825193e-002 2.86374092e-001 2.86374092e-001
      2.86374092e-001 2.37498850e-001 1.01389259e-001 9.18020774e-003
      1.51191754e-002 1.42139168e-002 2.67607160e-002 2.86374092e-001
      2.83208907e-001 2.32960522e-001 1.83726117e-001 8.85127261e-002
      3.90722565e-002 6.74857106e-003 7.34370155e-003 4.29897569e-002
      1.52413085e-001 2.83208907e-001 2.63578802e-001 1.81168765e-001
      9.00872648e-002 5.81575483e-002 1.78785399e-002 4.38120216e-002
      2.93628015e-002 1.72533408e-001 2.83208907e-001 2.83208907e-001
      2.25497320e-001 5.23016378e-002 1.47626186e-002 8.07355065e-003
      1.51579536e-003 2.49493700e-002 2.60670841e-001 2.83208907e-001
      2.83208907e-001 2.25170836e-001 9.09001976e-002 4.62567322e-002
      9.28829238e-003 2.03895234e-002 4.44212183e-002 2.46328160e-001
      3.26147854e-001 1.09912045e-001 2.80731879e-002 8.96350760e-003
      5.10858651e-003 2.82908534e-003 6.62660168e-004 4.16677725e-003
      3.26147854e-001 3.26147854e-001 2.23768502e-001 4.88469638e-002
      1.37629425e-002 3.03056394e-003 3.54062975e-003 4.06400114e-003
      1.89875811e-002 3.26147854e-001 3.26147854e-001 1.40326262e-001
      2.25748084e-002 2.01567146e-003 1.94935489e-003 2.23776279e-003
      2.79256870e-004 1.21401565e-003 3.26147854e-001 3.26147854e-001
      2.35025033e-001 5.85820340e-002 1.63775142e-002 2.94458983e-003
      6.18754840e-003 1.92149566e-003 2.26150118e-002 3.26147854e-001
      2.87186474e-001 2.58353353e-001 1.14013650e-001 2.70970203e-002
      5.59943868e-003 4.00652410e-003 6.13898039e-003 2.95739789e-002
      2.61204064e-001 2.87186474e-001 2.87186474e-001 1.64776176e-001
      3.11106704e-002 4.39599575e-003 3.97790782e-003 4.55518952e-003
      1.48600740e-002 2.28730425e-001 2.87186474e-001 2.87186474e-001
      1.19581409e-001 1.67936832e-002 5.44658955e-003 6.14147773e-003
      1.28698349e-003 4.38333489e-002 2.87186474e-001 2.87186474e-001
      2.87186474e-001 1.62358284e-001 1.66444648e-002 8.90366733e-003
      4.09964379e-003 1.67068315e-003 2.54556462e-002 2.50968069e-001
      3.07288408e-001 3.07288408e-001 1.45504504e-001 2.90708747e-002
      4.66821995e-003 3.22989095e-003 1.81650347e-003 1.15696033e-002
      1.64653316e-001 3.07288408e-001 3.07288408e-001 1.76512331e-001
      6.33621886e-002 1.69617720e-002 1.00202467e-002 1.09105594e-002
      3.37936990e-002 1.85423836e-001 3.07288408e-001 3.07288408e-001
      1.10477582e-001 2.01325901e-002 8.25440604e-003 2.27820245e-003
      2.81033642e-003 1.30477408e-002 1.94366574e-001 3.07288408e-001
      3.07288408e-001 1.63797513e-001 6.84338063e-002 2.64496524e-002
      8.64426233e-003 2.64969654e-002 1.98386647e-002 1.92347825e-001
      3.32735568e-001 1.02137685e-001 9.73072182e-003 3.24992172e-004
      3.66985827e-004 7.54608773e-004 2.45660980e-004 2.54460820e-003
      3.32735568e-001 3.32735568e-001 2.07312539e-001 2.89037265e-002
      9.13463812e-003 1.45701901e-003 3.93600389e-003 2.96221185e-003
      9.10060573e-003 3.08474302e-001 3.32735568e-001 1.25676066e-001
      5.15395449e-003 3.75341551e-005 1.25878546e-002 5.24610921e-004
      2.51969090e-003 1.02466885e-002 3.32735568e-001 3.32735568e-001
      2.65667617e-001 3.48559618e-002 5.26214810e-003 1.36891752e-002
      3.35628120e-003 1.34772891e-002 2.47987695e-002 3.06255221e-001
      3.00134301e-001 3.00134301e-001 6.42793700e-002 1.33792181e-002
      2.76700896e-003 4.22923639e-003 2.48082704e-003 1.75821055e-002
      2.62512237e-001 3.00134301e-001 3.00134301e-001 8.71593654e-002
      1.03170415e-002 5.40445372e-003 3.69152357e-003 1.74641772e-003
      1.90450009e-002 2.30488300e-001 3.00134301e-001 3.00134301e-001
      6.71705604e-002 1.21023022e-002 1.33904899e-002 3.83907859e-003
      8.31973273e-003 2.19422914e-002 2.68603295e-001 3.00134301e-001
      3.00134301e-001 6.88549057e-002 9.58043057e-003 1.30796228e-002
      4.28668503e-003 2.35712854e-003 1.78867523e-002 2.42191464e-001
      3.16909879e-001 3.16909879e-001 7.07700104e-002 9.70454421e-003
      4.10677912e-003 2.15190859e-003 3.01194168e-003 6.47644466e-003
      1.86525136e-001 3.16909879e-001 3.16909879e-001 1.50521904e-001
      4.22057398e-002 3.41569521e-002 1.39589496e-002 1.20897405e-002
      8.23991001e-003 1.78102911e-001 3.16909879e-001 3.16909879e-001
      6.91332519e-002 5.88936172e-003 1.16643626e-002 1.39382377e-003
      3.75126326e-003 8.59669037e-003 1.70885324e-001 3.16909879e-001
      3.16909879e-001 2.02296972e-001 4.05739173e-002 3.95491794e-002
      1.08958473e-002 6.53302716e-003 8.16021673e-003 1.30663544e-001</_>
    <_>
      8.64691585e-002 8.12690929e-002 9.57124159e-002 1.90195933e-001
      2.80752540e-001 1.45740137e-001 4.08944637e-002 1.54952919e-002
      5.73100150e-002 1.37263313e-001 1.69971377e-001 1.85202971e-001
      1.24050453e-001 2.15430185e-001 1.54379368e-001 3.29541005e-002
      3.83214764e-002 9.47890207e-002 2.25501150e-001 2.80752540e-001
      2.57327646e-001 1.77850440e-001 2.61901408e-001 1.90283418e-001
      6.31133243e-002 4.26867008e-002 7.47959539e-002 2.66459197e-001
      2.80752540e-001 2.80752540e-001 1.86418116e-001 1.56104028e-001
      7.94403702e-002 2.16590744e-002 3.22430618e-002 1.18366249e-001
      2.68459588e-001 2.83219814e-001 1.67344928e-001 1.27801865e-001
      1.87637553e-001 1.07351020e-001 2.15891022e-002 4.08058539e-002
      1.61322877e-001 2.83219814e-001 2.83219814e-001 1.79251865e-001
      1.30454972e-001 1.18592583e-001 2.54223235e-002 7.79587217e-003
      1.58446468e-002 1.03023753e-001 2.83219814e-001 2.83219814e-001
      2.77796626e-001 8.63503218e-002 7.41971210e-002 4.85938117e-002
      1.04280543e-002 4.24614884e-002 2.07325727e-001 2.83219814e-001
      2.83219814e-001 9.79097039e-002 7.03670755e-002 3.08073368e-002
      2.72746701e-002 6.44619716e-003 2.92987600e-002 1.22770622e-001
      1.43940791e-001 2.67883807e-001 2.45856613e-001 7.50743449e-002
      6.01826087e-002 8.95068981e-003 5.52034471e-003 3.60023882e-003
      1.67942960e-002 3.24267447e-002 3.00933659e-001 3.00933659e-001
      3.00933659e-001 3.00933659e-001 3.65574174e-002 4.02472764e-002
      1.51644135e-002 5.72408810e-002 1.48253769e-001 1.84206992e-001
      1.15781665e-001 1.40663385e-001 1.13052472e-001 1.90329887e-002
      6.88844686e-003 5.44133363e-003 2.36561876e-002 4.45704311e-002
      2.84471661e-001 3.00933659e-001 3.00933659e-001 3.00933659e-001
      6.09261505e-002 2.15727985e-002 3.10321301e-002 4.50309031e-002
      2.16434881e-001 2.60571927e-001 2.60571927e-001 2.27971032e-001
      1.71948910e-001 1.46574065e-001 7.19668269e-002 6.59047812e-002
      6.17380776e-002 1.47753656e-001 2.60571927e-001 2.60571927e-001
      2.49621615e-001 2.53597826e-001 1.09352507e-001 2.89155990e-002
      2.47780103e-002 3.28512080e-002 6.47857189e-002 1.06557697e-001
      1.55635774e-001 2.60571927e-001 2.60571927e-001 1.63888440e-001
      5.52384034e-002 4.89350595e-002 1.93582997e-002 5.01637086e-002
      4.40935567e-002 5.07346541e-002 2.60571927e-001 2.60571927e-001
      2.08704397e-001 3.85263525e-002 5.63435927e-002 1.91841647e-002
      2.47426078e-001 2.47426078e-001 2.47426078e-001 1.96493313e-001
      1.96226984e-001 1.21012047e-001 4.53021340e-002 9.89863873e-002
      1.38941333e-001 2.47426078e-001 2.47426078e-001 1.47707924e-001
      1.26720905e-001 1.05207309e-001 1.21212006e-001 3.62516046e-002
      1.08716629e-001 1.31405056e-001 1.45816773e-001 1.15623765e-001
      7.01313689e-002 1.31524503e-001 2.47426078e-001 1.82902887e-001
      7.19357356e-002 1.81513146e-001 1.62352413e-001 1.41327187e-001
      2.05780491e-001 1.38949811e-001 1.77363276e-001 1.92197427e-001
      1.08432263e-001 6.32399917e-002 1.77414119e-001 2.47426078e-001
      2.99336091e-002 5.13531715e-002 1.25245288e-001 1.89212203e-001
      1.35169834e-001 1.83099732e-002 9.96808149e-003 6.73704362e-003
      2.36077625e-002 4.00281772e-002 1.88303918e-001 3.16289097e-001
      3.16289097e-001 3.16289097e-001 4.14738134e-002 2.62230448e-002
      8.45017657e-003 4.77663688e-002 1.60255078e-002 1.18379287e-001
      2.61061817e-001 2.89002448e-001 2.38509297e-001 2.63764895e-002
      1.54416058e-002 1.62278637e-002 3.74725424e-002 1.60735007e-002
      2.06298277e-001 3.16289097e-001 3.16289097e-001 3.16289097e-001
      9.54960585e-002 3.01670916e-002 1.04447417e-002 4.54543196e-002
      4.66835983e-002 7.14130923e-002 1.81612521e-001 3.11167955e-001
      3.11167955e-001 2.37221852e-001 6.19307160e-002 7.72794113e-002
      1.93136763e-002 6.68050945e-002 6.51372150e-002 6.04171157e-002
      3.11167955e-001 3.11167955e-001 2.37661481e-001 7.91107416e-002
      1.17184401e-001 4.59870882e-002 8.10389668e-002 1.94344297e-001
      1.98884636e-001 2.87861556e-001 3.11167955e-001 9.27954465e-002
      7.21369684e-002 1.14415571e-001 5.87535575e-002 5.55573814e-002
      7.14543685e-002 5.39317243e-002 8.73905122e-002 2.35399976e-001
      8.74419287e-002 1.12514138e-001 1.42197996e-001 5.75380735e-002
      9.31691155e-002 7.74281099e-002 3.77798006e-002 4.75067608e-002
      1.25627756e-001 1.18411630e-001 7.65287951e-002 1.48998484e-001
      1.39327437e-001 9.00252685e-002 1.31291270e-001 2.00094938e-001
      3.71770352e-001 2.37364858e-001 8.98465365e-002 7.26332739e-002
      1.54401004e-001 2.11862162e-001 5.64528927e-002 8.35790485e-002
      6.00103065e-002 5.13027906e-002 8.97674337e-002 1.34187117e-001
      8.81258324e-002 9.28968713e-002 6.56935945e-002 6.22195080e-002
      1.54383644e-001 3.71770352e-001 3.71770352e-001 3.71770352e-001
      1.78277537e-001 6.44367635e-002 8.68713856e-002 9.81637836e-002
      1.48362592e-002 9.72733498e-002 2.82827705e-001 2.82827705e-001
      2.55143374e-001 1.91121325e-002 1.93859097e-002 1.74351558e-002
      2.74055284e-002 1.27483942e-002 1.34532019e-001 2.82827705e-001
      2.82827705e-001 2.82827705e-001 7.69054219e-002 3.84835042e-002
      2.26241164e-002 2.43499186e-002 1.34525346e-002 6.31699637e-002
      2.82827705e-001 2.82827705e-001 2.82827705e-001 2.70790961e-002
      1.06108319e-002 1.50649520e-002 1.86398141e-002 2.11273879e-002
      5.84353507e-002 2.82827705e-001 2.82827705e-001 2.82827705e-001
      4.00528982e-002 2.58226544e-002 4.16425653e-002 2.17053164e-002</_>
    <_>
      2.86310732e-001 1.49577558e-001 9.43283811e-002 1.68773174e-001
      7.27282688e-002 3.89859974e-002 2.12704223e-002 2.53321975e-002
      1.41604528e-001 2.86310732e-001 2.86310732e-001 4.51668724e-002
      5.53526580e-002 5.63643873e-002 1.72092579e-002 2.16002632e-002
      4.55381386e-002 2.86310732e-001 2.86310732e-001 1.53671771e-001
      2.02928871e-001 2.86310732e-001 1.63865730e-001 1.07622676e-001
      5.01533076e-002 8.42717588e-002 1.11518860e-001 2.86310732e-001
      2.86310732e-001 9.79226455e-002 6.73190281e-002 7.52012134e-002
      7.41394684e-002 5.87105937e-002 1.63928553e-001 2.48283565e-001
      2.46965438e-001 1.79160774e-001 3.07076387e-002 3.42943110e-002
      8.17851052e-002 3.73954587e-002 2.70070210e-002 4.23751883e-002
      2.46965438e-001 2.46965438e-001 1.67650893e-001 1.05058178e-001
      1.48873851e-001 2.46965438e-001 2.46965438e-001 2.10421324e-001
      1.53062850e-001 1.80346549e-001 2.46965438e-001 1.70297429e-001
      8.37281421e-002 3.61702330e-002 7.04669729e-002 6.21533506e-002
      7.85172656e-002 1.24489009e-001 2.07356066e-001 2.46965438e-001
      1.83291584e-001 1.94342375e-001 1.47646546e-001 1.95549399e-001
      2.30353728e-001 1.29800051e-001 1.75198346e-001 1.46301091e-001
      1.35695279e-001 1.24559507e-001 1.18686177e-001 1.85359880e-001
      2.54762918e-001 2.54762918e-001 2.53724217e-001 1.35894030e-001
      7.33918920e-002 5.29654063e-002 7.12457374e-002 7.18653724e-002
      1.36582345e-001 2.54762918e-001 1.23477682e-001 9.21351761e-002
      2.09667198e-002 4.79133055e-002 9.45639983e-002 1.61116540e-001
      2.54762918e-001 2.54762918e-001 2.54762918e-001 2.54762918e-001
      1.82926059e-001 9.04668868e-002 6.69879019e-002 4.43382747e-002
      6.61260560e-002 1.32470384e-001 2.54762918e-001 2.54762918e-001
      2.42394596e-001 1.35222167e-001 6.76719565e-003 5.03516309e-002
      1.25568599e-001 1.03052251e-001 1.30520895e-001 2.07980484e-001
      2.50295848e-001 1.13410965e-001 1.03345938e-001 1.59998626e-001
      6.06433786e-002 1.88241169e-001 2.38420486e-001 1.61158904e-001
      4.46951911e-002 8.74714032e-002 7.11217225e-002 1.01057537e-001
      2.14853615e-001 1.53518319e-001 2.68955678e-001 1.58027753e-001
      5.81515841e-002 3.26504596e-002 2.30072156e-001 1.82929933e-001
      1.99304745e-001 2.15374634e-001 1.50821656e-001 2.68955678e-001
      2.68955678e-001 1.23288460e-001 1.75348092e-002 6.87523186e-002
      6.68980032e-002 1.31176412e-001 1.62254021e-001 2.68955678e-001
      1.70737594e-001 1.76460028e-001 1.23860076e-001 3.06572113e-002
      4.45520170e-002 4.80676517e-002 7.90900216e-002 1.37846798e-001
      1.57326862e-001 1.93133608e-001 1.40492782e-001 1.55557200e-001
      1.63505077e-001 1.71397164e-001 2.02940017e-001 9.99973863e-002
      1.10765986e-001 1.81552947e-001 2.60399699e-001 2.58913130e-001
      6.55463710e-002 1.40516153e-002 3.13169584e-002 2.81698760e-002
      6.18298724e-002 1.15839891e-001 2.60399699e-001 2.60399699e-001
      2.22026914e-001 8.77654254e-002 1.22845501e-001 2.57768244e-001
      2.39584550e-001 1.93777189e-001 1.93644062e-001 2.60399699e-001
      6.34812564e-002 5.15834466e-002 1.28978401e-001 2.52184540e-001
      2.52184540e-001 2.52184540e-001 9.27508250e-002 2.92362589e-002
      6.28165230e-002 1.84723046e-002 1.52286505e-002 9.29083750e-002
      2.52184540e-001 2.52184540e-001 2.52184540e-001 6.55715466e-002
      6.96148956e-003 1.80010572e-002 1.12391159e-001 9.82565060e-002
      1.70450568e-001 2.19778091e-001 2.52184540e-001 2.52184540e-001
      2.13459983e-001 1.61568359e-001 7.35074729e-002 3.24398838e-002
      4.28002588e-002 1.70631543e-001 2.52184540e-001 2.52184540e-001
      2.52184540e-001 1.43860817e-001 1.32875517e-001 1.54759968e-002
      3.31446737e-001 1.23187080e-001 4.17176969e-002 3.92007940e-002
      2.59764910e-001 2.70638943e-001 1.21281438e-001 1.33703813e-001
      2.38974959e-001 3.31446737e-001 2.52747208e-001 5.77555485e-002
      4.81953844e-002 1.37813747e-001 7.42082521e-002 8.68157670e-002
      8.13621506e-002 3.02909285e-001 9.09407362e-002 2.50697639e-002
      4.41504307e-002 6.43116087e-002 3.16394418e-001 2.51103699e-001
      3.29933837e-002 3.10439877e-002 4.89711463e-002 1.37219548e-001
      3.10049299e-002 5.29435873e-002 1.18129469e-001 3.12915653e-001
      8.41629058e-002 4.71900515e-002 2.43843030e-002 3.45270634e-002
      2.91443497e-001 1.05894960e-001 1.72261801e-002 2.62431670e-002
      8.04785341e-002 3.69930491e-002 3.93919460e-002 5.28505892e-002
      1.62545547e-001 2.91443497e-001 1.44983232e-001 1.03927627e-001
      1.57080144e-001 2.91443497e-001 2.78733641e-001 2.16544554e-001
      2.47987777e-001 1.51199430e-001 3.73919681e-002 9.43328533e-003
      3.06184758e-002 1.30141780e-001 1.94806129e-001 4.40314189e-002
      1.81826670e-002 7.42004579e-003 8.94649141e-003 2.69345418e-002
      1.29223347e-001 2.91443497e-001 2.91443497e-001 2.91443497e-001
      1.88022479e-001 1.99521005e-001 1.37360722e-001 5.85972471e-003
      4.95587848e-002 1.12669386e-001 2.09315166e-001 1.57459050e-001
      2.85730213e-001 2.01234251e-001 1.79231450e-001 1.83773831e-001
      1.47466380e-002 4.81912009e-002 6.98720440e-002 1.87008098e-001
      1.80570990e-001 2.85730213e-001 1.39556363e-001 1.38710842e-001
      1.33646384e-001 8.29691254e-003 2.51594409e-002 9.46341529e-002
      1.60701349e-001 2.47736618e-001 2.85730213e-001 1.90499857e-001
      2.32773393e-001 1.63126260e-001 2.28979581e-004 4.39366363e-002
      4.53791916e-002 7.64190555e-002 1.51447698e-001 2.85730213e-001
      2.22467229e-001 2.05725685e-001 1.01374857e-001 7.34351482e-003</_>
    <_>
      9.77658406e-002 2.06204191e-001 2.76186734e-001 2.38328934e-001
      2.13106200e-001 3.60788666e-002 5.75180212e-003 1.94096174e-002
      4.75831293e-002 2.06403717e-001 2.91336507e-001 2.38964602e-001
      5.69416247e-002 7.30953440e-002 2.51985211e-002 1.23246377e-002
      3.96042727e-002 5.66914529e-002 2.91336507e-001 2.91336507e-001
      2.89831609e-001 1.24262847e-001 7.66746104e-002 2.78988108e-002
      4.01301496e-002 5.72923645e-002 1.06768675e-001 2.91336507e-001
      2.91336507e-001 2.48642772e-001 1.07300378e-001 1.08425580e-001
      4.05285247e-002 6.06523789e-002 5.96008375e-002 8.90802890e-002
      1.88705504e-001 3.13712209e-001 2.59969831e-001 5.82710430e-002
      6.88712969e-002 2.18997616e-002 8.97925068e-003 2.91887838e-002
      3.16770710e-002 3.13712209e-001 3.13712209e-001 3.13712209e-001
      1.08546712e-001 1.30620345e-001 3.93210091e-002 1.83895044e-002
      5.37064373e-002 1.18882217e-001 1.17574796e-001 3.13712209e-001
      2.08344802e-001 1.61848351e-001 2.03004673e-001 5.26988953e-002
      4.28536534e-002 2.71064788e-002 1.87231470e-002 1.17668241e-001
      2.88852662e-001 1.97605371e-001 1.68641597e-001 1.76981032e-001
      8.38425010e-002 5.40171340e-002 5.91130704e-002 5.85202463e-002
      2.42235526e-001 2.42235526e-001 1.22423783e-001 1.06335267e-001
      1.57486647e-001 9.43653733e-002 5.39940037e-002 1.49048597e-001
      2.30453774e-001 2.42235526e-001 2.42235526e-001 1.92536965e-001
      1.79076001e-001 2.42235526e-001 1.75765947e-001 1.31569847e-001
      1.35188222e-001 2.42235526e-001 6.26275763e-002 6.65413812e-002
      7.97345489e-002 1.46319315e-001 1.99418083e-001 1.62064001e-001
      7.90939778e-002 5.42402938e-002 7.26695135e-002 1.21405192e-001
      3.30960527e-002 1.17114998e-001 2.42235526e-001 2.42235526e-001
      2.42235526e-001 1.86293602e-001 5.14121950e-002 1.09952420e-001
      2.10836112e-001 1.51787162e-001 5.97471558e-002 1.92663819e-002
      2.46095844e-002 1.70634724e-002 2.87519936e-002 3.45435478e-002
      1.19433887e-001 2.09494412e-001 1.03266798e-001 3.56309824e-002
      4.94112596e-002 5.39676286e-002 2.03808788e-002 4.41250987e-002
      2.77103297e-002 8.58769417e-002 4.25582945e-001 9.52366963e-002
      1.02458373e-002 5.05518774e-003 1.63012501e-002 2.09600572e-002
      2.62113661e-002 7.83299282e-002 4.25582945e-001 4.25582945e-001
      2.92099476e-001 1.11874854e-002 1.58657487e-002 2.53324267e-002
      3.07506938e-002 5.67917936e-002 6.10865802e-002 4.25582945e-001
      1.56607419e-001 1.13308124e-001 5.52325547e-002 8.73708725e-002
      8.22410509e-002 1.80254076e-002 3.53522748e-002 2.43221559e-002
      9.24698487e-002 2.60580540e-001 3.00666362e-001 6.73301071e-002
      7.15105087e-002 5.09732775e-002 2.25974433e-002 1.89877041e-002
      4.79850359e-002 1.52412191e-001 3.45904440e-001 3.45904440e-001
      3.46991830e-002 3.23816426e-002 2.19224542e-002 1.78535562e-002
      4.19659726e-002 5.69122620e-002 3.45904440e-001 3.45904440e-001
      3.45904440e-001 6.82119355e-002 2.51266174e-002 1.04734106e-002
      5.32428036e-003 3.23235318e-002 4.05583382e-002 3.45904440e-001
      1.38713479e-001 1.82882622e-001 2.07079295e-002 3.99460196e-002
      1.01922803e-001 6.85652643e-002 1.86588056e-002 5.72788678e-002
      9.67219323e-002 8.66483450e-002 5.97105362e-002 9.41892490e-002
      3.20142359e-001 2.47228146e-001 1.29941270e-001 3.87833454e-002
      4.83296290e-002 7.18026161e-002 3.20142359e-001 3.20142359e-001
      2.96461452e-002 3.92816775e-002 2.34955728e-001 1.66453794e-001
      2.32840590e-002 5.98175861e-002 1.69797271e-001 1.11114442e-001
      1.01621553e-001 2.21916795e-001 3.20142359e-001 3.20142359e-001
      3.07217568e-001 1.94787569e-002 5.98656684e-002 7.78600127e-002
      3.63562793e-001 7.73986280e-002 1.54178415e-003 8.47742613e-003
      3.72962914e-002 1.21294104e-001 6.33811951e-002 1.44164637e-001
      3.63562793e-001 3.63562793e-001 1.69665992e-001 4.13360167e-003
      1.15201650e-002 4.11364324e-002 1.43309996e-001 1.05803065e-001
      1.29084870e-001 3.63562793e-001 1.04747035e-001 1.90116614e-002
      3.08045349e-003 2.48262137e-002 1.07883215e-001 2.43092895e-001
      1.88888535e-001 1.27294764e-001 1.27398938e-001 7.14722350e-002
      5.27515449e-003 3.80227203e-003 1.30414683e-002 6.72834367e-002
      2.27675855e-001 2.33855590e-001 2.23406225e-001 1.56766310e-001
      2.98278898e-001 2.59677589e-001 1.01475809e-002 8.63241404e-003
      3.19568217e-002 1.03590772e-001 1.10163540e-001 1.39285997e-001
      2.98278898e-001 2.98278898e-001 2.98278898e-001 2.97537986e-002
      9.58434492e-003 1.00204581e-002 1.72872376e-002 7.65308216e-002
      8.98697525e-002 2.98278898e-001 8.97115394e-002 5.11579216e-003
      4.61706147e-003 6.25525974e-003 4.00100648e-002 1.21040158e-001
      1.92826957e-001 2.87295163e-001 2.98278898e-001 2.54669517e-001
      7.56265149e-002 6.34248629e-002 4.78535937e-003 4.32011262e-002
      2.70275995e-002 5.21028079e-002 1.54850140e-001 2.98278898e-001
      8.96499306e-002 6.06480725e-002 1.38052786e-002 5.91987707e-002
      2.19603464e-001 9.63602513e-002 1.29158758e-002 2.12900490e-002
      6.19038828e-002 2.07855199e-002 1.61015354e-002 1.84607640e-001
      3.83914322e-001 3.83914322e-001 1.72189921e-001 4.94448282e-003
      1.13934763e-002 1.98355485e-002 4.98560295e-002 3.12993564e-002
      5.42084873e-002 1.41039133e-001 3.83914322e-001 3.56953070e-002
      7.46510737e-003 1.96458567e-002 5.25125489e-002 1.12257414e-002
      1.14198523e-002 2.87154645e-001 3.83914322e-001 3.83914322e-001
      5.51044084e-002 1.05980923e-002 7.13258935e-003 1.37335053e-002</_>
    <_>
      1.53320625e-001 1.89401329e-001 1.07395522e-001 1.74284697e-001
      2.24509314e-001 1.54277563e-001 6.34009019e-002 1.06230780e-001
      2.24509314e-001 1.61474809e-001 9.71616432e-002 3.53245921e-002
      1.04705341e-001 2.24509314e-001 1.23006485e-001 7.10365772e-002
      7.64627084e-002 1.74772173e-001 1.49302021e-001 2.24509314e-001
      1.96844727e-001 1.43264204e-001 2.24509314e-001 2.24509314e-001
      1.57516450e-001 2.24509314e-001 2.24509314e-001 1.69901341e-001
      1.91942245e-001 1.50938287e-001 1.43080205e-001 1.66975915e-001
      1.52451009e-001 1.07562862e-001 1.46277726e-001 2.24509314e-001
      1.07308276e-001 1.00929223e-001 4.55995873e-002 9.35803652e-002
      1.63869008e-001 1.05214313e-001 8.47747251e-002 4.74327281e-002
      1.09210767e-001 1.75770044e-001 1.94826216e-001 1.43929839e-001
      2.25225881e-001 2.25225881e-001 1.70566618e-001 9.63591933e-002
      4.41430844e-002 1.12204082e-001 2.25225881e-001 2.25225881e-001
      1.56495526e-001 1.63798630e-001 1.06827430e-001 1.57480136e-001
      1.53077498e-001 1.24778084e-001 2.22708538e-001 2.25225881e-001
      2.25225881e-001 1.70712516e-001 1.99201286e-001 2.25225881e-001
      2.25225881e-001 1.70723751e-001 1.81091368e-001 2.25225881e-001
      2.16498062e-001 2.16498062e-001 1.50641292e-001 1.78165391e-001
      2.16498062e-001 1.66968033e-001 7.75668174e-002 1.28571272e-001
      1.54979095e-001 1.44448727e-001 2.16498062e-001 1.54430300e-001
      1.27249137e-001 1.90804109e-001 1.59864217e-001 5.49446568e-002
      1.56927451e-001 1.15832664e-001 1.97946787e-001 2.07863450e-001
      1.03890322e-001 1.11971051e-001 2.16498062e-001 2.16498062e-001
      1.33302644e-001 2.14874819e-001 2.16498062e-001 1.11089930e-001
      1.53834388e-001 7.94984028e-002 1.24160185e-001 2.16498062e-001
      2.16498062e-001 9.39817801e-002 1.66620180e-001 1.38505414e-001
      1.55705690e-001 1.67451173e-001 1.91405728e-001 9.20260027e-002
      1.95526704e-001 1.24932632e-001 1.25704870e-001 2.20360056e-001
      2.77148902e-001 1.93191364e-001 1.40633240e-001 1.88427955e-001
      7.91298375e-002 1.07764989e-001 1.23864330e-001 6.35633245e-002
      2.28285506e-001 2.77148902e-001 1.70667633e-001 7.01069757e-002
      1.20694064e-001 5.54746576e-002 1.00037068e-001 4.32229973e-002
      5.93287088e-002 2.24001467e-001 2.77148902e-001 2.43186221e-001
      8.15771222e-002 1.24191627e-001 2.82205380e-002 7.68768787e-002
      8.53166804e-002 5.60795441e-002 2.77148902e-001 2.77148902e-001
      2.21500829e-001 1.08618625e-001 9.94345173e-002 7.49899149e-002
      5.52569851e-002 6.16048053e-002 7.92523772e-002 2.07193524e-001
      2.93163747e-001 2.93163747e-001 1.41016424e-001 9.78175923e-002
      8.92601982e-002 8.85046124e-002 1.12276845e-001 1.10228881e-001
      2.21867204e-001 2.93163747e-001 2.26473168e-001 6.08860068e-002
      5.97904772e-002 2.64198780e-002 4.30909060e-002 4.93039526e-002
      5.48815951e-002 2.43632898e-001 2.93163747e-001 2.70130783e-001
      1.11772880e-001 6.04454726e-002 7.57249892e-002 6.01838715e-002
      1.02853380e-001 1.10920019e-001 2.61528522e-001 2.93163747e-001
      2.52294779e-001 1.62906617e-001 1.02857195e-001 7.57701099e-002
      1.11010641e-001 1.66556641e-001 1.00839347e-001 1.86540321e-001
      2.52294779e-001 1.51958823e-001 1.27957135e-001 6.58522323e-002
      1.69559404e-001 2.52294779e-001 2.51953006e-001 8.02722424e-002
      1.03438482e-001 1.18948027e-001 2.52294779e-001 1.19284518e-001
      9.86540914e-002 1.31897971e-001 6.89481720e-002 1.27614096e-001
      1.14989713e-001 1.98925152e-001 2.52294779e-001 1.96802869e-001
      7.83127993e-002 1.04950838e-001 2.08788991e-001 2.52294779e-001
      2.52294779e-001 9.19107124e-002 9.25926417e-002 1.58154055e-001
      3.00040334e-001 3.40235047e-002 6.28054738e-002 7.78749213e-002
      3.64839658e-002 4.42905873e-002 8.35652426e-002 3.00040334e-001
      3.00040334e-001 3.00040334e-001 6.16431497e-002 4.20500822e-002
      7.62200877e-002 4.57379818e-002 9.62944999e-002 5.90314008e-002
      2.02077329e-001 3.00040334e-001 2.69743472e-001 3.54850739e-002
      3.23192030e-002 1.07199669e-001 8.46910924e-002 6.08660541e-002
      6.12318292e-002 1.72604516e-001 3.00040334e-001 3.00040334e-001
      5.63793108e-002 3.37780342e-002 1.01896897e-001 1.03857063e-001
      1.46300033e-001 6.88528270e-002 7.54620135e-002 3.00040334e-001
      2.49261647e-001 9.18490812e-002 6.36984110e-002 5.01613691e-002
      4.59843948e-002 6.59092590e-002 3.83115672e-002 7.17863590e-002
      2.49261647e-001 2.49261647e-001 1.59425631e-001 1.00954816e-001
      1.39180571e-001 8.94377306e-002 2.07937375e-001 1.11225158e-001
      1.75672203e-001 2.49261647e-001 1.93686828e-001 8.02093297e-002
      5.32926917e-002 8.11309665e-002 1.53902218e-001 8.61563459e-002
      7.07748458e-002 2.24265754e-002 2.49261647e-001 2.37399653e-001
      2.34783292e-001 1.45649925e-001 2.49261647e-001 2.49261647e-001
      2.47153506e-001 1.65370271e-001 1.08632058e-001 2.49261647e-001
      2.28792429e-001 7.81066194e-002 7.10198358e-002 1.34357601e-001
      5.53211719e-002 1.24861240e-001 1.26237869e-001 2.06326202e-001
      2.38623366e-001 1.70437321e-001 8.63506719e-002 7.85828978e-002
      1.68609604e-001 2.38623366e-001 1.14358485e-001 1.38882533e-001
      1.39828205e-001 2.17087030e-001 2.38623366e-001 1.42099649e-001
      1.12525962e-001 1.90677032e-001 1.65644005e-001 1.64114848e-001
      1.37021691e-001 2.01879203e-001 2.38623366e-001 2.38623366e-001
      1.57007828e-001 9.71878171e-002 1.24560922e-001 1.44398764e-001
      6.54940978e-002 1.50655836e-001 2.15754852e-001 2.38623366e-001</_>
    <_>
      9.27167237e-002 2.79942989e-001 2.84881443e-001 2.38574073e-001
      1.62737459e-001 2.65952982e-002 2.25522518e-002 2.68168878e-002
      4.95544598e-002 1.59312055e-001 3.20729285e-001 2.00132877e-001
      1.07593387e-001 5.15954122e-002 1.07252803e-002 1.37477694e-002
      6.34175539e-002 6.40228614e-002 3.08423162e-001 3.20729285e-001
      2.68959075e-001 8.82150531e-002 4.39965166e-002 3.17272730e-002
      2.67527532e-002 6.83722198e-002 1.17566988e-001 2.28474617e-001
      3.20729285e-001 2.02111632e-001 1.15288988e-001 1.20641686e-001
      5.61839007e-002 4.22242917e-002 1.05519593e-001 9.90600884e-002
      1.48288548e-001 3.25292468e-001 2.81757265e-001 7.05814138e-002
      4.49701585e-002 1.66566391e-002 9.00292862e-003 3.20407674e-002
      5.21132946e-002 2.84306854e-001 3.25292468e-001 3.25292468e-001
      1.22896664e-001 9.09197927e-002 4.96043786e-002 1.73412729e-002
      5.94933443e-002 1.26009017e-001 1.03002399e-001 3.25292468e-001
      1.94643632e-001 1.53859913e-001 1.87773451e-001 8.21042433e-002
      4.91469912e-002 3.30433063e-002 3.70227285e-002 1.16494521e-001
      2.88955271e-001 2.00991735e-001 1.69938594e-001 1.57415062e-001
      1.02293611e-001 8.41294378e-002 5.39224893e-002 6.33211732e-002
      2.48546392e-001 2.48546392e-001 9.44498479e-002 1.03828281e-001
      1.38891518e-001 1.37313783e-001 2.86160093e-002 1.47601485e-001
      2.06649840e-001 2.48546392e-001 2.48546392e-001 1.69077203e-001
      1.70601517e-001 2.41298884e-001 2.35953212e-001 5.67647591e-002
      1.52289093e-001 2.48546392e-001 7.22536519e-002 8.73131976e-002
      7.43732080e-002 1.44499108e-001 1.90781623e-001 2.03676224e-001
      7.37995878e-002 4.51816805e-002 5.29322401e-002 1.13986552e-001
      5.78671210e-002 9.91611108e-002 2.48546392e-001 2.48546392e-001
      2.48546392e-001 1.20951749e-001 7.35918283e-002 9.22255293e-002
      1.87889770e-001 1.92035273e-001 5.19979410e-002 2.06407737e-002
      1.09785153e-002 8.39012396e-003 1.90944560e-002 3.83605137e-002
      1.30074307e-001 1.67049140e-001 1.28684163e-001 4.41521071e-002
      5.43401502e-002 4.32828143e-002 2.70470604e-002 2.63414402e-002
      3.27462032e-002 9.42418426e-002 4.20033991e-001 1.23899214e-001
      8.73107556e-003 1.01018948e-002 7.12482352e-003 1.16672348e-002
      2.81386562e-002 6.64437339e-002 4.20033991e-001 4.20033991e-001
      3.26372862e-001 2.59983018e-002 2.67302897e-002 1.48135517e-002
      2.26516053e-002 3.41538936e-002 4.98206913e-002 4.20033991e-001
      1.38537154e-001 1.11547306e-001 5.43892197e-002 7.34276175e-002
      8.53783712e-002 3.73174138e-002 4.37910669e-002 2.63124369e-002
      9.67982933e-002 2.70421147e-001 2.91023463e-001 6.20417446e-002
      5.50462827e-002 6.61562085e-002 3.53259109e-002 5.52087873e-002
      4.25279550e-002 1.42451376e-001 3.46455395e-001 3.46455395e-001
      4.35005799e-002 3.16298716e-002 2.55479235e-002 1.72188301e-002
      3.57142016e-002 6.33735210e-002 3.46455395e-001 3.46455395e-001
      3.46455395e-001 6.17381707e-002 1.43374074e-002 1.81855299e-002
      7.63015775e-003 2.55339462e-002 7.76953101e-002 3.46455395e-001
      1.42317608e-001 1.75626501e-001 2.26014089e-002 5.09652309e-002
      1.00674354e-001 7.53625482e-002 2.91675609e-002 4.50518467e-002
      8.58170688e-002 8.10575783e-002 5.39289527e-002 9.40343663e-002
      3.21128219e-001 2.33654752e-001 1.32526204e-001 3.97630222e-002
      4.71294373e-002 6.74755275e-002 3.21128219e-001 3.21128219e-001
      2.75231879e-002 4.24968265e-002 2.42378131e-001 1.59387082e-001
      1.70894954e-002 6.64522648e-002 1.77587911e-001 1.01787917e-001
      9.41119418e-002 2.52041340e-001 3.21128219e-001 3.21128219e-001
      2.89754242e-001 2.16982011e-002 5.73660173e-002 9.30123776e-002
      3.65927428e-001 9.61854756e-002 9.49737849e-004 5.20521123e-003
      3.08927856e-002 1.17578305e-001 9.12003741e-002 1.09638639e-001
      3.65927428e-001 3.65927428e-001 1.94325477e-001 7.31208874e-003
      1.00636836e-002 4.44957390e-002 1.20906651e-001 1.07121922e-001
      9.74675566e-002 3.65927428e-001 1.10637054e-001 1.09378528e-002
      5.55853534e-004 1.57777965e-002 1.26301557e-001 2.77931988e-001
      1.84997469e-001 1.26908883e-001 1.24908172e-001 7.77243897e-002
      1.21756438e-002 2.86351284e-003 5.20637864e-003 7.71458894e-002
      2.24513367e-001 1.91715837e-001 2.19443262e-001 1.47012964e-001
      3.04901540e-001 2.68041819e-001 1.57410875e-002 1.17596211e-002
      3.06017380e-002 7.89256394e-002 9.26242247e-002 1.43640816e-001
      3.04901540e-001 3.04901540e-001 3.04901540e-001 2.77836248e-002
      3.50345625e-003 8.91225971e-003 2.18418017e-002 3.53027992e-002
      1.39545679e-001 3.04901540e-001 8.89542326e-002 1.32268444e-002
      5.01849223e-003 4.98920167e-003 4.27516215e-002 8.98059458e-002
      1.48531213e-001 3.04901540e-001 3.01523149e-001 1.45438671e-001
      1.16222620e-001 5.89401573e-002 7.06759887e-003 4.30839770e-002
      2.78212391e-002 4.95173894e-002 2.03110829e-001 3.04901540e-001
      8.61033276e-002 7.01970235e-002 1.14724562e-002 5.65155819e-002
      2.31844828e-001 8.95936117e-002 6.73326664e-003 2.66433489e-002
      5.72991669e-002 1.97725073e-002 1.61946956e-002 2.15000734e-001
      3.80359262e-001 3.80359262e-001 1.60698920e-001 4.74007288e-003
      1.13364551e-002 2.01596580e-002 3.03707402e-002 3.75556387e-002
      4.81660590e-002 1.43411666e-001 3.80359262e-001 3.20657901e-002
      1.59781557e-002 3.04150060e-002 4.72641699e-002 1.23354523e-002
      6.97941752e-003 2.90900260e-001 3.80359262e-001 3.80359262e-001
      5.61860316e-002 1.38609549e-002 1.20807188e-002 1.04259085e-002</_>
    <_>
      7.62180835e-002 8.90906081e-002 2.86116779e-001 2.70843536e-001
      1.27922878e-001 5.24569713e-002 8.29720590e-003 1.25848968e-002
      3.66720967e-002 1.84809208e-001 2.12772369e-001 2.71913260e-001
      2.71309674e-001 1.22521505e-001 4.17795777e-002 9.48136579e-003
      1.88199095e-002 6.14093319e-002 1.72186792e-002 5.99197410e-002
      2.86116779e-001 2.86116779e-001 2.86116779e-001 1.71603069e-001
      6.11144537e-003 2.30845856e-003 5.46588609e-003 5.67195155e-002
      9.70217362e-002 2.84948498e-001 2.86116779e-001 2.86116779e-001
      1.51073784e-001 9.47220344e-003 5.45287831e-003 7.30137201e-003
      2.49496579e-001 2.49496579e-001 1.99851498e-001 1.08532406e-001
      7.44790807e-002 2.05415543e-002 3.17082973e-003 3.45341712e-002
      1.41379490e-001 2.49496579e-001 2.14287102e-001 7.33321011e-002
      1.58336647e-002 1.44711174e-002 1.80155355e-002 2.10350435e-002
      1.23042800e-001 2.49496579e-001 1.70418978e-001 2.46307239e-001
      2.49496579e-001 2.49496579e-001 2.25357741e-001 6.88377619e-002
      2.16561146e-002 2.40970422e-002 6.18905947e-002 2.49496579e-001
      2.49496579e-001 2.49496579e-001 1.97226092e-001 1.57817915e-001
      5.18738031e-002 6.05902374e-002 9.05353054e-002 2.49496579e-001
      2.72622436e-001 1.91125780e-001 5.69554977e-002 1.86298639e-002
      2.13304348e-002 4.13440764e-002 6.43424839e-002 1.42894343e-001
      2.51401037e-001 1.84267715e-001 7.75083974e-002 2.04574186e-002
      2.19532270e-002 4.56872880e-002 2.86513232e-002 5.76742366e-002
      1.85373351e-001 2.76414126e-001 2.76414126e-001 2.76414126e-001
      2.02679425e-001 1.45283401e-001 1.15188248e-001 6.25821128e-002
      7.69951940e-002 1.17107071e-001 2.76414126e-001 2.76414126e-001
      1.68094978e-001 8.34200680e-002 8.69065747e-002 7.08433911e-002
      6.02039173e-002 1.61713585e-001 2.76414126e-001 2.76414126e-001
      1.18714641e-003 4.06555180e-003 1.52636513e-001 2.87300110e-001
      2.87300110e-001 2.87300110e-001 4.72505949e-002 3.73066450e-003
      5.14170853e-004 3.21512949e-003 6.55487832e-003 6.92477673e-002
      2.09520265e-001 2.87300110e-001 2.87300110e-001 1.35446191e-001
      2.81109028e-002 2.71754502e-003 3.19024711e-003 2.60362215e-003
      6.15710281e-002 2.87300110e-001 2.87300110e-001 2.87300110e-001
      1.25098020e-001 1.06182592e-002 4.33206372e-003 5.07869804e-003
      5.83373150e-003 2.04553679e-002 8.29772502e-002 1.94798976e-001
      2.87300110e-001 2.87300110e-001 1.15464918e-001 5.57843270e-003
      2.70865671e-002 4.45827544e-002 1.40953928e-001 2.46956334e-001
      2.74101496e-001 2.00103283e-001 1.60965949e-001 9.17906314e-002
      3.61602940e-002 1.23410210e-001 9.40070674e-002 1.25576273e-001
      1.94726840e-001 2.59753197e-001 1.15659542e-001 2.43651718e-001
      2.73502409e-001 2.52530813e-001 1.23717105e-002 5.58462646e-003
      1.22282030e-002 5.41639440e-002 1.10586151e-001 2.21499011e-001
      2.74101496e-001 2.74101496e-001 2.74414271e-002 4.81883213e-002
      9.54655278e-003 2.61689536e-002 5.44882864e-002 1.01299256e-001
      8.63992274e-002 2.74101496e-001 2.74101496e-001 1.29193783e-001
      1.29151374e-001 8.06095898e-002 9.45336521e-002 1.55660003e-001
      1.75685972e-001 7.50803575e-002 1.71653941e-001 2.28465796e-001
      2.26216361e-001 1.34871677e-001 1.02492079e-001 6.41757697e-002
      1.33747146e-001 8.64992365e-002 8.41508135e-002 1.64807975e-001
      2.82703966e-001 2.19779417e-001 8.77524391e-002 3.10447179e-002
      4.04591076e-002 7.95194432e-002 1.05161838e-001 7.92180523e-002
      2.82703966e-001 2.82703966e-001 2.10170671e-001 1.05160825e-001
      8.90934095e-002 4.26400565e-002 1.16640024e-001 9.95787978e-002
      2.21500918e-001 2.82703966e-001 2.82703966e-001 2.44183913e-001
      5.58746308e-002 2.68258005e-002 1.09367043e-001 3.02841067e-001
      3.02841067e-001 1.57173142e-001 9.57536399e-002 1.65287238e-002
      2.60462482e-002 9.19880569e-002 5.52805029e-002 1.19144671e-001
      2.00623825e-001 1.59769788e-001 2.85471737e-001 3.02841067e-001
      1.50639102e-001 3.27882506e-002 1.14798583e-001 4.50491793e-002
      6.80008307e-002 3.02841067e-001 3.02841067e-001 1.00154236e-001
      1.82804279e-002 8.34112056e-003 2.23794393e-002 1.56129330e-001
      8.45846310e-002 1.17135771e-001 3.02841067e-001 3.02841067e-001
      1.33055985e-001 1.02673784e-001 4.39243987e-002 3.75920087e-002
      4.49260771e-002 2.58813892e-002 4.48423326e-002 3.22395302e-002
      2.34074574e-002 1.85854301e-001 3.38864297e-001 3.38864297e-001
      4.64657135e-002 2.59820670e-002 6.23750035e-003 1.24734398e-002
      6.23500859e-003 1.18320761e-002 4.05381657e-002 3.38864297e-001
      3.38864297e-001 1.61510408e-001 6.45555481e-002 8.65696669e-002
      6.19754680e-002 1.04069114e-001 1.22907527e-001 1.40529945e-001
      2.63533026e-001 2.62996912e-001 5.41882180e-002 8.03360064e-003
      7.22686350e-002 2.33330261e-002 3.17720100e-002 1.09533191e-001
      8.83803666e-002 3.38864297e-001 3.38864297e-001 8.05266052e-002
      4.88982014e-002 1.74660701e-002 1.51635483e-002 8.93364381e-003
      1.84914675e-002 3.13946158e-002 2.83089012e-001 2.83089012e-001
      2.48302385e-001 1.79333195e-001 1.21562123e-001 3.33301239e-002
      6.50858730e-002 4.03266512e-002 1.46692440e-001 2.83089012e-001
      2.83089012e-001 2.83089012e-001 2.99637020e-002 1.51974084e-002
      4.73302882e-003 7.08751194e-003 2.95129996e-002 3.25346068e-002
      2.83089012e-001 2.83089012e-001 1.43350333e-001 1.80248305e-001
      7.63558149e-002 1.07243164e-002 1.40809044e-002 2.90893782e-002
      3.76826152e-002 2.65068114e-001 2.83089012e-001 2.82485664e-001</_>
    <_>
      8.98590218e-003 1.62813757e-002 1.80645838e-001 2.03841671e-001
      2.78653473e-001 3.95101309e-002 1.24038309e-002 9.35669616e-003
      1.84366666e-002 1.41550731e-002 7.97150880e-002 2.78653473e-001
      2.78653473e-001 2.78653473e-001 1.49279371e-001 6.52118325e-002
      6.98683457e-003 2.31054388e-002 7.22290203e-002 6.37695286e-003
      2.78653473e-001 2.78653473e-001 2.78653473e-001 3.23307253e-002
      8.18818249e-003 4.11999039e-003 6.95464835e-002 2.32184276e-001
      4.26545478e-002 2.78653473e-001 2.78653473e-001 2.78653473e-001
      6.64714053e-002 5.59738241e-002 3.69464569e-002 1.85800627e-001
      4.90423255e-002 8.71340781e-002 2.19964787e-001 2.05395833e-001
      2.66237229e-001 2.09324941e-001 7.62022138e-002 1.38946082e-002
      7.20037073e-002 7.40995929e-002 5.97789884e-002 1.03621684e-001
      1.08600073e-001 2.66237229e-001 2.55625516e-001 1.09500319e-001
      6.08631596e-002 1.20418631e-001 2.66237229e-001 6.44136518e-002
      1.26605213e-001 1.86519384e-001 2.66237229e-001 9.78420228e-002
      7.13005364e-002 6.93332106e-002 2.54161924e-001 2.66237229e-001
      9.42937210e-002 6.09815568e-002 1.23567581e-001 2.66237229e-001
      1.91224650e-001 9.87956896e-002 7.22584203e-002 2.66237229e-001
      7.32212737e-002 5.02532423e-002 6.51649386e-002 5.33709414e-002
      3.12896729e-001 3.12896729e-001 1.54490188e-001 5.74289039e-002
      1.04418471e-001 8.43537226e-002 1.75668430e-002 3.14082727e-002
      2.47183703e-002 3.12896729e-001 3.12896729e-001 1.62027016e-001
      7.76811019e-002 1.04375370e-001 1.55659050e-001 4.35049683e-002
      3.68886292e-002 7.37919360e-002 3.12896729e-001 3.01558197e-001
      1.41836897e-001 8.05518255e-002 1.17269531e-001 4.98512574e-002
      8.33942927e-003 6.55015046e-003 3.19075547e-002 3.12896729e-001
      3.12896729e-001 1.57529891e-001 1.01469867e-001 5.77774644e-002
      1.69998303e-001 1.10602053e-002 1.73446268e-001 1.97446197e-001
      2.92947590e-001 4.60882150e-002 2.28993152e-003 5.49940728e-002
      1.58457890e-001 2.92947590e-001 3.14871408e-002 1.25053525e-001
      1.54318124e-001 1.31224126e-001 1.61252208e-002 1.36341732e-002
      8.05203691e-002 2.92947590e-001 1.88967526e-001 4.60773706e-002
      5.32991439e-002 1.15429550e-001 2.92947590e-001 8.29976872e-002
      3.23699415e-003 1.82134047e-001 2.57589132e-001 2.92947590e-001
      3.73789817e-002 4.41962332e-002 5.60393408e-002 1.84984222e-001
      4.34577651e-002 1.94743332e-002 2.92947590e-001 2.92947590e-001
      2.89811224e-001 3.79746668e-002 2.35015452e-002 4.88174148e-002
      4.46352996e-002 9.88744199e-003 2.16930751e-002 4.92294952e-002
      2.89811224e-001 2.89811224e-001 5.36031239e-002 1.34327095e-002
      3.26247029e-002 1.09492578e-001 5.27232215e-002 5.33728302e-002
      6.02387860e-002 2.89811224e-001 2.89811224e-001 3.85225974e-002
      3.91109176e-002 5.17950207e-002 1.12240188e-001 3.76819782e-002
      8.52642208e-002 2.66190559e-001 2.89811224e-001 2.89811224e-001
      3.20276991e-002 1.82432644e-002 6.47610277e-002 1.71638384e-001
      9.64254588e-002 2.53597975e-001 2.89811224e-001 2.89811224e-001
      2.63271779e-001 2.36977655e-002 9.82564408e-003 3.63295525e-002
      2.92214364e-001 1.71142861e-001 1.04167894e-001 1.04774259e-001
      2.03624010e-001 3.47814299e-002 2.89388327e-003 5.06478315e-003
      3.29108834e-002 2.94414908e-001 2.94414908e-001 9.76727754e-002
      6.17482550e-002 4.14583869e-002 2.70274550e-001 6.24640333e-003
      6.38611475e-003 9.87697244e-002 2.94414908e-001 1.61310360e-001
      2.16190979e-001 2.89923489e-001 2.94414908e-001 4.92700785e-002
      6.57666533e-004 6.56634010e-003 1.31159469e-001 2.94414908e-001
      1.61927760e-001 6.92412257e-002 6.25619739e-002 5.19292839e-002
      6.74511492e-002 3.03320158e-002 8.56093690e-003 1.89212501e-001
      3.69767755e-001 8.18276927e-002 1.11365998e-002 9.50376168e-002
      1.38655528e-001 1.46015361e-001 3.21120583e-002 1.77815203e-002
      8.12272429e-002 3.69767755e-001 9.48023200e-002 4.38961275e-002
      2.66396731e-001 3.69767755e-001 6.63831877e-003 8.01675860e-003
      1.11694494e-002 2.12412223e-001 3.69767755e-001 1.89144999e-001
      1.25791179e-002 4.52406891e-003 6.72874553e-003 1.58892963e-002
      1.78415198e-002 9.17277113e-003 1.06516466e-001 3.69767755e-001
      1.74804479e-001 2.73878444e-002 1.50388982e-002 1.45072741e-002
      1.14635102e-001 2.50791777e-002 4.15523201e-002 6.74162731e-002
      3.13005835e-001 8.65852013e-002 1.02974407e-001 2.66166210e-001
      3.13005835e-001 1.13808431e-001 2.21862998e-002 3.69449928e-002
      9.31980163e-002 3.13005835e-001 1.40064374e-001 3.02462190e-001
      3.13005835e-001 3.10530812e-001 8.85215309e-003 6.70496840e-003
      3.01436018e-002 6.05362765e-002 3.13005835e-001 9.72904712e-002
      1.81631967e-002 2.15203278e-002 1.73048582e-002 1.12619204e-002
      1.37599055e-002 5.61429374e-002 1.32992178e-001 3.13005835e-001
      1.40496358e-001 5.85775077e-002 8.23097676e-002 5.16550094e-002
      7.46176168e-002 9.78856441e-003 6.12620730e-003 1.61203831e-001
      3.42753679e-001 1.37084901e-001 2.41033733e-001 3.19851249e-001
      1.86689347e-001 2.19191350e-002 3.82158812e-003 2.47950712e-003
      2.18377009e-001 3.42753679e-001 7.24896640e-002 4.16219421e-002
      6.22610301e-002 3.52260843e-002 2.27715001e-002 1.39593473e-002
      1.54161528e-002 2.71150738e-001 3.42753679e-001 2.03106284e-001
      6.59414157e-002 7.54677877e-002 4.77183945e-002 1.90855321e-002
      5.04859397e-003 2.31525884e-003 2.83035398e-001 3.42753679e-001
      1.05803370e-001 1.80275831e-002 1.55553110e-002 1.77174825e-002</_>
    <_>
      5.87891303e-002 2.98868507e-001 2.98868507e-001 1.77887604e-001
      2.54783422e-001 4.07694168e-002 7.04649696e-003 1.28672346e-002
      1.78301167e-002 1.10280320e-001 2.75627911e-001 2.98868507e-001
      1.07958414e-001 1.04193479e-001 9.81523469e-002 2.09057815e-002
      1.28175225e-002 5.82919605e-002 1.92302540e-002 8.37778375e-002
      2.77501971e-001 2.72032529e-001 2.98868507e-001 1.00972898e-001
      8.92479345e-003 8.54907371e-003 5.82307437e-003 6.07134253e-002
      1.49389550e-001 2.98868507e-001 2.85519153e-001 2.06672162e-001
      4.33107950e-002 2.91014221e-002 3.85689810e-002 2.62043867e-002
      1.13862008e-001 1.38739064e-001 2.10786477e-001 8.46791491e-002
      9.06880200e-002 6.39346540e-002 1.83583591e-002 1.88755579e-002
      8.02175701e-002 1.88401759e-001 1.64755613e-001 1.40455350e-001
      1.43654734e-001 1.99180886e-001 1.14447653e-001 9.14132446e-002
      1.22280896e-001 2.42003009e-001 7.89791495e-002 1.58914164e-001
      2.42003009e-001 1.53947413e-001 1.28929645e-001 1.24647677e-001
      1.24297351e-001 8.93531516e-002 7.79837817e-002 1.99443132e-001
      2.42003009e-001 2.01864600e-001 2.38309890e-001 2.42003009e-001
      2.42003009e-001 2.42003009e-001 2.26051673e-001 2.42003009e-001
      9.14942548e-002 7.03562573e-002 3.94289307e-002 7.38730803e-002
      2.04905376e-001 2.22435743e-001 2.52648890e-001 1.87834561e-001
      1.98116466e-001 1.69841349e-002 1.28500713e-002 5.73153142e-003
      4.74622138e-002 2.03311637e-001 2.13074818e-001 2.57898629e-001
      1.09857775e-001 2.73871943e-002 1.32348746e-001 1.51268721e-001
      9.08814892e-002 1.64995551e-001 2.57898629e-001 2.57898629e-001
      2.57898629e-001 1.99153408e-001 2.05727950e-001 2.61267107e-002
      2.52258610e-002 2.87425108e-002 8.41395482e-002 2.57898629e-001
      2.57898629e-001 2.57898629e-001 1.07149780e-001 2.85093226e-002
      3.52494791e-003 1.20004537e-002 5.71950823e-002 1.28032610e-001
      3.23827833e-001 1.86168939e-001 3.61629725e-002 5.62541699e-003
      2.11686990e-003 4.37679030e-002 8.19732621e-002 1.57107189e-001
      1.67375907e-001 2.98179686e-001 1.40538052e-001 9.10389274e-002
      6.11477196e-002 3.30200382e-002 1.23163145e-002 3.09777800e-002
      1.06981089e-002 2.90685110e-002 3.23827833e-001 3.23827833e-001
      3.23827833e-001 1.74251288e-001 8.60540010e-003 3.80144827e-002
      3.59051377e-002 4.19858173e-002 3.99720892e-002 2.19305411e-001
      2.34936774e-001 3.23827833e-001 2.99842715e-001 4.13296856e-002
      7.92239085e-002 1.14067189e-001 1.31043226e-001 1.04454614e-001
      9.33227241e-002 1.66072428e-001 2.71284729e-001 1.61004633e-001
      9.08600837e-002 1.16333380e-001 1.11550868e-001 8.92151743e-002
      1.62187785e-001 2.72829235e-001 2.75122613e-001 2.75122613e-001
      2.75122613e-001 2.14117095e-001 1.40484467e-001 5.95407151e-002
      5.60360886e-002 6.11020997e-002 4.68029343e-002 7.68389031e-002
      2.62228370e-001 2.12184235e-001 9.44429338e-002 2.37635389e-001
      1.11998297e-001 9.45423990e-002 7.55208656e-002 4.02314998e-002
      1.19464241e-001 2.75122613e-001 2.16846809e-001 1.22478500e-001
      8.47776383e-002 7.21893609e-002 1.02598578e-001 2.25532904e-001
      2.58345604e-001 2.58345604e-001 2.58345604e-001 1.94491893e-001
      1.43914953e-001 2.34246366e-002 2.65990049e-002 7.94713199e-002
      2.15948701e-001 2.58345604e-001 2.58345604e-001 1.97620153e-001
      3.86905372e-002 2.42980774e-002 1.10141158e-001 7.68945366e-002
      1.66504696e-001 2.37764284e-001 1.14792846e-001 1.08106576e-001
      2.58345604e-001 1.48213118e-001 7.60369077e-002 2.17466392e-002
      2.67240927e-002 1.46757364e-001 2.58345604e-001 2.58345604e-001
      1.93034589e-001 1.35521457e-001 4.64216731e-002 1.95473935e-002
      1.93357579e-002 2.59124879e-002 7.23138498e-003 1.55696226e-002
      1.84965983e-001 2.16413170e-001 3.37183982e-001 3.37183982e-001
      5.24566844e-002 6.71633184e-002 2.62373313e-002 1.64680574e-002
      4.07921448e-002 6.28376007e-002 1.36987954e-001 3.37183982e-001
      3.37183982e-001 1.81388780e-001 2.57210061e-002 2.13916712e-002
      1.28509048e-002 1.64411403e-002 1.96238179e-002 5.36618978e-002
      1.94116190e-001 2.62879968e-001 8.00587088e-002 8.20297897e-002
      2.98415851e-002 2.47554965e-002 4.13251854e-002 5.90895228e-002
      9.23714936e-002 2.85621077e-001 3.37183982e-001 2.42316589e-001
      2.47131348e-001 8.46175402e-002 2.85997186e-002 4.32987399e-002
      2.19194312e-002 6.03478402e-002 2.30746046e-001 2.53828436e-001
      2.47655764e-001 2.53828436e-001 1.94373608e-001 6.81123883e-002
      3.92590538e-002 3.77615243e-002 5.50946742e-002 9.68052447e-002
      7.87976980e-002 2.30563655e-001 2.27253497e-001 7.47063681e-002
      4.22145799e-002 7.46876150e-002 1.83778167e-001 1.49039268e-001
      1.53305784e-001 2.53828436e-001 2.52365112e-001 2.53828436e-001
      1.27732247e-001 5.68405353e-002 1.03468582e-001 2.53828436e-001
      1.78536236e-001 9.19488221e-002 1.60485178e-001 2.53828436e-001
      1.44677818e-001 1.15799487e-001 1.33764043e-001 1.50058836e-001
      1.08102128e-001 8.32994208e-002 1.10866472e-001 8.11101198e-002
      1.39274314e-001 1.68134551e-002 3.03549226e-002 1.32997975e-001
      2.87454635e-001 2.87454635e-001 2.13667363e-001 1.17168739e-001
      3.97625640e-002 3.84607092e-002 1.44728571e-001 9.79790017e-002
      1.11820512e-001 1.16276689e-001 2.87454635e-001 2.87454635e-001
      1.50994465e-001 1.98855206e-001 2.54850119e-001 1.98877510e-002
      3.55046690e-002 9.13352445e-002 1.83456987e-001 2.87454635e-001
      2.87454635e-001 2.14758992e-001 8.09527412e-002 9.04223844e-002</_>
    <_>
      2.05545932e-001 1.34139180e-001 1.23554803e-001 1.55365258e-001
      1.99672207e-001 1.20580159e-001 8.65408182e-002 1.60140857e-001
      1.78217173e-001 2.18050033e-001 1.40555501e-001 1.15244851e-001
      1.74088433e-001 1.50262281e-001 1.52859166e-001 1.35100141e-001
      2.14305997e-001 2.20060453e-001 1.68401882e-001 1.89889774e-001
      2.11708337e-001 1.94484100e-001 2.20060453e-001 1.35414451e-001
      5.13551794e-002 1.60525575e-001 1.77643627e-001 9.81936008e-002
      1.40738770e-001 2.09024757e-001 2.20060453e-001 2.20060453e-001
      1.89391524e-001 5.76917529e-002 1.19284615e-001 1.10456564e-001
      1.44437507e-001 1.24147534e-001 1.54879600e-001 2.10608721e-001
      2.21884817e-001 1.14512734e-001 1.15586840e-001 1.48515061e-001
      1.73713028e-001 7.15377778e-002 9.61468145e-002 2.26471514e-001
      2.74764508e-001 2.74764508e-001 9.23790410e-002 9.14354771e-002
      8.92468467e-002 9.46027488e-002 5.30617349e-002 8.07074681e-002
      1.56403884e-001 2.74764508e-001 2.74764508e-001 2.72081494e-001
      9.07792449e-002 1.02640688e-001 4.67833355e-002 1.21961951e-001
      1.01622708e-001 1.13286279e-001 2.39669979e-001 2.74764508e-001
      2.03118742e-001 1.07974611e-001 8.54052529e-002 5.73328994e-002
      9.31514893e-003 2.62196269e-002 1.06821895e-001 1.97241560e-001
      4.67127770e-001 8.11046809e-002 2.51738708e-002 4.44882065e-002
      2.35256478e-002 1.85934771e-002 1.07312612e-002 1.00235492e-002
      7.85722136e-002 4.67127770e-001 6.73573837e-002 1.24001922e-002
      1.38130542e-002 9.41107795e-003 5.63472733e-002 4.46366966e-002
      4.30145785e-002 1.44689992e-001 4.67127770e-001 7.79275671e-002
