<?xml version="1.0"?>
<opencv_storage>
<my_svm type_id="opencv-ml-svm">
  <svm_type>C_SVC</svm_type>
  <kernel><type>RBF</type>
    <gamma>5.0000000000000000e-001</gamma></kernel>
  <C>2.</C>
  <term_criteria><epsilon>2.2204460492503131e-016</epsilon>
    <iterations>100</iterations></term_criteria>
  <var_all>324</var_all>
  <var_count>324</var_count>
  <class_count>2</class_count>
  <class_labels type_id="opencv-matrix">
    <rows>1</rows>
    <cols>2</cols>
    <dt>i</dt>
    <data>
      0 1</data></class_labels>
  <sv_total>132</sv_total>
  <support_vectors>
    <_>
      5.28558120e-002 1.12838112e-001 1.85830489e-001 2.91352004e-001
      2.91352004e-001 1.06689014e-001 3.94066237e-002 2.50039510e-002
      3.07660811e-002 2.93964278e-002 4.06459607e-002 6.48928881e-002
      2.77051300e-001 2.91352004e-001 1.26046628e-001 4.43028100e-002
      2.42822729e-002 1.79420784e-002 5.73453344e-002 1.02743439e-001
      2.04675406e-001 2.91352004e-001 2.91352004e-001 1.96915388e-001
      9.34136286e-002 8.03932175e-002 8.83843005e-002 5.25710918e-002
      1.61629289e-001 2.34329000e-001 2.91352004e-001 2.91352004e-001
      1.53627917e-001 6.99645951e-002 6.82188198e-002 4.01515327e-002
      1.43712051e-002 1.25368107e-002 5.53622469e-002 3.28546405e-001
      3.28546405e-001 9.86260101e-002 7.15670139e-002 3.36814895e-002
      1.26471939e-002 3.19940783e-002 2.56814361e-002 6.80454075e-002
      3.28546405e-001 3.28546405e-001 5.65688238e-002 2.21072230e-002
      7.22769415e-003 1.42552955e-002 4.08861116e-002 1.67195052e-001
      2.83968925e-001 3.28546405e-001 3.28546405e-001 7.74224997e-002
      1.48651097e-002 2.07806472e-002 2.69614253e-002 2.24916115e-002
      3.32028903e-002 8.68202820e-002 2.78082013e-001 3.28546405e-001
      8.16229880e-002 6.05207263e-003 7.87525531e-003 2.03370620e-002
      1.41711105e-002 1.44818081e-002 3.37021798e-002 2.15348646e-001
      4.14652437e-001 7.36204758e-002 9.12957825e-003 2.09280010e-003
      5.83177013e-003 4.83958283e-003 1.18003145e-003 2.88432278e-003
      2.42594928e-001 4.14652437e-001 1.74754575e-001 2.24948511e-003
      1.89231228e-004 4.66338638e-003 2.10666023e-002 2.54956614e-002
      4.26689684e-002 1.84824809e-001 4.14652437e-001 7.97417164e-002
      7.39971502e-003 8.68240558e-003 1.66366529e-002 1.10943299e-002
      1.78018790e-002 2.69741397e-002 2.64553159e-001 4.14652437e-001
      2.20965832e-001 3.18170935e-002 1.24928290e-002 1.43410293e-002
      8.10744986e-002 5.30989990e-002 1.23848207e-001 1.30123198e-001
      2.35727221e-001 2.18388528e-001 2.01836705e-001 2.01048404e-001
      1.74576104e-001 1.41446382e-001 1.86287925e-001 1.77017942e-001
      9.52443853e-002 2.19106838e-001 1.40827924e-001 1.63273677e-001
      2.35727221e-001 1.73343927e-001 3.34485658e-002 5.89774130e-003
      3.64950225e-002 9.37969610e-002 2.35727221e-001 2.30196387e-001
      2.35727221e-001 1.68948308e-001 6.88319579e-002 8.67063627e-002
      3.60887833e-002 2.45381929e-002 6.70529827e-002 2.35727221e-001
      2.35727221e-001 2.35727221e-001 2.35727221e-001 1.44831166e-001
      2.13351548e-001 2.48429850e-001 2.48429850e-001 2.40759343e-001
      1.94779113e-001 1.02493860e-001 1.06892586e-001 2.17411518e-001
      2.44918913e-001 1.15262769e-001 7.15105459e-002 1.09415047e-001
      1.47211775e-001 1.78726196e-001 1.05472617e-001 7.92394057e-002
      6.82335570e-002 8.89225677e-002 1.62154540e-001 6.55623525e-002
      6.25511631e-002 3.99225689e-002 1.62986606e-001 2.48429850e-001
      2.48429850e-001 2.48429850e-001 2.48429850e-001 1.07089318e-001
      3.28189805e-002 6.48335516e-002 7.22568035e-002 1.09141752e-001
      2.48429850e-001 2.48429850e-001 1.20084897e-001 9.08514932e-002
      6.05758950e-002 6.28519803e-002 6.19874299e-002 1.66943461e-001
      3.42899948e-001 6.43839389e-002 3.44361402e-002 3.67144160e-002
      3.15175727e-002 2.17389092e-002 7.15446547e-002 6.33511916e-002
      2.47886822e-001 3.42899948e-001 1.99299008e-001 4.49832454e-002
      4.00093608e-002 3.27371247e-002 5.91025986e-002 4.40552980e-002
      2.12026551e-001 2.56547391e-001 3.42899948e-001 1.24674201e-001
      2.32713178e-001 7.47734383e-002 3.66179757e-002 2.83987336e-002
      7.38106593e-002 1.59098402e-001 3.34881335e-001 3.42899948e-001
      1.46666780e-001 4.58308794e-002 4.65104692e-002 3.81476209e-002
      6.57577859e-003 1.34331232e-003 1.42840855e-002 1.35184824e-001
      2.97588706e-001 2.33197913e-001 2.35545844e-001 1.22009099e-001
      2.67986562e-002 8.12036823e-003 9.48757224e-005 2.31314581e-002
      1.37542024e-001 2.97588706e-001 2.97588706e-001 2.97588706e-001
      1.86599746e-001 4.68163788e-002 2.21431758e-002 1.65992137e-003
      3.75964073e-003 8.92658308e-002 2.97588706e-001 1.55239910e-001
      7.65031800e-002 1.01065770e-001 1.11809738e-001 1.95680326e-003
      4.09232825e-003 2.46440414e-002 1.40940532e-001 2.97588706e-001
      2.97588706e-001 2.37117141e-001 1.55917555e-001 1.20088167e-001
      8.96921102e-003 1.72671373e-003 2.34318431e-002 7.43997619e-002
      2.88811147e-001 2.88811147e-001 2.88811147e-001 9.42836478e-002
      4.18889746e-002 2.91246474e-002 1.11402487e-002 5.12219816e-002
      7.78055862e-002 1.46207765e-001 2.65555292e-001 2.88811147e-001
      6.46237954e-002 3.58006172e-002 0. 4.65489272e-003 2.29329281e-002
      1.21430419e-001 2.88811147e-001 2.88811147e-001 2.88811147e-001
      1.22704603e-001 1.17670409e-001 1.50906546e-002 5.72419679e-003
      2.30689403e-002 6.07528500e-002 2.72609353e-001 2.88811147e-001
      2.76493520e-001 6.98595122e-002 4.09773216e-002 8.93939957e-002
      4.00807746e-002 2.59204984e-001 2.73876190e-001 2.59424329e-001
      1.27263591e-001 3.40454489e-001 9.60975140e-002 8.52812231e-002
      3.73354666e-002 3.27227153e-002 1.55087784e-001 3.40454489e-001
      3.40454489e-001 1.75735444e-001 6.10309504e-002 2.98774820e-002
      4.24054228e-002 6.01090230e-002 3.30267772e-002 7.91033283e-002
      9.55167189e-002 1.45564973e-001 1.13666832e-001 1.69601455e-001
      7.14055225e-002 7.60718808e-002 2.57356782e-002 3.18937600e-002
      8.75478163e-002 2.29985103e-001 3.40454489e-001 2.44163066e-001
      2.84762736e-002 1.00519918e-002 2.71840617e-002</_>
    <_>
      9.79254171e-002 4.02424820e-002 5.75467274e-002 7.75894448e-002
      1.06103495e-001 7.07228109e-002 8.17032531e-002 2.00874329e-001
      1.16039626e-001 1.94227740e-001 1.49829194e-001 2.82453567e-001
      2.82453567e-001 2.82453567e-001 1.15311071e-001 1.41113192e-001
      8.50648880e-002 1.04623593e-001 1.42575756e-001 1.13676384e-001
      1.39430791e-001 1.28797263e-001 1.49971902e-001 6.37035668e-002
      5.64868338e-002 9.75706875e-002 8.40455815e-002 2.03841045e-001
      2.82453567e-001 2.82453567e-001 2.82453567e-001 2.82453567e-001
      1.51263446e-001 1.24085441e-001 1.16247952e-001 1.44618511e-001
      1.90305337e-001 9.66824368e-002 1.67104781e-001 2.30955884e-001
      2.00673968e-001 5.64644821e-002 5.74709810e-002 1.42380949e-002
      1.08957268e-001 1.74362794e-001 8.62251222e-002 1.55503437e-001
      1.81082442e-001 2.17673361e-001 1.83481768e-001 1.33179709e-001
      4.86481972e-002 1.82626769e-001 2.30955884e-001 9.31493789e-002
      1.89990908e-001 2.30955884e-001 2.30955884e-001 8.60062987e-002
      8.97037536e-002 5.46203181e-002 2.30955884e-001 2.30955884e-001
      5.67640737e-002 1.39092639e-001 2.30955884e-001 2.30955884e-001
      2.26555735e-001 1.05031393e-001 8.86664912e-002 2.30955884e-001
      1.03658043e-001 6.45233467e-002 1.14523314e-001 1.60200492e-001
      2.65979439e-001 2.64448583e-001 2.01779336e-001 1.28708854e-001
      1.30357161e-001 8.09993744e-002 6.18343391e-002 1.01909051e-002
      8.26676935e-002 2.65979439e-001 2.22707704e-001 1.97672218e-001
      1.25646025e-001 9.42071006e-002 1.68232575e-001 4.66334708e-002
      9.80793685e-002 2.65979439e-001 2.65979439e-001 2.65979439e-001
      1.61636651e-001 6.15649521e-002 1.03033282e-001 1.16813809e-001
      6.46905676e-002 4.24887426e-002 1.36137456e-001 2.65979439e-001
      2.65979439e-001 2.20349714e-001 6.49339557e-002 4.47907336e-002
      7.95494020e-002 8.38179961e-002 1.03368752e-001 8.44748244e-002
      1.75694212e-001 7.37063736e-002 4.44014333e-002 5.92523254e-002
      4.45800535e-002 1.85749322e-001 1.60383523e-001 2.52164930e-001
      2.52164930e-001 2.52164930e-001 1.59086376e-001 6.18761927e-002
      8.19489732e-002 1.50438771e-001 2.19095126e-001 1.54316738e-001
      7.74575546e-002 2.40475908e-001 2.52164930e-001 1.38200685e-001
      1.16569571e-001 1.01851687e-001 1.27314076e-001 2.52164930e-001
      1.67276546e-001 1.51655868e-001 2.52164930e-001 2.52164930e-001
      1.75169051e-001 1.10541716e-001 7.95439631e-002 2.52164930e-001
      2.48487875e-001 7.76210427e-002 1.39025941e-001 2.46497542e-001
      1.80991814e-001 8.32787827e-002 4.56064716e-002 5.30218221e-002
      2.48487875e-001 2.48487875e-001 4.89415489e-002 8.90264809e-002
      2.34627128e-001 2.48487875e-001 1.22822545e-001 3.71956825e-002
      6.54127002e-002 2.48487875e-001 2.48487875e-001 7.67743513e-002
      1.00405671e-001 1.96983263e-001 1.11742988e-001 8.31148624e-002
      3.44465114e-002 2.80536674e-002 2.48487875e-001 2.48487875e-001
      1.12350248e-001 1.22497074e-001 2.48487875e-001 2.25194737e-001
      8.53307322e-002 2.01392397e-002 3.26034538e-002 2.48487875e-001
      1.40220612e-001 4.00223024e-002 8.05767477e-002 1.83537468e-001
      2.73101807e-001 2.73101807e-001 1.10721372e-001 3.15187052e-002
      7.00646415e-002 1.17751062e-001 4.55800481e-002 6.93846270e-002
      1.52465254e-001 2.73101807e-001 2.73101807e-001 1.85802430e-001
      6.88419938e-002 4.74379919e-002 1.94995508e-001 1.07707188e-001
      1.18573695e-001 2.54625380e-001 2.73101807e-001 1.92359716e-001
      5.57002723e-002 4.24250253e-002 1.47320718e-001 7.97898993e-002
      7.62752071e-002 9.51645896e-002 2.29799166e-001 2.73101807e-001
      2.73101807e-001 1.77335724e-001 8.68594944e-002 6.99516088e-002
      1.90396443e-001 2.09200799e-001 1.16632223e-001 2.40537882e-001
      2.40537882e-001 1.77788898e-001 1.70495287e-001 1.68077394e-001
      1.44907430e-001 2.40537882e-001 2.13286057e-001 9.92130265e-002
      1.79796472e-001 1.42643288e-001 7.54874051e-002 1.02109857e-001
      9.65875685e-002 2.40537882e-001 7.80226439e-002 1.32627130e-001
      1.42247021e-001 2.19314337e-001 2.40537882e-001 1.70510501e-001
      1.94876030e-001 2.05979750e-001 1.91805616e-001 1.07202373e-001
      9.03640687e-002 5.20462468e-002 7.04289228e-002 2.40537882e-001
      9.79307443e-002 1.09478168e-001 9.98806134e-002 1.27599850e-001
      3.54883373e-001 9.38132405e-002 4.25333120e-002 7.36662969e-002
      6.61152825e-002 5.00827879e-002 3.13885696e-002 4.34501432e-002
      3.54883373e-001 3.54883373e-001 2.58774966e-001 9.56403539e-002
      1.63400397e-001 1.55708641e-001 1.16886169e-001 5.98218106e-002
      9.66557562e-002 3.54883373e-001 1.95588231e-001 3.47141176e-002
      1.08239288e-002 2.21934915e-002 1.21028051e-001 5.38227148e-002
      3.77171971e-002 4.32133079e-002 2.06610590e-001 2.55872250e-001
      9.83380899e-002 8.43058527e-003 1.64296050e-002 1.00666009e-001
      9.33233276e-002 8.75373185e-002 8.40676054e-002 3.17189485e-001
      2.51292825e-001 2.32636720e-001 9.11576003e-002 1.77566305e-001
      2.51292825e-001 1.99763373e-001 7.97804594e-002 1.58343032e-001
      2.51292825e-001 1.51054367e-001 1.67528495e-001 1.77927300e-001
      2.33430341e-001 2.51292825e-001 2.49950811e-001 1.43017426e-001
      1.10781886e-001 1.23356603e-001 1.79497600e-001 1.17380217e-001
      1.65986773e-002 2.60082018e-002 2.51292825e-001 1.49408758e-001
      8.72388929e-002 1.17958613e-001 2.11488754e-001 1.09192774e-001
      1.07979096e-001 9.76127759e-002 7.94215128e-002 2.51292825e-001
      1.31195679e-001 5.40566109e-002 6.70843422e-002 7.91824982e-002</_>
    <_>
      3.74454372e-002 4.66968715e-002 2.03991514e-002 4.57028905e-003
      4.54202434e-003 0. 0. 6.94572751e-004 1.16928490e-002
      1.54464543e-001 2.61047274e-001 1.93799704e-001 4.25677188e-003
      5.60385734e-003 0. 2.02056108e-004 3.49167007e-004 3.74354348e-002
      3.28773588e-001 3.65237951e-001 3.65237951e-001 1.72238275e-002
      2.67184693e-002 4.04057937e-004 1.87958212e-004 3.22577218e-003
      1.09578155e-001 3.65237951e-001 3.65237951e-001 3.65237951e-001
      4.81121521e-003 3.82102095e-002 1.62078887e-002 4.26978513e-004
      3.73523147e-003 2.66991556e-001 1.59704700e-001 2.94524074e-001
      2.16679752e-001 2.24226480e-003 3.59223736e-003 1.85115659e-003
      3.02324421e-004 2.08896911e-003 2.85497345e-002 2.88604796e-001
      2.94524074e-001 2.94524074e-001 2.54589622e-003 3.80499242e-003
      3.05428798e-003 1.15038606e-003 9.49851610e-003 3.40434723e-002
      2.94524074e-001 2.94524074e-001 2.94524074e-001 1.02604448e-003
      2.21782327e-002 1.13032153e-002 3.16086662e-004 4.88473382e-003
      1.78523242e-001 2.94524074e-001 2.94524074e-001 2.94524074e-001
      8.14279355e-003 9.05560330e-003 7.14090280e-003 3.63129820e-003
      1.02256993e-002 1.60170689e-001 2.78580129e-001 3.23157072e-001
      3.23157072e-001 3.34614282e-003 2.86096931e-002 3.10713006e-003
      2.59257504e-003 1.28807370e-002 4.28293794e-002 1.73613399e-001
      3.23157072e-001 1.90168306e-001 1.17969196e-002 3.23157072e-001
      3.65255550e-002 2.01204401e-002 5.66557981e-002 5.94041124e-002
      3.23157072e-001 2.92737484e-001 2.15847820e-001 1.56585183e-002
      6.06220439e-002 2.12484952e-002 1.70661137e-002 7.59868138e-003
      1.66668966e-001 1.50093779e-001 7.26220161e-002 5.08017242e-002
      5.59643693e-002 3.23157072e-001 8.23892355e-002 3.33962329e-002
      8.90772976e-003 9.23583135e-002 2.32701749e-001 2.61728376e-001
      2.61728376e-001 1.62662584e-002 5.22685945e-002 5.00923907e-003
      1.32806659e-001 9.99098793e-002 1.60900041e-001 2.61728376e-001
      2.61728376e-001 2.61728376e-001 1.37065509e-002 7.60926157e-002
      2.66177878e-002 8.01745951e-002 6.22968785e-002 2.07335562e-001
      1.46522075e-001 5.59279658e-002 8.61910880e-002 1.17027350e-002
      4.37444113e-002 7.09290104e-003 2.61728376e-001 2.61728376e-001
      2.52342045e-001 1.90181196e-001 2.74058767e-002 4.77602556e-002
      1.55096315e-002 6.36582002e-002 2.01617517e-002 2.61728376e-001
      2.61728376e-001 2.61728376e-001 2.53111720e-001 1.75630391e-001
      2.37341985e-001 2.24486291e-002 9.14366841e-002 3.37849297e-002
      2.91888826e-002 4.47549261e-002 2.53111720e-001 2.53111720e-001
      2.25844100e-001 2.53111720e-001 1.95165221e-002 2.08485331e-002
      1.49200484e-002 9.33099911e-002 7.48774484e-002 2.53111720e-001
      2.40396932e-001 1.85103547e-002 3.39654610e-002 2.72728037e-002
      7.32947886e-002 2.36338899e-002 2.53111720e-001 2.53111720e-001
      2.53111720e-001 2.30346277e-001 5.50681092e-002 8.21244866e-002
      2.73819752e-002 1.65903307e-002 1.61854047e-002 2.53111720e-001
      2.45631352e-001 2.53111720e-001 3.20764512e-001 1.65659830e-001
      1.88658372e-001 3.57363820e-002 6.69944361e-002 3.57576013e-002
      1.00969091e-001 7.58539513e-002 2.74745196e-001 1.91241652e-001
      4.41008285e-002 7.68571869e-002 1.59122571e-001 3.20764512e-001
      1.62186399e-001 6.32510781e-002 1.38926310e-002 1.38585523e-001
      2.56780058e-001 6.24570586e-002 8.36298764e-002 7.05570206e-002
      9.75062102e-002 4.58578318e-002 2.18796790e-001 1.66794941e-001
      3.20764512e-001 1.70355797e-001 4.35057096e-002 5.11136279e-002
      2.15944991e-001 3.20764512e-001 1.86097473e-001 5.57883978e-002
      3.47927324e-002 1.26679599e-001 8.88739005e-002 9.42305475e-003
      2.95733428e-003 1.30147848e-003 9.06871911e-003 8.64585768e-003
      3.87857527e-001 3.88513178e-001 2.52478898e-001 1.95828676e-001
      1.30350469e-002 4.26467462e-003 5.84072014e-003 2.65779495e-002
      1.31187523e-002 3.88513178e-001 3.88513178e-001 3.88513178e-001
      1.04933213e-002 3.52353929e-003 9.99988639e-004 1.68305298e-004
      4.03021462e-003 3.47660645e-003 1.12355836e-002 3.87359634e-002
      2.22640168e-002 3.90031673e-002 7.36317784e-003 7.77768902e-004
      1.43361511e-003 1.42324921e-002 8.77023116e-003 1.32866845e-001
      3.08075666e-001 1.17767029e-001 1.22857027e-001 5.47835277e-003
      3.53212678e-003 5.41329803e-003 1.03777312e-002 3.99666047e-003
      3.02196801e-001 3.02196801e-001 3.02196801e-001 1.47015125e-001
      1.54918823e-002 2.45788358e-002 3.53260376e-002 9.49482247e-003
      1.49549106e-002 3.02196801e-001 3.02196801e-001 3.02196801e-001
      3.47261392e-002 3.34051298e-003 9.32847790e-004 1.89497462e-003
      6.38720393e-003 3.24034970e-003 1.64578721e-001 3.02196801e-001
      1.39880240e-001 4.39873040e-002 5.52044576e-003 9.42041166e-003
      3.05580683e-002 1.23170167e-002 1.06635261e-002 3.02196801e-001
      3.02196801e-001 2.90838033e-001 1.02721512e-001 1.14960745e-002
      3.30729634e-002 4.64470647e-002 5.64991198e-002 3.70025635e-002
      2.14385450e-001 2.91739672e-001 2.44296342e-001 6.26687109e-002
      9.67099424e-003 3.30018513e-002 1.25588432e-001 2.91739672e-001
      1.48654982e-001 7.83249438e-002 1.15684427e-001 9.56074297e-002
      4.85388599e-002 3.24477744e-003 1.49256634e-002 2.87984516e-002
      3.37396748e-002 1.82890892e-002 2.91739672e-001 2.91739672e-001
      2.91739672e-001 8.09249356e-002 2.98465379e-002 7.65759274e-002
      6.20627068e-002 2.91739672e-001 1.15117945e-001 2.91739672e-001
      2.91739672e-001 2.91739672e-001</_>
    <_>
      8.27331319e-002 1.62225720e-002 2.69174576e-002 8.45578313e-003
      7.67512843e-002 0. 0. 0. 3.65220979e-002 3.12287569e-001
      1.58048391e-001 1.89751729e-001 1.02546029e-002 1.00139350e-001 0.
      0. 3.84236017e-004 8.02730694e-002 3.50232810e-001 3.50232810e-001
      3.50232810e-001 7.95977097e-003 4.48152721e-002 1.70257845e-004
      8.32362639e-005 0. 1.04963571e-001 3.50232810e-001 3.50232810e-001
      3.50232810e-001 6.92939460e-002 1.18968897e-001 3.71675715e-002
      2.11308450e-002 8.51397216e-003 1.90692127e-001 2.25599408e-001
      1.61018550e-001 1.86563924e-001 3.63051961e-003 2.73868125e-002 0.
      0. 5.19566645e-004 5.47778048e-002 2.84833431e-001 2.84833431e-001
      2.84833431e-001 1.48055528e-003 6.00366015e-003 0. 7.97072658e-004
      8.68941890e-004 1.15727521e-001 2.84833431e-001 2.84833431e-001
      2.84833431e-001 5.59982136e-002 1.00900225e-001 3.11546437e-002
      2.67533585e-002 1.08386064e-002 1.58529967e-001 2.84833431e-001
      2.84833431e-001 2.84833431e-001 4.38830033e-002 1.07832193e-001
      2.16067806e-002 5.07478639e-002 1.34328725e-002 2.84833431e-001
      2.66728997e-001 3.18578452e-001 2.89242059e-001 5.66217583e-003
      6.60262331e-002 6.96053830e-005 4.93330648e-003 7.62833189e-003
      1.37341350e-001 1.81288660e-001 2.08455130e-001 1.81011096e-001
      1.20739238e-002 3.28111947e-001 1.57727115e-002 5.17192520e-002
      2.31196042e-002 1.60075277e-001 2.79376596e-001 1.90867171e-001
      2.83707291e-001 3.89336608e-002 2.85758078e-001 1.85744427e-002
      4.13878225e-002 2.27882061e-002 1.87456220e-001 9.73120853e-002
      7.31983110e-002 1.42349705e-001 2.31710486e-002 3.28111947e-001
      1.33985020e-002 4.85244170e-002 2.36061886e-002 9.42277536e-002
      2.58443326e-001 2.47538045e-001 2.58443326e-001 8.35085008e-003
      1.53768342e-002 8.50441493e-003 8.32678899e-002 7.57359937e-002
      1.31461784e-001 2.58443326e-001 2.31166989e-001 2.58443326e-001
      4.55043949e-002 1.56504020e-001 5.26805893e-002 4.92776521e-002
      2.10432597e-002 9.70146656e-002 1.53875157e-001 5.44183329e-002
      7.75266513e-002 6.92580501e-003 2.06673462e-002 1.22210607e-002
      2.58443326e-001 2.58443326e-001 2.58443326e-001 1.60916105e-001
      7.53444731e-002 1.91840112e-001 1.35879023e-002 1.99945584e-001
      3.18103805e-002 2.58443326e-001 2.58443326e-001 2.58443326e-001
      1.85131580e-001 1.58238173e-001 2.32658342e-001 6.85383677e-002
      2.32658342e-001 8.43254253e-002 8.10104162e-002 3.03490777e-002
      1.16976805e-001 2.32658342e-001 1.12827443e-001 2.15730101e-001
      1.09507896e-001 2.32658342e-001 7.78662786e-002 1.19538210e-001
      6.93540126e-002 2.32658342e-001 1.63684294e-001 8.53659436e-002
      2.17027351e-001 1.83330476e-002 1.97173536e-001 5.84020764e-002
      2.32658342e-001 1.67065576e-001 2.32658342e-001 2.32658342e-001
      3.20542268e-002 6.14324883e-002 8.39566365e-002 2.07543269e-001
      8.30233917e-002 2.32658342e-001 2.32658342e-001 2.32658342e-001
      1.93011209e-001 6.47283047e-002 1.08656056e-001 9.99906287e-002
      3.82186294e-001 5.34548722e-002 6.76318333e-002 7.42169619e-002
      1.79376543e-001 5.98846935e-002 3.31433676e-002 7.09118322e-002
      4.47684377e-002 4.51265335e-001 2.98501384e-002 1.60467364e-002
      3.26950215e-002 5.71406074e-002 2.20936745e-001 1.48772337e-002
      2.21037250e-002 9.26382765e-002 3.92623097e-001 4.16672267e-002
      1.08669728e-001 1.55637667e-001 2.23448858e-001 7.53745809e-002
      4.62649250e-003 1.94454584e-002 4.71446216e-002 4.51265335e-001
      2.03027930e-002 2.91373786e-002 3.86224873e-002 7.46368915e-002
      1.41280562e-001 5.23450981e-005 2.60371628e-004 7.19676085e-004
      4.64029945e-002 1.02526229e-002 3.33553761e-001 3.33553761e-001
      3.33553761e-001 2.76981294e-001 2.50266418e-002 6.80129901e-002
      4.44140425e-003 1.17641993e-001 1.00979982e-002 3.33553761e-001
      3.33553761e-001 3.33553761e-001 4.65048105e-002 2.26828750e-004
      6.78758137e-004 0. 9.60755870e-002 1.24677438e-002 1.77771710e-002
      1.51361935e-002 8.15854296e-002 1.36845499e-001 1.03103965e-004
      3.08526418e-004 0. 1.60188153e-001 1.90378129e-002 1.94191962e-001
      1.44649491e-001 2.98049241e-001 1.71788171e-001 1.60557516e-002
      4.10922468e-002 1.65828096e-003 3.91513743e-002 8.57338496e-003
      2.88556963e-001 2.79906482e-001 2.88556963e-001 2.81472474e-001
      6.42244378e-003 1.02445288e-002 1.29106957e-002 3.50326784e-002
      1.61746088e-002 2.88556963e-001 2.88556963e-001 2.88556963e-001
      7.67586306e-002 7.29775784e-005 0. 0. 3.31880637e-002
      5.39027667e-003 2.08386436e-001 1.38027757e-001 2.13010713e-001
      1.53755710e-001 7.51690532e-004 3.22004693e-004 7.33536654e-005
      6.06766203e-003 1.48219941e-003 2.88556963e-001 2.88556963e-001
      2.88556963e-001 1.96316153e-001 4.60072421e-003 5.01878187e-003
      1.84110850e-002 2.25497201e-001 8.81122518e-003 2.78175145e-001
      1.45625189e-001 2.64757931e-001 1.02941811e-001 1.35731371e-002
      3.83314081e-002 1.44162858e-002 3.09995741e-001 8.24338105e-003
      1.03326358e-001 4.21201102e-002 1.15620255e-001 1.54925033e-001
      2.02760962e-003 3.82192037e-003 7.29649153e-004 6.47990406e-002
      7.76150380e-004 3.09995741e-001 2.27308452e-001 3.09995741e-001
      1.67821005e-001 1.61953252e-002 5.44833690e-002 2.38712355e-002
      3.09995741e-001 1.74177415e-003 2.82217741e-001 1.67421982e-001
      3.09995741e-001</_>
    <_>
      1.79634586e-001 1.69230312e-001 7.09340349e-002 1.63886149e-003
      1.19286845e-003 1.97397050e-004 1.29510241e-003 1.78090821e-003
      1.36832178e-001 2.71503180e-001 3.44988734e-001 2.87459493e-001
      5.80140809e-003 4.20026714e-003 0. 1.26778556e-003 1.84639939e-003
      1.58366650e-001 1.98000386e-001 3.44988734e-001 3.44988734e-001
      1.77964475e-002 2.95590814e-002 2.11443100e-003 2.12155469e-002
      2.09192708e-002 1.34367188e-002 2.77877122e-001 3.44988734e-001
      3.44988734e-001 7.83081725e-002 8.27975944e-002 6.31496729e-003
      9.09072906e-003 1.67971347e-002 5.68961203e-002 2.12735727e-001
      2.93099970e-001 2.93099970e-001 6.83645112e-003 6.87779719e-003
      2.82418099e-003 9.52120172e-004 1.07410410e-003 1.06429487e-001
      2.49577388e-001 2.93099970e-001 2.93099970e-001 2.51807570e-002
      4.68259938e-002 1.37662906e-002 7.22116092e-003 3.06002493e-003
      9.87204388e-002 2.09248424e-001 2.93099970e-001 2.93099970e-001
      9.28288475e-002 7.88796619e-002 9.72084235e-003 1.51953148e-002
      2.52105109e-002 8.77905414e-002 2.89901972e-001 2.93099970e-001
      2.65419751e-001 9.69232991e-002 1.18395649e-001 4.68822084e-002
      5.93975559e-002 2.79655270e-002 1.10521778e-001 1.34278670e-001
      3.29012364e-001 1.92905903e-001 3.84611785e-002 4.12194878e-001
      4.11274731e-002 1.33016603e-002 9.30206198e-003 6.23081289e-002
      5.49191013e-002 5.98729812e-002 4.71685752e-002 4.04895283e-002
      4.23155874e-001 5.19493558e-002 1.28997248e-002 9.95688792e-003
      5.69907837e-002 1.41639963e-001 2.24306300e-001 1.09975658e-001
      7.22590759e-002 4.23155874e-001 7.43782371e-002 4.38897163e-002
      8.52826610e-003 5.08186892e-002 8.24293122e-003 2.27066018e-002
      8.44939705e-003 2.92400364e-002 4.23155874e-001 4.23937365e-002
      4.10861289e-003 3.33632051e-004 8.37775785e-003 1.10846981e-001
      3.00346583e-001 2.47416005e-001 3.37978899e-002 6.23326227e-002
      4.36010724e-003 1.94921508e-001 2.83799082e-001 7.93890953e-002
      1.52279556e-001 3.00346583e-001 1.97496712e-001 6.97473735e-002
      1.08769938e-001 1.52420234e-002 9.90660116e-002 1.76130459e-001
      1.38662055e-001 1.57962907e-002 4.85903509e-002 2.46528909e-002
      1.51051544e-002 2.84138042e-002 3.76127008e-003 3.00346583e-001
      3.00346583e-001 1.78177774e-001 4.35573198e-002 1.97986476e-002
      1.07060662e-002 1.54878637e-002 4.34402488e-002 1.32168867e-002
      3.00346583e-001 3.00346583e-001 2.69179314e-001 1.76911503e-001
      2.41938740e-001 1.83540061e-001 1.19376920e-001 1.15696505e-001
      1.55242570e-002 4.48188148e-002 8.38014260e-002 1.95739090e-001
      2.41938740e-001 2.41938740e-001 2.41938740e-001 1.20920770e-001
      1.63960382e-001 4.27706018e-002 5.53347282e-002 5.86251020e-002
      1.66806102e-001 7.21544772e-002 7.93743432e-002 1.00179598e-001
      6.34798184e-002 8.02882090e-002 2.36289315e-002 2.41938740e-001
      2.41938740e-001 2.41938740e-001 1.20753698e-001 2.39205196e-001
      2.18494967e-001 9.42859948e-002 2.41938740e-001 2.60657072e-002
      2.36239329e-001 2.41938740e-001 1.88182727e-001 1.04081340e-001
      1.60258234e-001 6.46563694e-002 6.02730215e-002 4.76154715e-001
      5.59150241e-002 2.43689809e-002 1.29565531e-002 4.27272953e-002
      4.31704940e-003 1.60261597e-002 2.62326957e-003 1.64849535e-002
      4.76154715e-001 2.93007176e-002 1.78739789e-003 2.24924188e-005
      1.77740317e-003 5.42153977e-002 9.89305824e-002 6.24509156e-002
      4.22618687e-002 4.76154715e-001 2.72569824e-002 5.20515144e-002
      1.06547713e-001 5.33399135e-002 3.61487013e-003 7.95929600e-003
      6.88665546e-003 1.56634580e-002 4.76154715e-001 2.04471201e-002
      5.37583430e-004 5.00420248e-003 3.72185721e-003 9.71275661e-003
      8.24994221e-003 1.21349581e-002 4.34462540e-003 7.90779851e-003
      1.23099163e-002 3.15601021e-001 4.13046569e-001 1.93944544e-001
      2.52461489e-002 9.19976458e-003 1.13325464e-002 3.63587309e-003
      1.76391136e-002 1.66410338e-002 4.13046569e-001 4.13046569e-001
      4.13046569e-001 7.19471602e-003 6.21820847e-003 7.33431149e-003
      3.53565649e-003 5.06529864e-003 8.23155139e-003 1.92201901e-002
      3.44112851e-002 2.06276122e-002 1.57891549e-002 1.08999945e-002
      1.24514150e-002 2.64629559e-003 8.58293567e-003 1.15086185e-002
      1.69803917e-001 3.61329734e-001 1.08964793e-001 1.80686638e-002
      1.24449190e-002 1.81531478e-002 1.47794029e-002 2.49911509e-002
      9.75759514e-003 3.34468454e-001 3.34468454e-001 2.00462550e-001
      5.19356132e-002 3.30526792e-002 5.56661561e-002 2.58306284e-002
      1.21879436e-001 1.19382385e-002 3.34468454e-001 3.34468454e-001
      2.35675871e-001 9.05230083e-003 3.60387005e-003 3.08836042e-003
      3.46103858e-004 2.67818989e-003 3.38203786e-003 1.94308922e-001
      3.34468454e-001 9.27323848e-002 3.31900045e-002 4.28592926e-003
      8.62885173e-003 2.33041053e-003 1.32016325e-002 5.80003764e-003
      3.34468454e-001 3.34468454e-001 2.13676959e-001 3.45776789e-002
      1.99657790e-002 4.97836396e-002 2.21790373e-002 3.82076770e-001
      1.13346633e-002 1.71038255e-001 2.86668748e-001 1.09766714e-001
      8.56276136e-003 9.01625026e-003 1.80280935e-002 2.08293255e-002
      3.82076770e-001 1.43718850e-002 1.86414812e-002 3.07836756e-002
      2.04188004e-002 4.65438329e-002 2.79166047e-002 3.24072465e-002
      1.79680791e-002 2.65608460e-001 7.71511300e-003 3.36648941e-001
      3.82076770e-001 1.83361217e-001 4.01556008e-002 3.75884771e-002
      5.30024320e-002 6.68280050e-002 3.82076770e-001 1.58956535e-002
      1.09345242e-001 1.68591529e-001 9.18293148e-002</_>
    <_>
      3.63211408e-002 1.86133590e-002 6.40378967e-002 8.47370923e-003
      7.71551486e-003 9.48313344e-003 9.31502413e-003 1.11605832e-002
      1.80984475e-002 1.23306192e-001 1.25165239e-001 3.51428121e-001
      5.50970715e-003 1.02272741e-002 1.65964365e-002 1.06339827e-002
      1.16919167e-002 6.87961951e-002 3.18328679e-001 3.51428121e-001
      3.51428121e-001 3.07336934e-002 5.04568331e-002 1.09008988e-002
      9.73975845e-003 1.41041484e-002 1.28739193e-001 3.51428121e-001
      3.51428121e-001 3.51428121e-001 1.06956521e-002 1.67155452e-002
      1.12404404e-002 7.89501704e-003 1.71035379e-002 3.00004989e-001
      1.22614086e-001 1.77910313e-001 2.84513742e-001 3.00496561e-003
      4.52043116e-003 4.92854184e-003 3.02977511e-003 4.47629159e-003
      6.98647127e-002 2.71769404e-001 2.84513742e-001 2.84513742e-001
      7.85774924e-003 3.68005852e-003 2.87766382e-003 4.06690268e-003
      3.32537689e-003 1.26378700e-001 2.84513742e-001 2.84513742e-001
      2.84513742e-001 4.31561144e-003 1.81527883e-002 3.98636982e-003
      2.21485971e-003 6.86991122e-003 1.99801251e-001 2.84513742e-001
      2.84513742e-001 2.84513742e-001 1.71863046e-002 6.75414056e-002
      2.22764686e-002 1.94493290e-002 4.02999949e-003 2.84513742e-001
      2.52333760e-001 2.52333760e-001 2.52333760e-001 9.45977308e-003
      5.21741295e-003 3.02368938e-003 3.17409402e-003 3.74104991e-003
      1.56242609e-001 2.52333760e-001 2.52333760e-001 2.52333760e-001
      9.77720879e-003 4.40346189e-002 2.15005390e-002 1.22245131e-002
      2.87207169e-003 2.22677246e-001 2.52333760e-001 2.23511696e-001
      2.52333760e-001 2.01530401e-002 1.62088647e-001 4.70338464e-002
      4.57342751e-002 9.54539701e-003 2.51274318e-001 2.52333760e-001
      1.37053594e-001 2.13575184e-001 5.16193770e-002 2.52333760e-001
      5.82845807e-002 5.23896813e-002 5.39159104e-002 2.52333760e-001
      2.00333178e-001 2.63626426e-001 2.63626426e-001 2.76834294e-002
      1.16064541e-001 1.82630066e-002 1.55415758e-001 7.16564134e-002
      1.41545281e-001 2.63626426e-001 2.48473927e-001 2.63626426e-001
      4.09248285e-003 4.09174040e-002 8.68535787e-003 1.19841404e-001
      8.40330347e-002 2.44493842e-001 1.19354084e-001 4.96251583e-002
      4.94952761e-002 1.45689137e-002 8.99714455e-002 1.92039125e-002
      2.63626426e-001 2.01530159e-001 2.42647454e-001 2.55423427e-001
      5.44411354e-002 4.81663644e-002 4.84777009e-003 3.58126462e-002
      6.52848417e-003 2.63626426e-001 2.50876784e-001 2.63626426e-001
      2.20959768e-001 1.54060706e-001 2.54421264e-001 1.16986074e-002
      1.03063919e-001 1.26624964e-002 7.66834095e-002 4.52096425e-002
      1.76222339e-001 2.16172218e-001 1.57915547e-001 2.54421264e-001
      5.13408110e-002 2.54421264e-001 5.14582768e-002 9.64519382e-002
      2.97092553e-002 2.06535235e-001 2.24979386e-001 3.05324271e-002
      4.78602163e-002 1.12280883e-002 1.07122108e-001 1.08766630e-002
      2.54421264e-001 2.11090073e-001 2.54421264e-001 2.54421264e-001
      3.42306979e-002 8.26745853e-002 4.03543636e-002 2.35520214e-001
      4.49106060e-002 2.54421264e-001 2.23890379e-001 2.54421264e-001
      2.01662675e-001 9.00005773e-002 1.93311036e-001 7.29223117e-002
      2.42132068e-001 1.05446428e-001 1.36173502e-001 3.33740376e-002
      1.90031067e-001 2.42132068e-001 7.86590651e-002 9.43361819e-002
      8.05890113e-002 2.42132068e-001 1.38135776e-001 1.42241076e-001
      1.40816435e-001 2.42132068e-001 2.42132068e-001 2.08579320e-002
      6.23277910e-002 8.79513770e-002 2.42132068e-001 1.00809626e-001
      2.42132068e-001 1.33836627e-001 2.42132068e-001 2.42132068e-001
      5.70563599e-002 6.26656413e-002 1.30597249e-001 2.42132068e-001
      1.37002245e-001 1.36211112e-001 1.09153979e-001 2.42132068e-001
      1.03446372e-001 6.72132103e-003 1.11392224e-002 1.21983765e-002
      2.25744136e-002 1.36060799e-002 3.81247342e-001 2.28618950e-001
      3.39204907e-001 3.51150483e-001 1.19402995e-002 1.23201897e-002
      1.21981557e-002 1.67940799e-002 5.15001500e-003 3.81247342e-001
      3.81247342e-001 3.81247342e-001 7.59425713e-003 3.36918561e-003
      1.40267089e-002 1.14354352e-002 3.25902924e-002 1.70470774e-002
      3.77009884e-002 1.28180198e-002 2.98727732e-002 5.48128746e-002
      7.55052734e-003 2.87984870e-002 1.55646373e-002 3.07546947e-002
      2.21883971e-002 2.61595309e-001 9.57801044e-002 1.55851334e-001
      1.99530736e-001 5.94468415e-003 4.21370659e-003 5.52596850e-003
      1.78282838e-002 2.63876072e-003 3.02467436e-001 2.50048637e-001
      3.02467436e-001 3.02467436e-001 6.60660211e-003 8.34631361e-003
      9.67346132e-003 3.62451263e-002 1.52466586e-002 3.02467436e-001
      3.02467436e-001 3.02467436e-001 6.02978952e-002 3.31434770e-003
      1.00594573e-002 7.85228610e-003 9.78958048e-003 7.33847450e-003
      2.62382925e-001 1.04400620e-001 1.23834245e-001 1.70630142e-001
      4.43563238e-003 8.08763597e-003 9.44829732e-003 8.01069662e-003
      5.96112665e-003 3.02467436e-001 2.49663651e-001 2.47616842e-001
      2.53463119e-001 3.83238262e-003 2.15963796e-002 2.75086593e-002
      4.37441543e-002 2.68213693e-002 2.68892944e-001 1.97340757e-001
      2.68892944e-001 2.41073832e-001 1.40104918e-002 4.75427806e-002
      1.03113458e-001 1.25384092e-001 6.57805055e-002 2.11624846e-001
      1.20958999e-001 2.68892944e-001 1.88065201e-001 3.67582100e-003
      6.43454911e-003 5.82543807e-003 3.20920045e-003 1.73299969e-003
      2.68892944e-001 2.68892944e-001 2.34045967e-001 2.43833840e-001
      2.88082957e-002 3.50497998e-002 5.76539971e-002 6.10161498e-002
      4.84691709e-002 2.68892944e-001 2.68892944e-001 2.68892944e-001</_>
    <_>
      1.29767216e-003 5.79867139e-003 1.23745225e-001 3.43207926e-001
      3.77045453e-001 2.30934899e-002 2.57422263e-003 3.84628365e-004
      1.30063714e-003 3.69343325e-003 2.57238727e-002 9.04532298e-002
      2.45363399e-001 3.77045453e-001 2.23579053e-002 7.42112705e-003
      1.80728035e-003 2.81471806e-003 1.43946810e-002 3.61116193e-002
      1.49827302e-001 2.89177179e-001 3.77045453e-001 8.17320049e-002
      4.87031089e-003 5.87872462e-003 5.98636456e-003 4.70618159e-002
      1.15974799e-001 1.52942359e-001 2.58762151e-001 3.77045453e-001
      5.99000007e-002 1.32731218e-002 7.38139730e-003 9.05697700e-003
      2.97663119e-002 1.15977280e-001 2.36054152e-001 2.79980034e-001
      1.15242556e-001 2.81052459e-002 1.34831890e-002 7.02609308e-003
      1.60021707e-002 8.08858946e-002 2.95521885e-001 1.69264019e-001
      1.08899415e-001 9.56155062e-002 3.39782313e-002 2.93327998e-002
      2.61961352e-002 2.44328286e-002 2.92015374e-001 3.23672414e-001
      3.23672414e-001 1.92219615e-001 7.55402446e-002 2.30949428e-002
      3.07509098e-002 4.03532423e-002 5.51024713e-002 3.23672414e-001
      3.23672414e-001 3.23672414e-001 6.20391741e-002 1.27848417e-001
      3.40986662e-002 2.98678819e-002 6.52343258e-002 5.04030176e-002
      1.23231374e-001 3.10299844e-001 1.63543001e-001 5.15181944e-002
      4.19614054e-002 2.71630567e-002 2.00006124e-002 2.28552055e-002
      3.11617870e-002 3.10299844e-001 3.10299844e-001 1.96626112e-001
      1.03693828e-001 7.91924447e-002 6.47926778e-002 7.51825944e-002
      4.77461331e-002 1.57174170e-001 1.70749262e-001 3.10299844e-001
      2.95296490e-001 7.43792802e-002 1.38875365e-001 4.63743322e-002
      1.72785539e-002 2.82516163e-002 2.96315625e-002 3.02669466e-001
      3.10299844e-001 2.58870691e-001 1.60968423e-001 1.38626516e-001
      1.06594950e-001 7.39301816e-002 2.41863020e-002 8.66488367e-002
      2.63379943e-002 7.12654069e-002 1.45749748e-001 2.27801904e-001
      3.09957057e-001 1.50353730e-001 1.42087210e-002 1.11192595e-002
      1.01961447e-002 7.40502030e-002 1.91909000e-001 1.63059458e-001
      1.74069583e-001 3.09957057e-001 9.70184281e-002 2.31236164e-002
      1.25543103e-002 1.08768679e-002 1.84393004e-001 1.37983441e-001
      2.31592804e-001 3.09957057e-001 3.09957057e-001 1.97236389e-001
      3.78031805e-002 3.42126824e-002 8.66050944e-002 2.33907104e-001
      1.24414772e-001 9.26467627e-002 1.56211749e-001 3.09957057e-001
      1.38015613e-001 5.76341487e-002 4.24229577e-002 1.48803070e-001
      2.50559151e-001 3.07957739e-001 2.44621456e-001 6.04052581e-002
      3.33515331e-002 1.64429042e-002 3.17051075e-002 3.22933085e-002
      5.00105284e-002 1.91447556e-001 3.07957739e-001 1.78100854e-001
      8.17086250e-002 1.48195162e-001 4.48757708e-002 1.78225897e-002
      3.49026993e-002 3.00249886e-002 3.07957739e-001 2.24816725e-001
      1.01657845e-001 1.69654042e-002 3.11576538e-002 3.25760096e-002
      4.75643501e-002 3.54427360e-002 3.07957739e-001 3.07957739e-001
      3.07957739e-001 9.27722529e-002 8.77275988e-002 1.08501785e-001
      6.00852370e-002 2.57191733e-002 5.47023006e-002 3.03609699e-001
      6.96953312e-002 2.11875558e-001 1.25132978e-001 1.14871539e-001
      2.08112434e-001 9.59158391e-002 1.75901465e-002 1.38847642e-002
      1.99637935e-002 8.48153159e-002 1.48070112e-001 1.22710325e-001
      1.13230519e-001 1.43838882e-001 1.26543462e-001 5.49280569e-002
      4.97260652e-002 8.18587914e-002 3.09446812e-001 3.09446812e-001
      1.57002240e-001 9.57036689e-002 1.33674458e-001 8.82214457e-002
      3.26539353e-002 4.09895964e-002 3.09446812e-001 3.09446812e-001
      3.09446812e-001 3.09446812e-001 5.83520420e-002 7.51287341e-002
      7.04254508e-002 3.49964239e-002 1.06117927e-001 3.09446812e-001
      3.01260442e-001 7.69895539e-002 1.07733138e-001 1.02094658e-001
      3.01260442e-001 1.19173266e-001 3.72031219e-002 7.39762783e-002
      3.01260442e-001 3.01260442e-001 5.99618852e-002 1.14865750e-002
      3.25168185e-002 1.64691046e-001 8.13931450e-002 4.61292230e-002
      7.84375817e-002 3.01260442e-001 3.01260442e-001 2.52710022e-002
      2.72186995e-002 2.39393134e-002 1.38082460e-001 8.06595162e-002
      6.64160252e-002 9.41530168e-002 3.01260442e-001 3.01260442e-001
      4.07135971e-002 4.23791073e-003 1.34580098e-002 9.69564542e-002
      9.57704186e-002 1.02640010e-001 1.12137184e-001 3.01260442e-001
      3.29984546e-001 9.27377716e-002 5.23947924e-003 1.09017966e-003
      5.08928020e-003 1.41586363e-002 2.36921199e-002 5.47473766e-002
      3.29984546e-001 3.29984546e-001 2.25401938e-001 1.31489662e-002
      9.53391660e-003 1.08908676e-002 1.99938770e-002 2.60188710e-002
      5.42124659e-002 3.29984546e-001 3.29984546e-001 5.78178130e-002
      2.49052327e-003 1.17119728e-002 6.05647750e-002 9.02948156e-002
      9.99158099e-002 1.43643156e-001 3.29984546e-001 3.29984546e-001
      1.00292407e-001 8.19165912e-003 8.86999629e-003 5.40844165e-002
      1.08854644e-001 1.07554324e-001 1.12687893e-001 2.67744094e-001
      3.10341328e-001 3.10341328e-001 6.53210357e-002 1.57795362e-002
      1.93643011e-002 2.75823809e-002 2.41152532e-002 5.60050048e-002
      3.10341328e-001 3.10341328e-001 3.10341328e-001 1.65392816e-001
      1.11891478e-002 7.84463435e-003 1.98376216e-002 2.99594495e-002
      8.41254368e-002 3.10341328e-001 3.10341328e-001 1.95931047e-001
      3.76926996e-002 1.30987270e-002 3.91054861e-002 9.90383700e-002
      6.89204708e-002 9.09144208e-002 2.21971318e-001 2.82415152e-001
      1.79342747e-001 6.33725822e-002 1.91911012e-002 3.83319259e-002
      5.62675521e-002 6.05395213e-002 1.02705903e-001 1.69340655e-001</_>
    <_>
      2.82277111e-002 1.36317816e-002 4.74451371e-002 1.22788828e-002
      8.30155611e-003 1.98242627e-002 4.30013461e-005 5.63376743e-005
      2.69235242e-002 1.32735088e-001 8.91507119e-002 2.16089815e-001
      9.93365198e-002 4.45463993e-002 6.08972088e-002 9.00913496e-003 0.
      1.02671318e-001 2.96804160e-001 2.00420514e-001 3.26671809e-001
      1.55548736e-001 1.39506370e-001 1.65435433e-001 8.57855950e-004
      1.14690606e-003 2.31676742e-001 3.26671809e-001 3.26671809e-001
      3.26671809e-001 2.35070631e-001 1.54893473e-001 1.66729301e-001
      1.16387447e-002 1.23441234e-004 3.26671809e-001 1.98028684e-001
      1.23839222e-001 2.29037657e-001 1.17508031e-001 5.30494638e-002
      4.49654870e-002 6.18398190e-003 0. 1.10433720e-001 2.74623722e-001
      2.03652591e-001 2.74623722e-001 1.35857567e-001 6.70425147e-002
      8.77397731e-002 4.12265479e-004 0. 2.23627150e-001 2.74623722e-001
      2.74623722e-001 2.74623722e-001 1.22899115e-001 5.49196713e-002
      4.23875116e-002 8.87828600e-003 9.22907784e-004 2.74623722e-001
      2.74623722e-001 1.77889168e-001 2.74623722e-001 5.85587509e-002
      3.01001687e-002 1.37091251e-002 4.35615741e-002 2.02040486e-002
      2.74623722e-001 3.23425323e-001 2.12188721e-001 3.23425323e-001
      9.58594903e-002 7.57913664e-002 7.67360553e-002 4.45655547e-003
      1.43821375e-003 2.68151015e-001 2.19517812e-001 1.31687596e-001
      3.23425323e-001 4.26779762e-002 3.23425323e-001 2.97583286e-002
      7.66720101e-002 3.32640745e-002 2.04247266e-001 2.36495569e-001
      1.01581424e-001 2.64653176e-001 1.22718634e-002 6.53761700e-002
      3.89464153e-003 7.64914081e-002 3.56519446e-002 1.94094300e-001
      8.11227560e-002 3.63176875e-002 8.52217972e-002 1.22087018e-003
      3.23425323e-001 3.05841281e-003 9.14875790e-002 4.22730111e-002
      9.04545188e-002 2.25242004e-001 1.16341993e-001 2.58937985e-001
      7.28625506e-002 1.41337037e-001 7.44182318e-002 1.50954902e-001
      5.60081452e-002 1.89830020e-001 2.58937985e-001 2.13105440e-001
      2.58937985e-001 4.10129093e-002 1.11484304e-001 3.18830721e-002
      1.51076660e-001 5.22745326e-002 2.58937985e-001 1.91187963e-001
      2.58666817e-002 7.91687220e-002 5.20796366e-002 1.24990329e-001
      1.12793580e-001 2.58937985e-001 1.59639686e-001 2.28259549e-001
      2.58937985e-001 3.19933668e-002 8.58621597e-002 2.28254255e-002
      1.01451591e-001 7.47869387e-002 2.58937985e-001 2.02322304e-001
      2.58937985e-001 2.93052167e-001 1.51138023e-001 2.32227430e-001
      1.33868149e-002 3.43003720e-002 7.23954383e-003 5.96617870e-002
      2.12311037e-002 2.93052167e-001 2.93052167e-001 5.02553470e-002
      1.05322994e-001 5.29962312e-003 3.30992788e-002 5.81365894e-004
      1.50055617e-001 5.93671314e-002 2.93052167e-001 2.93052167e-001
      1.17201181e-002 3.05934642e-002 1.05165513e-002 2.96349842e-002
      2.39372998e-002 2.93052167e-001 1.71630397e-001 2.93052167e-001
      2.93052167e-001 1.82277914e-002 5.05469181e-002 2.33313139e-003
      2.00495943e-002 2.51156953e-003 2.26952374e-001 1.19502015e-001
      2.93052167e-001 2.46376261e-001 8.80737454e-002 2.09329739e-001
      9.72788967e-003 1.21680178e-001 2.36044987e-003 2.95189142e-001
      1.11719280e-001 2.31275067e-001 8.06195289e-002 7.84873515e-002
      2.15165451e-001 7.03835115e-003 3.14367682e-001 7.51488749e-003
      2.41422340e-001 9.76661667e-002 1.04954593e-001 2.23101839e-001
      7.35102743e-002 1.99159935e-001 6.42317394e-003 9.35878679e-002
      2.96260114e-003 2.93341249e-001 1.04052752e-001 2.27367282e-001
      7.62789771e-002 8.99267048e-002 2.72390902e-001 1.25154741e-002
      3.14367682e-001 5.53577533e-003 1.71431601e-001 6.19964823e-002
      8.52597803e-002 2.00054094e-001 0. 1.08471066e-002 8.62755775e-002
      1.08527236e-001 2.03561574e-001 3.10564369e-001 2.01794714e-001
      3.08018059e-001 3.10564369e-001 0. 2.50317832e-003 1.76260605e-001
      1.48915216e-001 3.05677891e-001 3.10564369e-001 3.10564369e-001
      3.10564369e-001 2.04703957e-002 0. 0. 1.11188497e-002
      1.42378462e-002 1.16620585e-002 1.43406987e-002 1.86660904e-002
      3.29354256e-002 1.06192604e-001 0. 0. 1.05965152e-001
      5.57320528e-002 9.88174751e-002 2.31367812e-001 1.27267346e-001
      1.54718414e-001 2.28231266e-001 0. 0. 7.66845569e-002
      4.41010296e-002 9.81793180e-002 2.66003162e-001 2.64070779e-001
      2.66003162e-001 2.46851712e-001 2.08351039e-003 6.05528383e-003
      4.01660316e-002 3.03142406e-002 5.62407412e-002 2.66003162e-001
      2.47980222e-001 2.66003162e-001 1.13379285e-001 0. 0.
      9.17355195e-002 4.82684970e-002 8.64361450e-002 2.66003162e-001
      1.21370651e-001 1.39959306e-001 2.56188393e-001 1.40275370e-004
      3.06492555e-004 1.42878845e-001 8.39297250e-002 1.49490401e-001
      2.66003162e-001 2.31851473e-001 2.66003162e-001 1.49161860e-001
      9.73628648e-003 2.66746636e-002 9.29833297e-003 3.47540155e-002
      1.45566063e-002 2.83459067e-001 1.09075584e-001 1.87096491e-001
      6.30370453e-002 1.41679663e-002 4.23276946e-002 3.17143858e-003
      3.04181725e-001 1.73298898e-003 9.61300731e-002 3.41974013e-002
      7.14314654e-002 2.79114515e-001 3.49104550e-004 1.62879168e-003
      1.09489098e-001 8.22024420e-002 1.27100810e-001 3.04181725e-001
      2.29755208e-001 3.04181725e-001 2.71899134e-001 6.62122108e-003
      2.75665894e-002 4.61037345e-002 3.04181725e-001 7.51354620e-002
      3.04181725e-001 1.71576753e-001 2.88938284e-001</_>
    <_>
      1.93817779e-001 1.51592880e-001 9.24431086e-002 1.05377724e-002
      3.70854465e-003 2.34627863e-003 4.80928132e-003 1.41893802e-002
      8.15960988e-002 2.82708734e-001 2.82708734e-001 1.96458519e-001
      3.51859741e-002 1.37812085e-002 1.01685580e-002 9.19521693e-003
      2.10550111e-002 1.17040701e-001 2.82708734e-001 2.82708734e-001
      2.82708734e-001 6.04901984e-002 8.07683542e-002 8.30441043e-002
      9.96967405e-002 1.42079145e-001 1.85884163e-001 2.82708734e-001
      2.82708734e-001 2.61817127e-001 6.45564124e-002 1.21375620e-001
      1.52448222e-001 1.21424414e-001 1.89732030e-001 2.53099322e-001
      3.16265434e-001 3.16265434e-001 3.16265434e-001 8.35877955e-002
      3.28926705e-002 2.15768050e-002 5.27227484e-003 6.48101466e-003
      8.87180120e-002 3.16265434e-001 3.16265434e-001 3.16265434e-001
      5.46020828e-002 1.89221594e-002 1.23989312e-002 2.71802489e-003
      7.43695768e-003 6.01846725e-002 3.16265434e-001 3.16265434e-001
      1.88833743e-001 8.01976845e-002 6.62232712e-002 7.16607496e-002
      2.91332919e-002 8.39365870e-002 1.97514132e-001 1.31293803e-001
      1.77645326e-001 1.23952515e-001 5.29365242e-002 2.94122715e-002
      2.71900985e-002 9.96196829e-003 2.89233346e-002 7.05464631e-002
      3.59284729e-001 3.59284729e-001 3.59284729e-001 8.49710032e-002
      4.08559591e-002 1.41142504e-002 1.30523052e-002 3.35094556e-002
      1.18404716e-001 2.43100584e-001 3.59284729e-001 1.65546075e-001
      1.48646116e-001 3.59284729e-001 8.88552591e-002 3.12770307e-002
      6.07145466e-002 8.08366761e-002 9.70807001e-002 1.15454510e-001
      1.00710854e-001 4.45900522e-002 5.71107417e-002 3.53249274e-002
      2.36886870e-002 5.30054010e-002 6.68404922e-002 2.54108533e-002
      2.33220551e-002 4.67666648e-002 7.10727647e-002 3.59284729e-001
      1.10401593e-001 1.86166447e-002 2.98089609e-002 2.67840289e-002
      1.94894850e-001 1.78524703e-001 1.65413663e-001 4.97295819e-002
      9.50115025e-002 9.48367342e-002 1.33615062e-001 2.56340712e-001
      2.30436832e-001 1.40506521e-001 6.60042763e-002 8.06106776e-002
      8.43882188e-002 1.17948309e-001 1.45025924e-001 1.51471362e-001
      2.56340712e-001 2.13745907e-001 1.92619741e-001 3.82156819e-002
      5.50941639e-002 2.59629153e-002 4.19019610e-002 1.02630273e-001
      2.43680522e-001 2.56340712e-001 2.56340712e-001 2.10225001e-001
      3.00376434e-002 1.33649647e-001 1.04812391e-001 6.79174215e-002
      1.22504644e-001 2.56340712e-001 2.56340712e-001 2.56340712e-001
      1.28300622e-001 3.93946804e-002 3.80091183e-002 5.73171005e-002
      5.73249459e-002 7.79609010e-002 8.61065015e-002 2.49683067e-001
      3.00378591e-001 1.70195833e-001 1.74735654e-002 1.44394152e-002
      1.43490443e-002 2.03198716e-002 1.66242737e-002 2.01404821e-002
      1.28811270e-001 3.00378591e-001 2.18099207e-001 5.41300476e-002
      1.61249936e-001 1.08356774e-001 1.12844348e-001 1.37038484e-001
      2.22680956e-001 3.00378591e-001 3.00378591e-001 3.00378591e-001
      1.02365606e-001 7.21746087e-002 5.55121526e-002 1.04048602e-001
      9.41728204e-002 1.30422190e-001 2.85629094e-001 3.00378591e-001
      1.27537772e-001 7.74458190e-003 1.80353187e-002 1.19067617e-002
      2.38883123e-002 1.22343190e-002 2.43179630e-002 1.28650904e-001
      3.17540497e-001 5.56287952e-002 7.40939844e-003 2.79235076e-002
      3.81029248e-002 2.43940458e-001 4.24389020e-002 3.53200659e-002
      4.44074273e-002 1.18874557e-001 3.17540497e-001 9.63403508e-002
      3.78922038e-002 6.17941990e-002 2.70200819e-001 1.34233311e-001
      2.01513290e-001 3.10195833e-001 3.17540497e-001 1.44066662e-001
      3.51697616e-002 1.63824689e-002 9.70586985e-002 3.17540497e-001
      2.14885578e-001 1.93370104e-001 1.27794087e-001 3.17540497e-001
      1.53275922e-001 1.33019621e-002 5.30037889e-003 2.98797386e-003
      6.03461405e-003 5.17270677e-002 2.85693496e-001 3.19454223e-001
      3.19454223e-001 1.79421738e-001 2.41900105e-002 8.26376528e-002
      2.97712125e-002 1.93243455e-002 5.43168522e-002 3.19454223e-001
      3.19454223e-001 3.19454223e-001 6.33749291e-002 1.83975846e-002
      9.75701679e-003 8.19800049e-003 4.16405536e-002 1.39905186e-002
      1.14658333e-001 1.94405079e-001 1.33676201e-001 5.80974407e-002
      1.76659413e-002 2.01387741e-002 3.16422842e-002 6.40885457e-002
      1.58665683e-002 2.14207634e-001 3.19454223e-001 3.19454223e-001
      7.23019019e-002 3.27038914e-002 6.33133203e-002 2.48528346e-002
      3.36530842e-002 4.24334779e-002 1.30267888e-001 3.33243877e-001
      3.22290748e-001 1.02132089e-001 7.38401935e-002 3.90709490e-002
      2.93517206e-002 4.42881547e-002 5.23631945e-002 1.24261774e-001
      3.33243877e-001 3.33243877e-001 2.09725127e-002 9.55264084e-003
      1.06322318e-002 1.22161712e-002 1.49506088e-002 5.35975443e-003
      1.39104739e-001 3.33243877e-001 3.29454750e-001 3.10751852e-002
      1.37799662e-002 5.98712917e-003 3.37527879e-003 7.62934238e-003
      8.69320426e-003 1.64242774e-001 3.33243877e-001 3.33243877e-001
      1.15811616e-001 7.21564218e-002 2.01011971e-002 5.44755757e-002
      3.06317598e-001 8.47982615e-002 1.24418177e-001 1.90052941e-001
      3.19798946e-001 4.14356105e-002 2.09880359e-002 4.99293068e-003
      7.73289204e-002 3.19798946e-001 1.18753709e-001 7.04677328e-002
      4.22840454e-002 8.70557502e-002 6.84654042e-002 2.30282638e-002
      3.43397167e-003 3.28563862e-002 2.59785861e-001 4.46853377e-002
      1.63393110e-001 3.19798946e-001 3.19798946e-001 6.72017708e-002
      2.28421055e-002 5.85504808e-003 6.43735602e-002 3.19798946e-001
      1.04786538e-001 1.81027174e-001 3.19798946e-001 1.28486007e-001</_>
    <_>
      5.59701584e-002 4.16607000e-002 2.70894635e-002 3.96807957e-003
      1.46836881e-002 3.89086991e-003 6.16934616e-003 8.65392759e-003
      2.44410224e-002 1.69013605e-001 2.91493773e-001 1.63676739e-001
      1.91805547e-003 1.68559458e-002 7.94049073e-003 5.28898742e-003
      7.54721928e-003 6.82977214e-002 2.79862553e-001 3.81348908e-001
      3.81348908e-001 7.58711807e-003 7.83980265e-003 6.12604106e-003
      7.28545850e-003 1.43406689e-002 5.94830364e-002 3.81348908e-001
      3.81348908e-001 3.81348908e-001 1.15087139e-003 1.65111404e-002
      9.23689082e-003 4.71857237e-003 2.36611646e-002 1.83993936e-001
      1.45446360e-001 2.91685909e-001 2.15180382e-001 1.72694400e-003
      6.53885445e-003 3.05335200e-003 8.53805570e-004 2.71025277e-003
      6.94455802e-002 2.81032264e-001 2.91685909e-001 2.91685909e-001
      4.91878577e-003 5.05912304e-003 8.25195340e-004 6.55136711e-004
      2.48015695e-003 1.18287615e-001 2.91685909e-001 2.91685909e-001
      2.91685909e-001 9.34284180e-004 3.25303618e-003 3.06087732e-003
      2.12902995e-003 2.98377201e-002 1.70704752e-001 2.91685909e-001
      2.91685909e-001 2.91685909e-001 4.96218959e-003 4.06765705e-003
      2.63319653e-003 7.22583896e-003 2.69414000e-002 1.87366605e-001
      3.33172411e-001 3.36201757e-001 3.36201757e-001 5.16764214e-003
      5.82348071e-002 2.37069707e-002 4.67708893e-003 2.58296784e-002
      1.18330061e-001 2.32450515e-001 2.11632028e-001 2.00601041e-001
      1.36691388e-002 3.36201757e-001 1.51185364e-001 4.15997840e-002
      5.70780076e-002 9.55267549e-002 2.13232309e-001 2.17376113e-001
      2.27272391e-001 6.78328844e-003 1.40458718e-001 4.05525006e-002
      1.83187202e-002 2.55111251e-002 1.06363326e-001 7.66728446e-002
      3.80712785e-002 6.54820353e-002 1.15729757e-002 3.36201757e-001
      2.13307753e-001 1.60567127e-002 2.87360381e-002 4.68424633e-002
      1.68028250e-001 2.71185070e-001 2.71185070e-001 1.29010770e-002
      5.57924472e-002 1.74538493e-002 7.77347609e-002 7.39587024e-002
      7.75824264e-002 2.60773957e-001 2.71185070e-001 2.71185070e-001
      7.82725518e-004 6.90174848e-002 1.09227607e-002 1.15347557e-001
      1.08107075e-001 1.57153338e-001 1.06713593e-001 9.62964520e-002
      1.26360968e-001 1.00894943e-002 6.89188018e-002 2.39205305e-002
      2.71185070e-001 2.71185070e-001 2.29928330e-001 1.87242925e-001
      1.11505494e-001 1.23466432e-001 1.08663016e-003 7.52329454e-002
      1.32627394e-002 2.71185070e-001 2.71185070e-001 2.71185070e-001
      2.66058862e-001 2.66058862e-001 2.66058862e-001 3.00453277e-004
      2.32988540e-002 6.20206725e-003 6.73655644e-002 1.10888168e-001
      2.66058862e-001 2.66058862e-001 1.45932347e-001 1.01686552e-001
      1.46105923e-002 7.29543343e-003 3.47141433e-003 3.53724360e-002
      7.68203884e-002 2.66058862e-001 2.66058862e-001 1.48100868e-001
      5.46319187e-002 1.09513685e-005 2.42706612e-002 7.94153661e-003
      2.66058862e-001 2.66058862e-001 2.66058862e-001 2.66058862e-001
      1.06184594e-001 2.17698198e-002 1.60150528e-002 7.51727633e-003
      5.98733732e-003 1.08249478e-001 2.04996243e-001 2.66058862e-001
      3.07764560e-001 6.25016615e-002 1.14623092e-001 4.66098040e-002
      1.46562174e-001 4.73099984e-002 1.30202726e-001 8.29549804e-002
      2.61414200e-001 8.71366262e-002 3.01045571e-002 7.85983428e-002
      5.21763600e-002 3.95406216e-001 2.17531130e-001 9.84988660e-002
      4.18392271e-002 8.33787844e-002 3.45853150e-001 4.56293635e-002
      9.95082185e-002 5.50726354e-002 1.65893421e-001 4.67538200e-002
      1.47955939e-001 1.53752938e-001 2.71090567e-001 1.11268595e-001
      3.95319313e-002 8.80889446e-002 5.72436228e-002 3.95406216e-001
      2.11559847e-001 9.41728279e-002 6.53645620e-002 6.45753890e-002
      7.74043575e-002 5.27423341e-003 6.26268424e-003 3.23199411e-003
      2.72414964e-002 1.48369502e-002 3.46598476e-001 3.46598476e-001
      3.21209967e-001 1.67348117e-001 1.33992452e-002 1.52985670e-003
      7.94663036e-004 1.93970334e-002 1.12206638e-002 3.46598476e-001
      3.46598476e-001 3.46598476e-001 1.02048606e-001 1.03138229e-002
      8.91149510e-003 2.52317637e-003 1.31028853e-002 6.91911858e-003
      4.40718532e-002 4.43962403e-002 1.30442172e-001 1.40832081e-001
      1.33105153e-002 8.82181432e-003 1.70973735e-003 1.18615534e-002
      1.14091085e-002 2.38660872e-001 2.63173282e-001 2.80448824e-001
      1.32988542e-001 2.66330540e-002 3.47892754e-004 5.71315068e-005
      2.61898758e-003 3.39216553e-003 2.85267293e-001 2.85267293e-001
      2.85267293e-001 1.62060589e-001 2.97168996e-002 3.19376681e-003
      2.36403965e-003 1.21099676e-003 2.79413862e-003 2.85267293e-001
      2.85267293e-001 2.85267293e-001 9.05780941e-002 1.03616286e-002
      1.68389699e-003 7.45710684e-004 4.85406397e-003 5.14236046e-003
      2.57984430e-001 2.69118339e-001 2.19585598e-001 1.52944833e-001
      1.40384687e-002 1.24494906e-003 2.74327671e-004 2.46632332e-003
      2.54344475e-003 2.85267293e-001 2.85267293e-001 2.85267293e-001
      1.12152681e-001 1.53749976e-002 2.15656534e-002 8.53850041e-003
      1.01516403e-001 1.15715088e-002 1.90455154e-001 2.59466112e-001
      1.90639749e-001 5.14065698e-002 1.15831532e-002 4.88378629e-002
      1.71216242e-002 3.09510469e-001 8.32560658e-002 5.53873368e-002
      8.66753533e-002 6.75879642e-002 1.56435862e-001 1.21273957e-002
      2.40347125e-002 2.41854135e-003 4.22916710e-002 2.57583917e-003
      3.09510469e-001 3.09510469e-001 3.09510469e-001 1.42358214e-001
      4.68284413e-002 1.47628292e-001 5.28827384e-002 3.09510469e-001
      3.77671272e-002 2.59166032e-001 3.09510469e-001 2.97017843e-001</_>
    <_>
      3.74454372e-002 4.66968715e-002 2.03991514e-002 4.57028905e-003
      4.54202434e-003 0. 0. 6.94572751e-004 1.16928490e-002
      1.54464543e-001 2.61047274e-001 1.93799704e-001 4.25677188e-003
      5.60385734e-003 0. 2.02056108e-004 3.49167007e-004 3.74354348e-002
      3.28773588e-001 3.65237951e-001 3.65237951e-001 1.72238275e-002
      2.67184693e-002 4.04057937e-004 1.87958212e-004 3.22577218e-003
      1.09578155e-001 3.65237951e-001 3.65237951e-001 3.65237951e-001
      4.81121521e-003 3.82102095e-002 1.62078887e-002 4.26978513e-004
      3.73523147e-003 2.66991556e-001 1.59704700e-001 2.94524074e-001
      2.16679752e-001 2.24226480e-003 3.59223736e-003 1.85115659e-003
      3.02324421e-004 2.08896911e-003 2.85497345e-002 2.88604796e-001
      2.94524074e-001 2.94524074e-001 2.54589622e-003 3.80499242e-003
      3.05428798e-003 1.15038606e-003 9.49851610e-003 3.40434723e-002
      2.94524074e-001 2.94524074e-001 2.94524074e-001 1.02604448e-003
      2.21782327e-002 1.13032153e-002 3.16086662e-004 4.88473382e-003
      1.78523242e-001 2.94524074e-001 2.94524074e-001 2.94524074e-001
      8.14279355e-003 9.05560330e-003 7.14090280e-003 3.63129820e-003
      1.02256993e-002 1.60170689e-001 2.78580129e-001 3.23157072e-001
      3.23157072e-001 3.34614282e-003 2.86096931e-002 3.10713006e-003
      2.59257504e-003 1.28807370e-002 4.28293794e-002 1.73613399e-001
      3.23157072e-001 1.90168306e-001 1.17969196e-002 3.23157072e-001
      3.65255550e-002 2.01204401e-002 5.66557981e-002 5.94041124e-002
      3.23157072e-001 2.92737484e-001 2.15847820e-001 1.56585183e-002
      6.06220439e-002 2.12484952e-002 1.70661137e-002 7.59868138e-003
      1.66668966e-001 1.50093779e-001 7.26220161e-002 5.08017242e-002
      5.59643693e-002 3.23157072e-001 8.23892355e-002 3.33962329e-002
      8.90772976e-003 9.23583135e-002 2.32701749e-001 2.61728376e-001
      2.61728376e-001 1.62662584e-002 5.22685945e-002 5.00923907e-003
      1.32806659e-001 9.99098793e-002 1.60900041e-001 2.61728376e-001
      2.61728376e-001 2.61728376e-001 1.37065509e-002 7.60926157e-002
      2.66177878e-002 8.01745951e-002 6.22968785e-002 2.07335562e-001
      1.46522075e-001 5.59279658e-002 8.61910880e-002 1.17027350e-002
      4.37444113e-002 7.09290104e-003 2.61728376e-001 2.61728376e-001
      2.52342045e-001 1.90181196e-001 2.74058767e-002 4.77602556e-002
      1.55096315e-002 6.36582002e-002 2.01617517e-002 2.61728376e-001
      2.61728376e-001 2.61728376e-001 2.53111720e-001 1.75630391e-001
      2.37341985e-001 2.24486291e-002 9.14366841e-002 3.37849297e-002
      2.91888826e-002 4.47549261e-002 2.53111720e-001 2.53111720e-001
      2.25844100e-001 2.53111720e-001 1.95165221e-002 2.08485331e-002
      1.49200484e-002 9.33099911e-002 7.48774484e-002 2.53111720e-001
      2.40396932e-001 1.85103547e-002 3.39654610e-002 2.72728037e-002
      7.32947886e-002 2.36338899e-002 2.53111720e-001 2.53111720e-001
      2.53111720e-001 2.30346277e-001 5.50681092e-002 8.21244866e-002
      2.73819752e-002 1.65903307e-002 1.61854047e-002 2.53111720e-001
      2.45631352e-001 2.53111720e-001 3.20764512e-001 1.65659830e-001
      1.88658372e-001 3.57363820e-002 6.69944361e-002 3.57576013e-002
      1.00969091e-001 7.58539513e-002 2.74745196e-001 1.91241652e-001
      4.41008285e-002 7.68571869e-002 1.59122571e-001 3.20764512e-001
      1.62186399e-001 6.32510781e-002 1.38926310e-002 1.38585523e-001
      2.56780058e-001 6.24570586e-002 8.36298764e-002 7.05570206e-002
      9.75062102e-002 4.58578318e-002 2.18796790e-001 1.66794941e-001
      3.20764512e-001 1.70355797e-001 4.35057096e-002 5.11136279e-002
      2.15944991e-001 3.20764512e-001 1.86097473e-001 5.57883978e-002
      3.47927324e-002 1.26679599e-001 8.88739005e-002 9.42305475e-003
      2.95733428e-003 1.30147848e-003 9.06871911e-003 8.64585768e-003
      3.87857527e-001 3.88513178e-001 2.52478898e-001 1.95828676e-001
      1.30350469e-002 4.26467462e-003 5.84072014e-003 2.65779495e-002
      1.31187523e-002 3.88513178e-001 3.88513178e-001 3.88513178e-001
      1.04933213e-002 3.52353929e-003 9.99988639e-004 1.68305298e-004
      4.03021462e-003 3.47660645e-003 1.12355836e-002 3.87359634e-002
      2.22640168e-002 3.90031673e-002 7.36317784e-003 7.77768902e-004
      1.43361511e-003 1.42324921e-002 8.77023116e-003 1.32866845e-001
      3.08075666e-001 1.17767029e-001 1.22857027e-001 5.47835277e-003
      3.53212678e-003 5.41329803e-003 1.03777312e-002 3.99666047e-003
      3.02196801e-001 3.02196801e-001 3.02196801e-001 1.47015125e-001
      1.54918823e-002 2.45788358e-002 3.53260376e-002 9.49482247e-003
      1.49549106e-002 3.02196801e-001 3.02196801e-001 3.02196801e-001
      3.47261392e-002 3.34051298e-003 9.32847790e-004 1.89497462e-003
      6.38720393e-003 3.24034970e-003 1.64578721e-001 3.02196801e-001
      1.39880240e-001 4.39873040e-002 5.52044576e-003 9.42041166e-003
      3.05580683e-002 1.23170167e-002 1.06635261e-002 3.02196801e-001
      3.02196801e-001 2.90838033e-001 1.02721512e-001 1.14960745e-002
      3.30729634e-002 4.64470647e-002 5.64991198e-002 3.70025635e-002
      2.14385450e-001 2.91739672e-001 2.44296342e-001 6.26687109e-002
      9.67099424e-003 3.30018513e-002 1.25588432e-001 2.91739672e-001
      1.48654982e-001 7.83249438e-002 1.15684427e-001 9.56074297e-002
      4.85388599e-002 3.24477744e-003 1.49256634e-002 2.87984516e-002
      3.37396748e-002 1.82890892e-002 2.91739672e-001 2.91739672e-001
      2.91739672e-001 8.09249356e-002 2.98465379e-002 7.65759274e-002
      6.20627068e-002 2.91739672e-001 1.15117945e-001 2.91739672e-001
      2.91739672e-001 2.91739672e-001</_>
    <_>
      4.42745984e-002 5.20359389e-002 1.48800844e-002 2.74360902e-003
      1.74653844e-003 8.55830091e-004 2.15785322e-003 4.35850909e-003
      1.35221025e-002 1.57508641e-001 3.30130041e-001 9.86478850e-002
      1.02189975e-002 4.39269701e-003 2.27359030e-003 1.91747001e-003
      4.88150027e-003 3.23511846e-002 3.01114529e-001 4.09639746e-001
      2.80789107e-001 5.74781140e-003 3.46864341e-003 2.47197063e-003
      3.74364783e-003 9.62391309e-003 3.37070338e-002 4.09639746e-001
      4.09639746e-001 4.09639746e-001 1.01874555e-002 1.96251273e-003
      2.15697801e-003 2.30016536e-003 4.44984529e-003 6.25195876e-002
      1.52543902e-001 3.42831463e-001 1.26385748e-001 5.61334658e-003
      3.25187552e-003 1.73330889e-003 1.43723248e-003 1.15524034e-003
      2.06182227e-002 2.75006890e-001 3.42831463e-001 2.71099031e-001
      1.93565264e-002 1.24769844e-002 4.49984754e-003 2.33191065e-003
      2.26165843e-003 1.86295230e-002 2.96337426e-001 3.42831463e-001
      2.47286797e-001 1.23122921e-002 1.11841168e-002 2.52440968e-003
      2.76147970e-003 2.98435125e-003 3.28730233e-002 2.74815440e-001
      3.42831463e-001 3.04185510e-001 8.47954750e-002 7.50892013e-002
      5.15287071e-002 2.31888089e-002 2.06329264e-002 4.29678783e-002
      2.33495086e-001 3.21649045e-001 3.12950879e-001 6.19254038e-002
      5.12120128e-002 1.75841693e-002 3.54977325e-003 1.08853420e-002
      3.66972759e-002 1.52622879e-001 3.21649045e-001 2.02703148e-001
      9.21541601e-002 3.21649045e-001 1.07782148e-001 1.34724779e-002
      4.94254678e-002 8.44996348e-002 1.43383950e-001 3.21649045e-001
      2.59517819e-001 1.49376556e-001 2.02420518e-001 8.84435698e-002
      2.66972594e-002 3.40823531e-002 4.78617400e-002 3.02202627e-002
      1.30510300e-001 1.09439276e-001 1.37910083e-001 3.21649045e-001
      1.03063591e-001 5.49673941e-003 2.18979307e-002 3.57661545e-002
      2.20285669e-001 3.26665372e-001 2.59449273e-001 2.94277687e-002
      2.46423930e-002 1.09134726e-002 5.01794368e-002 8.79258364e-002
      4.47309464e-002 2.38647610e-001 3.26665372e-001 2.23161772e-001
      9.74195637e-003 8.34323186e-003 4.66405600e-003 2.50131320e-002
      5.60383983e-002 3.53392251e-002 9.85143334e-002 2.33427376e-001
      1.03021935e-001 3.65022086e-002 3.14719193e-002 2.32592355e-002
      2.82638341e-001 3.26665372e-001 2.29075775e-001 7.87466392e-002
      1.66765496e-001 5.12806475e-002 1.42510310e-002 1.42629296e-002
      1.45026371e-002 2.10786417e-001 3.26665372e-001 1.91149399e-001
      2.33843237e-001 2.70341069e-001 2.04409435e-001 5.99199645e-002
      1.22186519e-001 2.28292756e-002 1.62793361e-002 2.35964078e-002
      3.31654362e-002 1.68626547e-001 2.70341069e-001 2.42553815e-001
      1.78569138e-001 2.51927197e-001 1.28329039e-001 5.43821789e-002
      5.25139868e-002 8.09552521e-002 6.96305931e-002 6.50073737e-002
      4.44597080e-002 6.18626140e-002 1.99056625e-001 7.22909868e-002
      1.94407761e-001 2.70341069e-001 1.44389078e-001 8.56451914e-002
      1.04774095e-001 9.61760879e-002 1.34640664e-001 2.70341069e-001
      1.84664100e-001 2.55318195e-001 2.70341069e-001 1.99350223e-001
      9.95670334e-002 2.48822957e-001 1.38439834e-001 1.50640145e-001
      3.45358610e-001 1.45044431e-001 5.19299656e-002 5.37402257e-002
      8.51163790e-002 2.48840358e-002 2.97816601e-002 3.30378562e-002
      1.13977849e-001 4.45714325e-001 9.78217274e-002 8.89971387e-003
      1.31624443e-002 2.47074738e-002 1.17662691e-001 9.04814005e-002
      6.72968626e-002 1.22605629e-001 3.88057500e-001 1.55773833e-001
      9.98334140e-002 1.23016946e-001 1.80057928e-001 4.85095344e-002
      2.33284980e-002 1.86024960e-002 1.21214740e-001 4.45714325e-001
      1.09193221e-001 1.11707160e-002 5.86456014e-003 3.73388790e-002
      4.61939871e-002 1.06219715e-002 1.21100619e-002 7.04485644e-003
      7.42190005e-003 8.78332369e-003 2.84152418e-001 3.77225906e-001
      2.81095803e-001 4.19359319e-002 5.94353909e-003 6.28716312e-003
      4.62392159e-003 4.92047053e-003 9.57003795e-003 3.77225906e-001
      3.77225906e-001 3.77225906e-001 2.36967970e-002 6.54874230e-003
      6.31242013e-003 3.31190822e-004 2.18006037e-003 1.86172128e-003
      4.78820615e-002 1.44547433e-001 6.40164241e-002 2.89662536e-002
      4.30247281e-003 3.76209104e-003 3.57731828e-003 5.20690531e-003
      6.11522561e-003 1.95518523e-001 3.77225906e-001 2.30905578e-001
      2.10967585e-002 1.65128405e-003 2.57407199e-003 7.69630354e-003
      2.99206339e-002 1.88803636e-002 2.29992718e-001 3.33090395e-001
      2.30325371e-001 4.32272293e-002 1.98291633e-002 2.94754021e-002
      4.51175086e-002 9.68032703e-002 6.06075600e-002 2.22942337e-001
      3.33090395e-001 2.62259811e-001 2.09046435e-002 2.64237612e-003
      3.89891560e-004 2.16051517e-003 4.49802401e-003 3.91533598e-003
      2.11278617e-001 3.33090395e-001 2.35590637e-001 3.59013043e-002
      1.99806355e-002 2.35869996e-002 2.58232784e-002 3.58945876e-002
      3.30283530e-002 3.02660912e-001 3.33090395e-001 3.33090395e-001
      6.55285269e-002 3.39668393e-002 6.72340989e-002 1.05067320e-001
      2.25749522e-001 1.38203815e-001 1.13392957e-001 2.38467529e-001
      2.03331783e-001 2.56125126e-002 1.28990505e-002 3.05117033e-002
      1.00424066e-001 3.16921234e-001 1.35566771e-001 3.31190117e-002
      3.00733671e-002 5.05230911e-002 3.40743624e-002 3.14784609e-002
      5.48410043e-002 7.58589953e-002 1.23570465e-001 1.26299620e-001
      3.16921234e-001 3.16921234e-001 3.16921234e-001 6.96771964e-002
      8.54376890e-003 7.55822137e-002 1.47485465e-001 3.16921234e-001
      1.62900656e-001 2.11637899e-001 2.72716522e-001 1.93646550e-001</_>
    <_>
      1.58982235e-003 1.36088580e-003 5.87621063e-004 0. 8.99152874e-005
      0. 0. 0. 1.54781621e-003 8.12226906e-002 6.57610074e-002
      9.52273533e-002 2.01327959e-003 3.01837991e-003 0. 2.08117854e-004
      3.98311939e-004 2.81040557e-002 1.73211038e-001 3.77958447e-001
      4.09633934e-001 7.68737355e-003 1.55038116e-002 5.00048883e-003
      2.86397687e-003 6.59923023e-003 7.95964152e-002 4.09633934e-001
      4.09633934e-001 4.09633934e-001 1.49171248e-001 1.14142813e-001
      4.09772731e-002 7.05877412e-003 9.91411954e-002 2.78393358e-001
      1.06034502e-001 1.46667615e-001 1.50702134e-001 5.02965925e-003
      2.71841139e-003 4.32916822e-005 2.22002200e-004 4.24884813e-004
      4.02277783e-002 2.85757750e-001 2.94323087e-001 2.94323087e-001
      1.13978256e-002 9.73287132e-003 6.49375201e-004 7.85433804e-004
      4.96128981e-004 8.83251503e-002 2.94323087e-001 2.94323087e-001
      2.94323087e-001 1.16327569e-001 8.17162693e-002 2.46153865e-002
      1.62505396e-002 4.26292866e-002 1.68014914e-001 2.94323087e-001
      2.94323087e-001 2.94323087e-001 9.86598358e-002 1.76630586e-001
      5.14272228e-002 4.75473702e-002 2.23919973e-002 2.44507074e-001
      2.64940023e-001 3.02315027e-001 3.02315027e-001 1.30369142e-002
      3.46265249e-002 3.79174692e-003 1.74603192e-003 3.94012750e-004
      5.49562871e-002 1.95769921e-001 3.02315027e-001 3.02315027e-001
      2.14653492e-001 3.02315027e-001 1.40891047e-002 3.38506885e-003
      3.45312967e-003 3.38163786e-002 1.79670930e-001 1.92281887e-001
      1.77167013e-001 4.98060733e-002 2.22344458e-001 4.33826707e-002
      2.56291721e-002 1.24831619e-002 8.55738074e-002 3.75946909e-002
      4.16052230e-002 1.99511811e-001 2.85370260e-001 3.02315027e-001
      3.19162160e-002 6.70921477e-003 3.20376479e-003 1.44456653e-002
      1.90619245e-001 2.48582795e-001 2.48582795e-001 1.64533202e-002
      3.16988155e-002 9.19445045e-003 5.03389118e-003 1.40711749e-002
      7.55106211e-002 2.48582795e-001 2.48582795e-001 2.48582795e-001
      8.88743550e-002 1.38611257e-001 7.76731595e-002 1.35115050e-002
      6.20732456e-002 1.05053909e-001 2.48582795e-001 1.89171210e-001
      2.48582795e-001 3.06548346e-002 6.38299659e-002 1.38191320e-002
      1.67025179e-001 1.86880320e-001 2.48582795e-001 2.43885681e-001
      1.24640524e-001 1.71939015e-001 5.04995435e-002 1.91653594e-001
      1.11926988e-001 2.29970664e-001 2.04428345e-001 2.37599254e-001
      2.32555509e-001 2.32555509e-001 2.32555509e-001 1.28075346e-001
      2.08294436e-001 1.00770243e-001 3.79745588e-002 7.63858855e-002
      1.61506251e-001 2.24759549e-001 1.42394856e-001 1.29827842e-001
      7.88360462e-002 2.32555509e-001 1.25021949e-001 8.42662752e-002
      7.31531307e-002 1.92463830e-001 2.27300480e-001 9.44971070e-002
      1.20584950e-001 5.14451824e-002 2.32555509e-001 1.63061202e-001
      2.32555509e-001 1.69440866e-001 2.32555509e-001 1.54795378e-001
      7.68224373e-002 8.63910019e-002 5.91239408e-002 2.32555509e-001
      1.81923077e-001 1.72732562e-001 1.08657226e-001 2.32555509e-001
      9.54734385e-002 7.15061873e-002 4.29176353e-002 6.32582307e-002
      4.24579710e-001 1.13758475e-001 5.42092361e-002 7.40093663e-002
      8.80333036e-002 1.97187196e-002 1.66330785e-002 7.12650493e-002
      1.81740746e-001 4.24579710e-001 6.31872490e-002 9.97802615e-003
      1.69833042e-002 1.38201825e-002 9.00482163e-002 9.80953425e-002
      5.30346483e-002 9.64907110e-002 4.24579710e-001 1.45311147e-001
      7.52919987e-002 1.00864835e-001 1.32040456e-001 1.84559133e-002
      3.28280255e-002 2.15820111e-002 8.71748924e-002 4.24579710e-001
      2.52022296e-001 1.52784437e-001 3.00955493e-002 2.58472282e-002
      3.01688075e-001 2.50895526e-002 3.28129269e-002 1.45600569e-002
      3.35116014e-002 6.23865286e-003 3.01688075e-001 3.01688075e-001
      3.01688075e-001 3.01688075e-001 1.44644594e-002 4.12402898e-002
      1.54859107e-002 1.14234552e-001 5.10247648e-002 3.01688075e-001
      3.01688075e-001 3.01688075e-001 4.58989888e-002 1.35603565e-004
      6.51776936e-005 0. 1.41024517e-004 5.19602909e-005 6.23014793e-002
      5.52388094e-002 7.81772509e-002 1.58679247e-001 7.48360821e-004
      1.01034937e-003 5.56854997e-004 5.15523227e-003 1.22693763e-003
      2.51832724e-001 2.47479379e-001 2.88011938e-001 1.90829888e-001
      1.24581428e-002 4.85318191e-002 1.49830831e-002 1.32040918e-001
      5.52506633e-002 2.60118395e-001 2.60118395e-001 2.60118395e-001
      1.88876063e-001 3.29440311e-002 6.41648620e-002 4.83957306e-002
      1.91881567e-001 8.37115645e-002 2.60118395e-001 2.10112959e-001
      2.60118395e-001 1.29900575e-001 2.54839921e-004 6.79255370e-003
      3.22619453e-003 1.42417820e-002 4.78373747e-003 2.60118395e-001
      2.16571793e-001 2.60118395e-001 2.52181232e-001 3.08509124e-003
      1.75531320e-002 1.49351265e-002 3.78008261e-002 1.81389432e-002
      2.60118395e-001 2.60118395e-001 2.60118395e-001 1.12946413e-001
      5.60218655e-002 3.48352268e-002 6.86857998e-002 1.82858407e-001
      6.94618598e-002 1.19129732e-001 8.47266912e-002 1.62499651e-001
      2.40770001e-002 2.57799104e-002 1.30437538e-002 5.51184714e-002
      2.86374778e-001 2.62599289e-001 1.91678107e-001 2.43550446e-002
      2.85807289e-002 2.61931121e-001 1.07047111e-002 9.73750465e-003
      1.85172409e-002 4.43570428e-002 1.55134797e-002 2.86374778e-001
      2.86374778e-001 2.86374778e-001 1.31562203e-001 1.29772937e-002
      1.24631794e-002 3.32941674e-002 2.86374778e-001 1.93749741e-001
      2.86374778e-001 2.86374778e-001 2.75662661e-001</_>
    <_>
      3.96282263e-002 4.52528894e-002 3.72984856e-002 2.71498878e-003
      8.78203195e-003 3.39129451e-003 3.61930532e-003 6.02296926e-003
      1.45385712e-002 1.31857201e-001 3.37202549e-001 2.02204332e-001
      2.63968622e-003 9.86924954e-003 4.58756508e-003 5.52126672e-003
      6.01244625e-003 3.25677022e-002 3.05471659e-001 3.74404728e-001
      3.74404728e-001 1.07057048e-002 8.71837791e-003 3.59252025e-003
      6.47628680e-003 9.50885285e-003 4.94180322e-002 3.74404728e-001
      3.74404728e-001 3.74404728e-001 5.63725969e-003 1.82843059e-002
      6.99846260e-003 1.09721599e-002 1.89871769e-002 1.40643656e-001
      1.48358718e-001 2.93454915e-001 2.28695810e-001 1.15877122e-003
      6.40461966e-003 2.63046450e-003 4.61316016e-003 5.76642947e-003
      3.09873670e-002 2.93454915e-001 2.93454915e-001 2.93454915e-001
      1.30315032e-003 5.80290426e-003 2.61281221e-003 1.06230779e-002
      1.68088842e-002 6.24003299e-002 2.93454915e-001 2.93454915e-001
      2.93454915e-001 2.03681691e-003 5.49295032e-003 2.69417255e-003
      4.13473649e-003 1.84685905e-002 1.48884758e-001 2.93454915e-001
      2.93454915e-001 2.93454915e-001 6.27346523e-003 4.57923813e-003
      8.37033964e-004 4.85807750e-003 2.67677084e-002 1.81204125e-001
      3.13495159e-001 3.32675785e-001 3.32675785e-001 1.76325371e-003
      5.90662174e-002 9.72703099e-003 1.08758900e-002 2.56669074e-002
      7.98942149e-002 1.89531431e-001 3.20136607e-001 2.36257300e-001
      7.57110585e-003 3.32675785e-001 9.78735760e-002 2.11523641e-002
      6.45502582e-002 8.87345374e-002 2.42780387e-001 2.07665026e-001
      2.35680729e-001 8.36673565e-003 1.12957343e-001 1.23802349e-002
      1.33226300e-002 2.95476262e-002 1.16632916e-001 7.31607527e-002
      7.85436854e-002 6.17472567e-002 1.64408293e-002 3.32675785e-001
      1.55524269e-001 1.58287790e-002 2.06670314e-002 5.37282862e-002
      2.12380618e-001 2.59554714e-001 2.59554714e-001 1.61461122e-002
      6.44327253e-002 3.02037387e-003 6.66292012e-002 4.38749082e-002
      6.55884668e-002 2.59554714e-001 2.59554714e-001 2.59554714e-001
      8.08505714e-003 1.20810613e-001 9.54413880e-003 6.51826411e-002
      5.18372208e-002 1.56556800e-001 1.68348566e-001 8.74271393e-002
      1.13880530e-001 1.77570265e-002 8.23920220e-002 3.07663600e-003
      2.59554714e-001 2.59554714e-001 2.29535118e-001 2.59554714e-001
      8.59423429e-002 9.65066999e-002 1.08234324e-002 1.55941263e-001
      8.50981101e-003 2.59554714e-001 2.59554714e-001 2.59554714e-001
      2.85321772e-001 2.85321772e-001 2.27413371e-001 3.34447436e-003
      6.13287352e-002 4.52082092e-003 2.47304309e-002 5.64433224e-002
      2.85321772e-001 2.85321772e-001 1.52237654e-001 9.27344263e-002
      1.95671208e-002 3.84025788e-003 6.31652167e-003 1.79060083e-002
      6.72777221e-002 2.85321772e-001 2.85321772e-001 6.61032125e-002
      3.86469439e-002 4.12755692e-003 7.80866072e-002 4.55830712e-003
      2.77862728e-001 1.82018951e-001 2.85321772e-001 2.85321772e-001
      1.51591018e-001 2.17715800e-002 2.18416229e-002 2.78666453e-003
      1.25749614e-002 1.05114818e-001 1.03061825e-001 2.85321772e-001
      2.88114756e-001 1.15613736e-001 1.03556320e-001 4.24784906e-002
      1.11141205e-001 4.65070792e-002 1.04726739e-001 1.16289809e-001
      2.76903123e-001 1.13560222e-001 5.53984754e-002 7.46036917e-002
      3.33783589e-002 3.41916054e-001 2.11680338e-001 1.13010414e-001
      6.11705072e-002 1.20455697e-001 3.30299139e-001 1.64836794e-001
      9.18604732e-002 5.43506853e-002 1.00583471e-001 6.43234104e-002
      1.69009641e-001 1.37992352e-001 2.90841252e-001 1.34728193e-001
      6.52800724e-002 1.01386502e-001 4.28478159e-002 3.41916054e-001
      2.52507091e-001 1.50401488e-001 8.75106677e-002 1.30502373e-001
      1.18728958e-001 7.54487189e-003 3.18086892e-003 9.15417727e-003
      2.57463809e-002 2.40754639e-003 3.22440416e-001 3.22440416e-001
      3.22440416e-001 2.59168327e-001 5.84863545e-003 8.43690417e-004
      6.06497331e-003 4.31369320e-002 1.93741499e-003 3.22440416e-001
      3.22440416e-001 3.22440416e-001 2.45690085e-002 6.42997446e-003
      6.03728415e-003 7.85704330e-003 8.06266628e-003 5.07820165e-003
      8.33321884e-002 7.61552528e-002 7.91095868e-002 5.56190051e-002
      7.10565597e-003 4.49035596e-003 7.86296278e-003 1.27651338e-002
      7.97485095e-003 3.22440416e-001 3.22440416e-001 2.40263462e-001
      1.96624443e-001 1.14816073e-002 1.39397802e-003 1.27562170e-003
      1.06311645e-002 1.82492298e-003 2.78952837e-001 2.78952837e-001
      2.78952837e-001 2.05532968e-001 4.09903452e-002 6.97576674e-003
      4.03067656e-003 1.26909837e-003 6.08352199e-003 2.78952837e-001
      2.36060590e-001 2.78952837e-001 6.89769611e-002 6.46391511e-003
      2.34601996e-003 2.34461715e-003 5.64316986e-003 4.84134443e-003
      2.78952837e-001 2.78952837e-001 2.32741058e-001 1.45550832e-001
      1.09347524e-002 5.73204691e-003 5.58409549e-004 3.12776025e-003
      4.33766842e-003 2.78952837e-001 2.78952837e-001 2.78952837e-001
      1.52700156e-001 3.64322774e-002 1.29663255e-002 1.23251379e-002
      5.00261374e-002 1.61873642e-002 2.30607614e-001 1.29252091e-001
      1.97573170e-001 7.44074509e-002 1.43562434e-002 1.52843744e-002
      2.95676831e-002 3.03606749e-001 1.07464746e-001 7.62825236e-002
      5.10484800e-002 7.35794753e-002 2.01739371e-001 1.43489530e-002
      5.54502476e-003 5.59000392e-003 2.97606811e-002 3.26464348e-003
      3.03606749e-001 3.03606749e-001 3.03606749e-001 2.16586635e-001
      1.89307667e-002 3.10255270e-002 5.46618737e-002 3.03606749e-001
      3.31944637e-002 3.03606749e-001 3.03606749e-001 2.97749758e-001</_>
    <_>
      7.66747668e-002 3.38731557e-001 3.38731557e-001 1.68599933e-002
      7.62876496e-003 2.48821639e-003 5.29787177e-003 2.58958014e-003
      2.22885888e-002 7.98100159e-002 3.38731557e-001 3.38731557e-001
      1.26863299e-002 2.22585369e-002 8.89997091e-003 8.99866596e-003
      5.98547701e-003 1.69452392e-002 1.80272430e-001 3.38731557e-001
      2.92141289e-001 7.63328653e-003 2.67332909e-003 4.16118931e-003
      5.74957114e-003 7.59813236e-003 4.59175780e-002 1.94777235e-001
      3.38731557e-001 3.38731557e-001 8.71878862e-002 1.65797453e-002
      4.97724768e-003 9.23868269e-003 1.12413196e-002 1.13999635e-001
      6.65827394e-002 3.05331320e-001 3.05331320e-001 6.48186170e-003
      1.46514745e-002 7.16271810e-003 4.42776456e-003 7.68113835e-003
      2.09786519e-002 5.96930459e-002 3.05331320e-001 3.05331320e-001
      6.09721616e-003 1.13974512e-002 2.59693479e-003 2.29216646e-003
      5.53212361e-003 1.33606419e-002 2.39855587e-001 3.05331320e-001
      3.05331320e-001 6.71276301e-002 8.36783368e-003 1.48526987e-003
      5.81643265e-003 4.33837399e-002 3.00126135e-001 2.27381378e-001
      3.05331320e-001 1.76736578e-001 1.12289721e-002 1.57660455e-003
      2.77525350e-003 3.03850789e-003 6.88164607e-002 3.05331320e-001
      6.08893298e-002 3.61604065e-001 3.61604065e-001 2.24691499e-002
      4.19145115e-002 5.68218296e-003 3.53474775e-003 4.08721343e-003
      1.93792097e-002 2.74689309e-002 1.68171123e-001 1.59306899e-001
      6.02483116e-002 3.61604065e-001 1.92976266e-001 1.32121490e-002
      6.12392463e-003 1.56975389e-002 2.24576443e-001 1.66808769e-001
      9.35885310e-002 2.58474983e-002 1.82102229e-002 2.56158505e-002
      1.48122292e-002 5.95276207e-002 3.61604065e-001 1.39885500e-001
      3.86902764e-002 6.12175949e-002 1.36383712e-001 3.61604065e-001
      1.14808641e-001 4.94787768e-002 7.77749494e-002 2.87962049e-001
      1.68750316e-001 3.05096954e-001 1.69374987e-001 2.01487225e-002
      1.68164447e-002 1.39961215e-002 7.05036148e-002 1.51719943e-001
      6.32251948e-002 1.62056461e-001 3.05096954e-001 2.51335800e-001
      2.68147141e-001 9.56994742e-002 1.93553716e-002 4.04845960e-002
      9.01246667e-002 1.71413317e-001 9.06159133e-002 1.43613294e-001
      3.66461203e-002 1.83674116e-002 2.64830794e-002 2.82569472e-002
      2.64933586e-001 3.05096954e-001 1.51940808e-001 1.05248325e-001
      6.27750307e-002 5.41626289e-002 1.84512571e-001 1.15463048e-001
      3.78040150e-002 2.27045223e-001 3.05096954e-001 2.84548670e-001
      1.98820099e-001 1.58750743e-001 1.46336988e-001 1.84134141e-001
      4.42000441e-002 6.15480170e-003 2.39064079e-002 1.44359291e-001
      3.47776324e-001 2.63143539e-001 5.04767038e-002 3.47337015e-002
      2.02700831e-002 1.04130304e-003 8.83200148e-004 6.45304099e-003
      1.47287294e-001 3.47776324e-001 1.10119075e-001 1.81153957e-002
      4.34439369e-002 1.26864105e-001 5.19745313e-002 1.18821431e-002
      8.97072107e-002 3.47776324e-001 3.47776324e-001 2.28755161e-001
      1.44742206e-002 1.47213340e-002 2.13109422e-002 2.40708864e-003
      2.89649208e-004 1.63527764e-002 2.41607532e-001 3.47776324e-001
      2.28988722e-001 1.90874618e-002 3.48884724e-002 3.37106027e-002
      1.59102958e-002 3.12383436e-002 2.07864121e-002 8.23285133e-002
      3.15623343e-001 1.38241976e-001 2.54553389e-002 9.88371372e-002
      1.77819461e-001 3.06275070e-001 1.21633641e-001 8.15162733e-002
      1.29210189e-001 3.15623343e-001 2.78050959e-001 5.51054589e-002
      9.03273225e-002 7.85391554e-002 2.02961508e-002 2.29456574e-002
      1.50584094e-002 8.91494825e-002 3.15623343e-001 1.85849115e-001
      8.46118629e-002 2.08100885e-001 2.24981397e-001 2.46931210e-001
      1.54268116e-001 8.25964138e-002 1.03381924e-001 3.15623343e-001
      5.07781543e-002 1.17885545e-002 7.13408273e-003 5.38710924e-003
      2.40066573e-002 2.81505696e-002 2.90684372e-001 3.56523246e-001
      9.80546698e-002 6.81400523e-002 9.97862220e-003 5.03448630e-003
      1.31459050e-002 3.04778293e-002 2.66957097e-002 3.11872512e-001
      3.56523246e-001 1.42935053e-001 2.31728107e-002 4.69809119e-003
      3.18812649e-003 6.80389861e-003 3.57303508e-002 4.02048752e-002
      3.56523246e-001 3.56523246e-001 3.69354151e-002 2.54447814e-002
      5.66807762e-003 5.71937393e-003 1.00853005e-002 5.24509586e-002
      4.63327169e-002 3.56523246e-001 3.56523246e-001 2.53931973e-002
      6.38003051e-002 2.19737273e-003 2.73535913e-003 9.75156110e-003
      1.29687106e-002 8.65125190e-003 2.72248328e-001 3.39401156e-001
      2.64592171e-001 1.28106073e-001 1.39190508e-002 2.91987159e-003
      9.35960840e-003 7.30381999e-003 1.62957713e-003 1.38796061e-001
      3.39401156e-001 3.39401156e-001 1.72174983e-002 4.49650781e-003
      6.29000040e-003 6.17953576e-003 2.48952899e-002 2.54145879e-002
      3.39401156e-001 3.39401156e-001 2.87343860e-002 2.28064526e-002
      9.05471575e-003 3.85819911e-003 4.05712798e-003 1.95954889e-002
      8.39112699e-003 3.39401156e-001 3.39401156e-001 4.59686518e-002
      2.40678698e-001 7.64027089e-002 6.45197928e-002 4.67062667e-002
      1.42481858e-002 1.13160023e-003 3.90564315e-002 1.13993600e-001
      3.54809731e-001 1.97598830e-001 9.13097709e-002 1.30943775e-001
      1.21331826e-001 3.54809731e-001 1.06567219e-001 5.47292233e-002
      5.82190715e-002 3.54809731e-001 4.31270227e-002 2.73110196e-002
      1.40145048e-002 9.07812361e-003 5.55567108e-002 2.19433871e-003
      3.54809731e-001 3.54809731e-001 7.38183856e-002 3.44383456e-002
      2.21963543e-002 2.63515320e-002 9.96067300e-002 3.54809731e-001
      4.14381884e-002 1.25941336e-001 1.16314597e-001 6.68141246e-002</_>
    <_>
      2.57653832e-001 2.90266983e-002 1.18146921e-002 8.66707414e-003
      1.05300890e-002 7.45162228e-003 5.98063227e-003 1.57145802e-002
      9.27475691e-002 2.91908830e-001 7.27794394e-002 5.66086881e-002
      5.37093617e-002 2.88666766e-002 2.64088456e-002 3.54959331e-002
      1.71515029e-002 1.20969251e-001 2.91908830e-001 8.60778987e-002
      2.91908830e-001 2.44146943e-001 4.75821756e-002 1.11258939e-001
      6.40796870e-002 1.25093758e-001 2.49853328e-001 2.91908830e-001
      2.91908830e-001 2.91908830e-001 2.91908830e-001 1.05272911e-001
      1.39943540e-001 1.13188908e-001 4.97911237e-002 2.91908830e-001
      1.99820593e-001 4.50957716e-002 9.75309312e-002 6.29264787e-002
      8.16108100e-003 2.46204883e-002 4.57721800e-002 4.37141117e-003
      7.85627142e-002 2.89519370e-001 8.05932060e-002 2.84584463e-001
      1.55406982e-001 1.74925232e-003 5.78829236e-002 8.28011706e-002
      8.27158801e-003 2.22974837e-001 2.89519370e-001 2.44651660e-001
      2.89519370e-001 1.68459982e-001 5.30376919e-002 3.92458290e-002
      7.39335492e-002 1.37367174e-002 2.89519370e-001 2.89519370e-001
      2.13191971e-001 2.89519370e-001 1.49401143e-001 4.09363545e-002
      3.42645869e-002 7.30924606e-002 1.13091217e-002 2.89519370e-001
      2.59719104e-001 1.11445010e-001 2.59719104e-001 1.58184886e-001
      1.20244862e-003 5.34114279e-002 5.99830262e-002 5.86199202e-003
      2.59719104e-001 2.59719104e-001 1.35488793e-001 2.59719104e-001
      1.56063378e-001 2.59719104e-001 4.92086560e-002 4.65344898e-002
      2.25448003e-003 2.59719104e-001 2.59719104e-001 1.24458440e-001
      2.59719104e-001 6.76000044e-002 2.08797976e-002 1.23013761e-002
      2.36802325e-002 6.98258588e-003 2.59719104e-001 2.41954431e-001
      6.35581836e-002 1.73248231e-001 1.92531664e-002 2.59719104e-001
      8.09208490e-003 1.76392717e-003 1.01178384e-003 2.23344937e-001
      2.45919436e-001 6.83711991e-002 2.31289223e-001 1.29680589e-001
      7.93601722e-002 4.48559336e-002 1.50062591e-001 7.88654462e-002
      2.06632659e-001 2.56096661e-001 2.05080703e-001 2.56096661e-001
      1.18440077e-001 6.57436401e-002 3.33728865e-002 1.08403213e-001
      7.51246884e-002 2.56096661e-001 2.23010749e-001 3.34218778e-002
      1.03152066e-001 3.24299112e-002 7.67060295e-002 5.18639125e-002
      2.56096661e-001 1.68266892e-001 2.56096661e-001 2.56096661e-001
      5.62499464e-002 7.99868777e-002 1.07262032e-002 4.23995778e-002
      4.62657623e-002 2.56096661e-001 2.56096661e-001 2.56096661e-001
      2.63033837e-001 1.54770344e-001 2.18023062e-001 4.46011797e-002
      8.67768526e-002 6.57253712e-003 3.85047980e-002 2.95298696e-002
      2.51237094e-001 2.63033837e-001 6.96901605e-002 1.67673498e-001
      1.67652685e-002 2.63033837e-001 2.28596898e-003 5.58161549e-002
      1.53024048e-002 2.63033837e-001 2.32828572e-001 2.25617103e-002
      1.98819600e-002 1.76580006e-003 5.41953333e-002 1.29567720e-002
      2.63033837e-001 2.39217371e-001 2.63033837e-001 2.46664837e-001
      1.21752648e-002 4.20472510e-002 4.50407201e-003 2.63033837e-001
      5.89319831e-003 2.63033837e-001 1.17179640e-001 2.62207001e-001
      3.32329810e-001 3.71560864e-002 1.02769800e-001 6.74301060e-003
      3.32329810e-001 1.92371476e-003 3.75951119e-002 1.16729094e-002
      3.32329810e-001 2.88911909e-001 9.71572194e-003 2.81724315e-002
      3.98440426e-003 3.32329810e-001 1.70594756e-003 2.93034915e-004
      1.76373718e-003 2.77265936e-001 1.98443100e-001 2.56008469e-002
      9.49728712e-002 5.76665625e-003 3.32329810e-001 5.59112756e-003
      1.56724378e-001 5.75878769e-002 2.02957630e-001 1.42509326e-001
      8.84508993e-003 3.06707844e-002 2.83375243e-003 3.32329810e-001
      2.88436026e-003 1.12933787e-002 5.33664413e-003 1.39760435e-001
      2.04113767e-001 2.35735383e-002 7.20555568e-003 6.22477615e-003
      2.43132710e-002 7.18975812e-002 3.56678605e-001 2.77352870e-001
      2.91157097e-001 3.56678605e-001 2.30422616e-002 1.59299020e-002
      4.68333438e-003 2.64280606e-002 1.34853840e-001 3.56678605e-001
      3.56678605e-001 3.56678605e-001 5.70640676e-002 2.97742579e-002
      1.22841923e-002 6.64611906e-003 2.98545305e-002 1.41536100e-002
      2.16251239e-002 3.93065736e-002 5.53891435e-002 1.16961353e-001
      7.85662681e-002 1.33250609e-001 1.71453729e-002 1.00162536e-001
      7.39305764e-002 1.50989935e-001 1.72632232e-001 1.19878605e-001
      1.95028797e-001 3.87722393e-003 5.84934140e-003 3.22188460e-003
      1.42238354e-002 3.53966542e-002 2.93629140e-001 2.93629140e-001
      2.93456376e-001 2.93629140e-001 9.34696570e-003 3.80501561e-002
      2.31981208e-003 2.93629140e-001 4.58761454e-002 2.93629140e-001
      2.58359075e-001 2.93629140e-001 5.71158379e-002 2.55009364e-002
      5.19691855e-002 1.38987647e-002 2.41622403e-002 3.18890959e-002
      1.90328658e-001 1.10997647e-001 9.44316462e-002 2.11230651e-001
      9.49104968e-003 1.01608261e-002 7.92009849e-003 1.21108824e-002
      6.04317300e-002 2.93629140e-001 1.62239790e-001 2.37933218e-001
      2.24114761e-001 1.17896134e-002 5.09998761e-002 9.78399068e-004
      2.76164651e-001 3.01493369e-002 2.76164651e-001 1.39374912e-001
      2.33359352e-001 9.74920318e-002 2.66896095e-003 1.17572797e-002
      7.27652013e-003 2.76164651e-001 1.01357521e-002 1.73828155e-001
      6.54372647e-002 1.20461151e-001 2.47370884e-001 5.55354171e-003
      3.92260961e-003 6.10853138e-004 8.70445929e-003 7.24936426e-002
      2.76164651e-001 1.67272970e-001 2.68404275e-001 2.73010463e-001
      4.51695500e-003 1.60713645e-003 1.75308324e-002 2.61364847e-001
      7.14481547e-002 2.76164651e-001 1.95427984e-001 2.76164651e-001</_>
    <_>
      1.59248635e-001 2.42936462e-002 4.62555513e-002 4.72492957e-003
      1.27795711e-001 1.89910017e-004 9.77705531e-006 1.22283440e-004
      1.30904213e-001 2.80390590e-001 2.18644753e-001 3.43748063e-001
      1.06793083e-003 1.33914035e-003 0. 0. 5.55833794e-005
      1.74282327e-001 1.80221602e-001 3.32064271e-001 3.43748063e-001
      5.04167425e-003 1.91558078e-001 8.77886254e-004 2.46851530e-004
      5.29894896e-004 1.85841266e-002 3.43748063e-001 3.43748063e-001
      3.43748063e-001 1.27207702e-002 4.56290804e-002 1.45034697e-002
      3.41265171e-004 9.13053227e-004 7.14310259e-002 2.19009936e-001
      2.41482273e-001 3.32786322e-001 1.63566356e-003 1.00028545e-001
      1.39620909e-002 5.93996607e-003 9.42775141e-003 1.31055757e-001
      1.91942886e-001 1.58411235e-001 1.58486888e-001 5.65525517e-003
      3.32786322e-001 5.25153913e-002 2.54401043e-002 3.83507721e-002
      1.57926098e-001 2.20361754e-001 3.32786322e-001 3.32786322e-001
      8.19326937e-003 3.32786322e-001 2.40358654e-002 1.34892075e-003
      1.97088439e-003 6.96254745e-002 7.49976411e-002 9.29681212e-002
      1.01986036e-001 8.42366926e-003 3.32786322e-001 2.94751711e-002
      3.35230608e-003 3.99003690e-003 4.26189341e-002 1.70112520e-001
      3.77844200e-002 4.09629978e-002 3.90368663e-002 4.12869424e-001
      5.01691364e-002 2.74787415e-002 4.16527465e-002 1.66526720e-001
      2.41541401e-001 2.53590457e-002 5.44437692e-002 7.52652958e-002
      4.12869424e-001 1.15527086e-001 7.90980533e-002 7.72644207e-002
      2.75344640e-001 1.98062994e-002 2.64153499e-002 1.95884351e-002
      2.99382936e-002 4.12869424e-001 3.32433246e-002 2.34986600e-002
      3.53346393e-002 3.27606648e-002 7.84627497e-002 7.11897761e-002
      7.93404728e-002 1.06360182e-001 4.12869424e-001 1.18853867e-001
      1.08265810e-001 8.98821205e-002 9.80599076e-002 1.30617663e-001
      2.60458171e-001 2.62791127e-001 8.33107159e-003 1.89393520e-001
      5.47822239e-003 1.27186254e-001 6.96143433e-002 5.27887046e-002
      2.62791127e-001 2.62791127e-001 2.62791127e-001 4.83547039e-002
      1.31269529e-001 3.97801287e-002 6.97561949e-002 3.66950072e-002
      1.03916191e-001 6.17957972e-002 8.74728858e-002 1.33874550e-001
      8.35276302e-003 2.06353471e-001 7.73195038e-003 2.62791127e-001
      2.58937776e-001 1.56312212e-001 2.35493392e-001 1.44492716e-001
      1.49268836e-001 6.46923631e-002 1.29634872e-001 4.38628830e-002
      2.62791127e-001 2.62791127e-001 2.14479297e-001 2.30198041e-001
      1.79106176e-001 1.95366055e-001 4.92963344e-002 4.16034609e-001
      6.15975037e-002 1.56693645e-002 4.09715949e-003 8.41648057e-002
      4.82427776e-002 1.94307994e-002 1.52990622e-002 1.96016040e-002
      4.16034609e-001 2.65607461e-002 4.24614380e-004 1.64667523e-004
      2.52788235e-002 2.42670491e-001 8.02924037e-002 6.71766624e-002
      7.48075694e-002 4.16034609e-001 5.51392436e-002 2.02575237e-001
      1.45512342e-001 1.20019123e-001 5.86096235e-002 1.05300825e-002
      2.87456182e-003 3.49288583e-002 4.16034609e-001 2.38081906e-002
      2.09323410e-002 1.76767670e-002 2.89243162e-002 1.60971526e-002
      2.33498402e-002 1.75602045e-002 3.31649296e-002 4.51348454e-001
      2.70534568e-002 1.00649120e-002 2.45083682e-002 2.74411179e-002
      6.72516897e-002 6.91572204e-002 7.17745349e-002 1.41950592e-001
      4.51348454e-001 1.03642844e-001 5.54654561e-002 7.52860606e-002
      9.06579345e-002 2.31698100e-002 2.21511405e-002 2.25150455e-002
      4.10439298e-002 4.51348454e-001 6.21826649e-002 6.69012452e-003
      1.87261812e-002 3.11025865e-002 8.39565024e-002 8.19563493e-002
      5.76705299e-002 1.88060313e-001 4.51348454e-001 1.90373257e-001
      2.22106967e-002 7.76407495e-002 1.01233624e-001 2.12424695e-002
      3.53317452e-003 9.67912201e-004 2.39032530e-003 1.81242123e-001
      2.98989774e-003 3.18843693e-001 2.59314269e-001 1.57890946e-001
      1.04062378e-001 2.51122266e-002 1.80714950e-002 2.71305777e-002
      2.98569929e-002 1.37580242e-002 3.18843693e-001 3.18843693e-001
      3.18843693e-001 2.03471467e-001 8.25988718e-006 2.47167318e-005 0.
      1.54987723e-001 4.76008607e-003 4.66656387e-002 2.50716731e-002
      2.38119945e-001 2.60083288e-001 8.48507989e-005 0. 3.46622372e-004
      2.34558037e-003 7.77898356e-004 3.18843693e-001 2.34820247e-001
      3.18843693e-001 8.03641975e-002 2.77706087e-002 1.06896777e-002
      2.45010220e-002 3.09377760e-001 7.62951979e-003 3.09377760e-001
      3.09377760e-001 1.66393504e-001 4.25452664e-002 2.42267270e-002
      6.48865430e-003 2.80212481e-002 3.09377760e-001 8.80944636e-003
      1.07798442e-001 7.74787590e-002 6.52507544e-002 1.72639921e-001
      2.32445132e-002 8.33486300e-003 1.25711225e-002 1.02695547e-001
      8.72483477e-004 3.09377760e-001 2.60444880e-001 2.71849900e-001
      2.16499001e-001 6.51953891e-002 3.61177437e-002 4.87423688e-002
      3.09377760e-001 9.49443970e-003 1.75154895e-001 1.76334426e-001
      2.49458849e-001 2.68736947e-002 3.49275544e-002 1.42596578e-002
      3.78835388e-002 3.66237015e-001 4.24508266e-002 1.22623062e-002
      2.18479838e-002 3.29545252e-002 7.86348283e-002 9.96162891e-002
      4.89343926e-002 1.34907588e-001 3.66237015e-001 1.19569696e-001
      4.87397723e-002 9.77044627e-002 8.99209753e-002 2.07823217e-001
      4.18421179e-002 3.07689104e-002 4.52347994e-002 3.66237015e-001
      5.31557687e-002 4.17654179e-002 6.64132833e-002 2.30790108e-001
      3.13745677e-001 8.38121623e-002 1.11008652e-001 1.06387593e-001
      3.66237015e-001 9.87594649e-002 7.26927742e-002 1.18426912e-001
      3.36715281e-001</_>
    <_>
      5.60221523e-002 8.24280158e-002 2.59479098e-002 2.53638271e-002
      2.55007856e-002 1.49539132e-002 1.74600147e-002 1.66312475e-002
      4.03058268e-002 1.60210013e-001 3.70344371e-001 1.98446065e-001
      3.66367102e-002 2.49121673e-002 1.29072741e-002 1.46753984e-002
      2.81030703e-002 5.18937148e-002 3.63209695e-001 3.70344371e-001
      2.58769900e-001 4.42690626e-002 3.89993489e-002 2.54488569e-002
      4.08097915e-002 2.69580148e-002 6.81787953e-002 3.70344371e-001
      3.70344371e-001 3.70344371e-001 7.82175660e-002 1.99948121e-002
      1.39167178e-002 2.42556706e-002 1.91569198e-002 8.71865600e-002
      1.28301471e-001 3.08218122e-001 1.67996377e-001 2.28361916e-002
      1.43346703e-002 6.82110479e-003 9.20980237e-003 2.09978279e-002
      3.18858661e-002 2.84108281e-001 3.08218122e-001 2.72355467e-001
      3.08140032e-002 3.11609767e-002 9.71460063e-003 6.55658776e-003
      1.57143958e-002 5.01720682e-002 2.82696128e-001 3.08218122e-001
      3.08218122e-001 6.39555305e-002 1.31404307e-002 9.84376529e-004
      1.72607917e-002 1.62062515e-002 4.00687829e-002 3.08218122e-001
      3.08218122e-001 3.08218122e-001 1.49290442e-001 9.71060619e-002
      2.35386137e-002 2.66385581e-002 1.10778473e-002 7.59176537e-002
      2.38967091e-001 3.10184181e-001 2.73973346e-001 6.92693442e-002
      8.48803222e-002 3.01313139e-002 1.64874420e-002 9.98543389e-003
      3.53492275e-002 1.71471030e-001 3.10184181e-001 1.84778497e-001
      1.07585937e-001 3.10184181e-001 7.28494972e-002 8.85175765e-002
      3.01710423e-002 4.29293737e-002 1.86359182e-001 3.10184181e-001
      2.76078850e-001 1.70477912e-001 2.56640285e-001 6.97141886e-002
      2.29730811e-002 4.63701785e-003 6.50181249e-002 3.77872773e-002
      8.53066817e-002 1.00418508e-001 1.75443992e-001 3.10184181e-001
      1.04532242e-001 3.50742638e-002 1.31229442e-002 2.65199710e-002
      2.38282487e-001 2.76425123e-001 1.64473787e-001 3.21342759e-002
